<?xml version="1.0"?>
<opencv_storage>
<opencv_ml_svm>
  <format>3</format>
  <svmType>C_SVC</svmType>
  <kernel>
    <type>LINEAR</type></kernel>
  <C>2.7300000000000000e+00</C>
  <term_criteria><epsilon>1.1920928955078125e-07</epsilon>
    <iterations>1000</iterations></term_criteria>
  <var_count>193</var_count>
  <class_count>5</class_count>
  <class_labels type_id="opencv-matrix">
    <rows>5</rows>
    <cols>1</cols>
    <dt>i</dt>
    <data>
      0 1 2 3 4</data></class_labels>
  <sv_total>10</sv_total>
  <support_vectors>
    <_>
      -1.95998792e-03 -9.59357619e-03 -6.71840413e-03 -5.79974912e-05
      -1.29649052e-02 -2.83318814e-02 1.94785651e-02 1.17023723e-04
      2.01041950e-03 -2.42317673e-02 9.25337058e-03 1.58367300e-04
      1.65376253e-02 -5.93133038e-03 -1.07314382e-02 1.88277045e-04
      2.18620226e-02 5.25455573e-04 -1.50376130e-02 2.55332619e-04
      2.31640600e-02 1.22131687e-02 -2.18196642e-02 3.15496989e-04
      -1.36112450e-02 -3.73976375e-03 -1.58545270e-03 -4.27271589e-05
      -9.26671550e-03 8.82679131e-03 -1.22626759e-02 5.65853516e-05
      -1.28422743e-02 2.30968930e-03 -8.04223958e-03 4.26747283e-06
      -2.61438056e-03 -1.98977813e-02 1.50920535e-02 -4.37458184e-05
      -4.17874241e-03 -1.99763812e-02 1.28573468e-02 -7.63930802e-05
      -2.94158165e-03 -2.66376734e-02 -4.10155486e-03 -8.72277748e-03
      -4.28901985e-03 -2.35817265e-02 -1.34896990e-02 -3.62933357e-03
      6.40469370e-04 -1.71761494e-02 8.57414585e-03 -7.51790998e-04
      2.64389301e-03 -1.44894514e-02 -6.24631764e-04 1.42866251e-04
      9.81045049e-03 -6.52268808e-03 -9.24543478e-03 1.51820888e-04
      1.25803705e-02 -1.15716327e-02 -4.32882318e-03 2.55697960e-04
      1.26254307e-02 -7.57631334e-03 -6.71869656e-03 3.10082542e-04
      1.77505724e-02 -7.37647002e-04 -1.83123332e-02 2.54699495e-04
      6.52096048e-03 -2.71364045e-03 -1.15019940e-02 9.16671925e-05
      -1.39745222e-02 -7.50472210e-03 6.64419320e-04 -6.75082410e-05
      -1.16467793e-02 -3.69636179e-03 -1.99559238e-03 -7.47755257e-06
      -8.91358778e-03 -3.10107530e-03 -8.80884763e-04 1.91792096e-05
      -8.59339070e-03 -1.60014052e-02 7.28170481e-03 -9.98318064e-05
      -7.78643694e-03 2.29191082e-03 -3.85755487e-03 8.31932120e-05
      -5.96956117e-03 1.08726835e-02 -9.66026448e-03 1.95677334e-04
      5.55660017e-03 5.36056701e-03 -3.01711378e-03 -3.21718282e-04
      2.95435172e-03 3.50312563e-03 -2.86945171e-04 -3.34774813e-04
      1.95110461e-03 -4.60048299e-03 -2.65736878e-03 -2.47799675e-04
      -7.16681127e-03 -1.03617029e-04 4.21653548e-03 4.91632163e-05
      -7.52585102e-03 -2.17270898e-03 1.99922407e-03 3.87223008e-05
      -7.55802961e-04 3.40052694e-03 7.74492370e-03 2.99440817e-05
      -1.47064012e-02 1.98580176e-02 9.95879527e-03 4.54627385e-04
      -2.30472581e-03 7.41762342e-03 1.27465585e-02 -7.71535633e-06
      -1.49237190e-03 2.68384116e-03 7.91386794e-03 -1.15766910e-04
      -2.84034596e-03 -9.54446208e-04 3.45787173e-03 -1.03749939e-04
      -5.43871778e-04 6.18387712e-03 8.70079640e-03 -1.60297408e-04
      5.06961811e-03 8.25229287e-03 5.61174517e-03 -2.98909057e-04
      1.38948523e-02 4.23144636e-04 -1.07310256e-02 -4.10524546e-04
      9.17074922e-03 -4.25365847e-03 -4.22450900e-03 -3.78795550e-04
      -7.78272608e-03 -5.40587411e-04 3.83234746e-03 4.26890147e-05
      6.07188209e-04 -1.25216814e-02 -6.05154876e-03 -2.21425813e-04
      -2.04918347e-02 1.23853805e-02 2.06923392e-03 4.48155362e-04
      -2.76558218e-03 -2.99202278e-03 3.19505366e-03 -1.49441737e-04
      -1.34190517e-02 3.09806084e-03 7.32579175e-03 8.22119036e-05
      3.64216696e-03 3.21045925e-04 2.03889562e-03 -2.67246127e-04
      3.55020203e-02 2.01816857e-02 8.28363281e-03 -4.63995020e-05
      -2.62238681e-02 5.32038044e-03 4.69919015e-03 4.13045054e-03
      2.02586781e-02</_>
    <_>
      7.86473881e-03 2.55504157e-04 -8.25875439e-04 -1.23845603e-04
      4.64638742e-03 -2.64491998e-02 1.07208574e-02 2.20530666e-04
      1.12067945e-02 -2.64458898e-02 1.06976349e-02 2.35573199e-04
      2.58186739e-02 -4.43372037e-03 -1.09784603e-02 2.57636479e-04
      2.71379519e-02 1.24100288e-02 -2.23136991e-02 2.60479021e-04
      4.25059423e-02 3.10523771e-02 -3.71483564e-02 4.86520439e-04
      -1.50458962e-02 1.10148098e-02 -1.23259714e-02 -6.13204757e-05
      -1.63554549e-02 2.87041143e-02 -2.95987930e-02 2.10245398e-05
      -1.97232813e-02 2.32755970e-02 -2.61769406e-02 2.14013812e-06
      -7.84358289e-03 -4.24913643e-03 2.18886836e-03 -4.54262372e-05
      -1.51868174e-02 -3.95754440e-04 -6.47503138e-03 -5.45583825e-05
      -3.33301141e-03 1.72114633e-02 7.40634138e-03 -2.94442498e-03
      -4.84737102e-03 5.83239272e-03 2.74514779e-03 3.67632048e-04
      2.18693144e-03 -7.61794334e-04 7.52624916e-03 -3.70940717e-04
      2.81138998e-02 -5.10964282e-02 1.06994854e-02 6.77293516e-04
      2.20439248e-02 -3.47033665e-02 1.06451474e-02 4.99822432e-04
      1.66323707e-02 -2.28263289e-02 8.48085899e-03 3.96138057e-04
      1.21116526e-02 -2.77946405e-02 1.64577942e-02 4.66575759e-04
      2.34169681e-02 -1.21823419e-02 -7.86636118e-03 4.61755728e-04
      1.94004625e-02 -2.82622986e-02 2.36008200e-03 4.87686601e-04
      -1.43811200e-02 -1.34920040e-02 8.73964280e-03 -2.31280355e-04
      -1.66575555e-02 -1.85291674e-02 1.21692913e-02 -2.47050397e-04
      -2.61931717e-02 -1.54295452e-02 1.27506186e-03 -3.08175833e-04
      -3.01410165e-02 -3.19166780e-02 3.16270208e-03 -4.90130798e-04
      -2.80404650e-02 -1.90702043e-02 -2.42949231e-03 -4.02593461e-04
      -1.17853507e-02 -7.63994735e-03 3.47992266e-03 -1.59828647e-04
      6.65809121e-03 -1.93662830e-02 -2.14866865e-02 4.61736709e-05
      -4.83134156e-03 6.86482061e-03 6.68079033e-03 -8.16614847e-05
      -9.89091862e-03 5.72877331e-03 8.12840927e-03 2.75526021e-04
      1.18002994e-03 4.78993589e-03 3.78166209e-03 -1.10019035e-04
      -5.95317129e-03 -5.26286371e-04 -2.19632755e-03 -2.31206777e-05
      -5.23744058e-03 -1.54836988e-03 -3.33004724e-03 -7.06597493e-05
      -1.06051071e-02 -1.37069430e-02 -1.62859783e-02 -7.27778897e-05
      2.16168840e-03 -1.32251503e-02 -1.09856920e-02 -2.10947750e-04
      1.26610720e-03 9.20383912e-03 9.47526935e-03 -1.16949937e-04
      7.02844560e-03 1.66768860e-03 8.71513796e-04 -2.35058469e-04
      4.42022970e-03 4.97252587e-03 2.50538066e-03 -1.92357780e-04
      -3.14526237e-03 1.09549277e-02 9.24400613e-03 -1.24817860e-04
      3.68318474e-03 -9.87230334e-03 -1.20047601e-02 -5.15348838e-05
      -3.22505308e-04 -2.21038284e-03 -3.29664350e-03 -5.30014295e-05
      8.09735619e-03 -4.77011176e-03 -5.54203102e-03 -2.93877150e-04
      6.61777239e-03 -1.29739074e-02 -1.12310415e-02 -3.52207280e-04
      7.98605197e-06 -1.12838456e-02 -9.62353218e-03 -2.04455937e-04
      5.21548418e-03 -5.69851953e-04 1.32654666e-03 -3.01683060e-04
      -1.54179288e-04 1.60685591e-02 1.53210284e-02 -1.59295421e-04
      2.04026699e-03 7.84685649e-03 6.01495011e-03 -1.95481131e-04
      1.13411611e-02 2.53593419e-02 7.00765057e-03 1.21423146e-02
      -6.47351984e-03 -2.48049595e-03 3.83915496e-03 3.30741070e-02
      -1.95806241e-03</_>
    <_>
      -1.09927496e-03 -2.32936651e-03 -2.51184707e-03 -2.34930470e-04
      -1.31442174e-02 -4.32376340e-02 2.33393963e-02 3.19009530e-04
      9.69042070e-03 -6.80966079e-02 3.46931443e-02 5.47584088e-04
      2.82124020e-02 -2.92531326e-02 1.90935389e-03 4.92915919e-04
      2.66868528e-02 9.49608069e-03 -2.51605492e-02 3.82433180e-04
      2.31280942e-02 4.15086336e-02 -4.89823595e-02 3.81093385e-04
      -6.92824228e-03 4.03775461e-02 -3.69437002e-02 2.25769792e-04
      -6.81981677e-03 2.10382883e-02 -1.42764999e-02 1.98348149e-04
      -1.03761097e-02 1.16433594e-02 -6.75372360e-03 9.60157413e-05
      -5.09574916e-03 -1.83004364e-02 2.06661709e-02 -5.47291602e-05
      -2.73429137e-02 -1.16681447e-02 -1.01045727e-04 -1.60229058e-04
      -7.57660577e-03 -1.49829760e-02 -2.31468324e-02 1.04221851e-02
      1.17888907e-02 -1.97041649e-02 -1.81041267e-02 1.99268758e-03
      2.53833812e-02 -1.47461370e-02 2.69450415e-02 -1.09176687e-03
      -1.56455720e-03 -4.43768650e-02 1.77948773e-02 5.02511510e-04
      2.31410768e-02 -3.00833844e-02 -3.02841258e-03 5.97348146e-04
      3.35993320e-02 -3.41390967e-02 1.85320678e-03 8.27272714e-04
      9.10762418e-03 -2.16815975e-02 5.52271772e-03 6.07532100e-04
      1.48709938e-02 -2.29804707e-03 -2.03468204e-02 4.83820331e-04
      7.40274612e-04 -8.98231380e-03 -9.36758425e-03 2.76714214e-04
      -9.60722845e-03 -6.08131476e-03 8.66453629e-03 3.89792112e-05
      -7.36040249e-03 -2.89225597e-02 3.06831785e-02 -9.44883213e-05
      -2.12038159e-02 -2.00201627e-02 1.33618005e-02 -2.21109687e-04
      -2.33284645e-02 -2.32178215e-02 9.43009090e-03 -2.83748988e-04
      -2.21699364e-02 5.75743103e-03 -8.15996714e-03 -3.02963708e-05
      1.53654395e-03 2.02717613e-02 -4.49384563e-03 3.41838575e-04
      8.04945303e-04 5.55905234e-03 -1.10806618e-02 -3.60617531e-04
      1.37852384e-02 9.92383808e-03 -1.63424946e-02 -8.67975235e-04
      2.41823914e-03 -6.56372448e-03 -1.45625835e-02 -7.36587099e-04
      2.99906172e-03 6.42323075e-03 6.75682770e-03 -7.64780911e-04
      -1.49339729e-04 -1.06805237e-02 -3.96118825e-03 -4.26489481e-04
      -5.95631031e-03 -1.49238820e-03 3.32559226e-03 -1.21511359e-04
      -1.07860425e-03 -1.84462555e-02 -8.76144134e-03 -4.37044218e-04
      1.13763651e-02 -1.15676709e-02 3.71547579e-03 -6.54614065e-04
      1.13293761e-02 1.42442556e-02 2.16858201e-02 -6.07155729e-04
      -9.36687551e-03 1.24070153e-03 1.92521920e-03 -2.46242533e-04
      1.83976116e-03 1.66077055e-02 1.25417979e-02 -4.44349163e-04
      -6.38819905e-03 2.96803229e-02 2.07283981e-02 -4.23830148e-04
      -9.30894108e-04 8.22383299e-05 -1.19320573e-02 -2.78822001e-04
      5.72561566e-03 3.29280435e-03 -3.11598764e-03 -6.50725095e-04
      -3.51232640e-03 1.19660599e-02 1.29344938e-02 -4.10298089e-04
      1.48053216e-02 -1.57508720e-02 -4.03376156e-03 -8.78106337e-04
      -1.69141707e-03 -1.46194017e-02 -7.56995613e-03 -4.12190479e-04
      1.11649102e-02 -1.15430932e-02 -3.70138529e-04 -9.27039771e-04
      -1.83153246e-02 8.13957583e-03 8.88107065e-03 -1.06005558e-04
      3.18766874e-03 9.65381600e-03 4.91319550e-03 -5.00272843e-04
      -5.11147408e-03 4.80747782e-02 1.41914366e-02 -1.16837509e-02
      -2.89461389e-03 2.59743091e-02 1.93197932e-02 -2.69242600e-02
      7.83024728e-03</_>
    <_>
      2.16795728e-02 4.71341331e-03 2.54587084e-03 -2.84534850e-04
      -1.30270449e-02 -7.72950705e-03 1.04214679e-02 3.40205988e-05
      -1.03466399e-02 -2.92498469e-02 2.66604945e-02 1.37889700e-04
      1.84021168e-03 -8.99843499e-03 5.52014029e-03 1.15385716e-04
      3.27198789e-03 7.24413060e-03 -8.17307178e-03 8.04433948e-05
      1.43948877e-02 1.29082082e-02 -1.38152251e-02 2.10754151e-04
      -2.11573839e-02 1.75562166e-02 -1.71398297e-02 -1.17892676e-04
      -1.36216087e-02 9.34000500e-03 -8.41563661e-03 -3.16971600e-05
      -9.55781993e-03 9.05180257e-03 -6.72735041e-03 1.05874751e-05
      -2.41939866e-04 -3.62991402e-03 9.18804854e-03 1.26560535e-05
      -2.62736599e-03 -5.81966946e-04 5.48366923e-03 7.87088902e-06
      -1.33319329e-02 -1.64980758e-02 -1.17037364e-03 9.24851571e-04
      -3.06286616e-03 -6.17225701e-03 -9.87753551e-03 -1.07115426e-03
      2.82630424e-07 -1.77012123e-02 -2.53584567e-05 -8.85063957e-04
      6.12573978e-03 -1.89065821e-02 5.03486162e-03 2.78930558e-04
      5.21750003e-03 -5.21391304e-03 -1.75728975e-03 1.72766799e-04
      3.84009234e-03 -6.35392638e-03 1.95208960e-03 1.83333017e-04
      -6.19273819e-03 -6.51510712e-03 7.32448651e-03 7.73334468e-05
      5.10403654e-03 -3.94305727e-03 -2.34734034e-03 2.12590923e-04
      -1.55102462e-03 -1.48475282e-02 8.10159557e-03 2.11772698e-04
      -9.68408771e-03 -2.93451245e-03 3.95289203e-03 -6.13981538e-05
      -4.79657575e-03 9.35766287e-03 -4.62324405e-03 7.78569811e-05
      -1.74372364e-02 1.02197761e-02 -1.22276209e-02 -3.14531899e-05
      -1.54572930e-02 -6.62412611e-04 -3.76412645e-03 -8.41391520e-05
      -2.04404388e-02 5.02009830e-03 -1.10016875e-02 -9.16942154e-05
      -8.33824184e-03 1.16469637e-02 -7.72496220e-03 8.09442063e-05
      -3.06086405e-03 -6.40056282e-03 -8.87328573e-03 5.02556286e-05
      4.84319124e-03 6.81599882e-03 -4.61925520e-03 -3.61343351e-04
      4.36689192e-03 -2.52093119e-03 -1.00802667e-02 -4.65843535e-04
      7.30761606e-03 2.43379106e-03 -1.04448735e-03 -5.02367620e-04
      1.92052475e-03 -5.96083654e-03 -6.92778546e-03 -2.32434031e-04
      1.36509715e-02 -9.57312156e-03 -4.37748473e-04 -5.35744301e-04
      7.16435397e-03 -1.73616745e-02 -6.44506607e-03 -4.41696640e-04
      1.68299694e-02 -1.52304489e-02 -7.74690323e-03 -4.91409446e-04
      2.01933403e-02 -3.72373266e-03 -2.36138422e-03 -4.58058435e-04
      1.41850486e-02 -5.01273246e-03 -8.25805683e-03 -3.47131718e-04
      1.30201289e-02 4.50008176e-03 -1.92620000e-03 -3.31127754e-04
      4.66340873e-03 1.03624417e-02 1.84738217e-03 -2.53158330e-04
      -7.65217328e-03 -2.67175469e-03 -3.64583009e-03 7.02547113e-05
      1.12538282e-02 3.50768259e-03 -4.50603943e-03 -5.19197725e-04
      5.40626235e-03 9.51760157e-04 -2.32983055e-03 -3.43227148e-04
      9.04804748e-03 -1.12853451e-02 -1.08208172e-02 -4.33434616e-04
      9.60373785e-03 -2.39627659e-02 -1.27949584e-02 -5.63805981e-04
      1.57445185e-02 -7.00671086e-03 -5.60893491e-03 -5.11102844e-04
      9.59200691e-03 -4.24237282e-04 -3.82408942e-03 -3.53549549e-04
      8.90973303e-03 -3.89064458e-04 -6.48101745e-03 -3.17517261e-04
      -2.28288956e-02 9.26850829e-03 7.63442088e-03 -7.07871234e-03
      1.24107264e-02 -5.40787866e-03 3.47492704e-03 -5.97566506e-03
      7.92082585e-03</_>
    <_>
      1.29832246e-03 1.50854615e-02 6.22659782e-03 -4.05179417e-05
      1.74389803e-03 -2.65829964e-03 2.98584066e-03 9.58394376e-05
      3.99705069e-03 -2.52660224e-03 3.40231601e-03 1.00424579e-04
      9.18258075e-03 -4.21946775e-03 4.38568462e-03 1.43694153e-04
      1.05287852e-02 -2.51651881e-03 5.27414633e-03 1.52757100e-04
      1.07566863e-02 2.52729841e-03 3.01481737e-03 1.51429806e-04
      6.66902075e-03 -4.09874739e-03 1.31150251e-02 9.84675280e-05
      9.57753230e-03 1.15051195e-02 1.04902254e-03 1.42877965e-04
      4.98373760e-03 4.03970527e-03 7.15318741e-03 5.17539011e-05
      -1.95744960e-03 2.76312567e-02 -1.40659995e-02 1.21891608e-04
      -8.05064011e-03 2.13623196e-02 -1.28079513e-02 6.16119869e-05
      1.66618638e-03 1.90525409e-02 -1.11514470e-03 -6.50528818e-04
      4.77198139e-03 2.10084599e-02 1.33756064e-02 -1.83627446e-04
      2.09404919e-02 1.58385020e-02 2.35461611e-02 -1.86471862e-05
      6.21719426e-03 -5.43935038e-03 1.93772919e-03 1.83461991e-04
      1.68411639e-02 5.86356083e-03 -1.12753892e-02 1.93653774e-04
      1.18026799e-02 9.81607568e-03 -9.63096786e-03 1.48994237e-04
      1.18359057e-02 -2.57504545e-03 1.88892276e-03 2.96509825e-04
      7.99944904e-03 -1.45677142e-02 1.02935899e-02 3.45002336e-04
      6.49077818e-03 -1.79895815e-02 1.05368281e-02 3.34645010e-04
      -7.24009611e-03 -1.33740464e-02 1.65810026e-02 -2.23045281e-04
      1.14220697e-02 -4.81269369e-03 1.86727848e-02 7.01569006e-05
      4.13133297e-03 1.77214872e-02 -2.80128932e-03 1.37390525e-04
      -1.38080341e-03 -3.62468977e-03 7.98477419e-03 -9.99784024e-05
      -1.25076529e-02 -1.29836360e-02 6.38868287e-03 -3.05055117e-04
      -3.43417143e-03 -2.84821596e-02 2.75309458e-02 -3.69272631e-04
      -3.01450118e-02 -2.20193379e-02 -1.93874387e-03 6.86969724e-04
      -1.43132247e-02 3.68827465e-03 3.51264537e-03 2.14329295e-04
      -1.54690561e-03 2.18319334e-02 1.35622183e-02 -2.24764255e-04
      7.84707256e-03 1.52169978e-02 7.76968338e-03 -2.59217544e-04
      -4.07050969e-03 1.11927297e-02 1.62187184e-03 2.36627267e-04
      9.60010383e-03 7.28573464e-03 2.42323754e-03 -1.25106963e-04
      1.05540277e-02 -3.92499678e-02 -2.88095046e-02 -6.99408702e-04
      1.13179050e-02 -7.10251415e-03 -1.02430563e-02 -2.73120386e-04
      -1.46309857e-03 6.48278045e-03 -1.38991873e-03 -9.03427747e-07
      -3.86254489e-03 6.98060263e-03 -1.10368512e-03 4.12088193e-05
      -3.26772640e-03 1.22596668e-02 4.87237517e-03 -4.18575524e-07
      -1.62840728e-02 1.16910902e-04 -9.95508279e-04 2.48716300e-04
      -3.67640778e-02 -1.27070462e-02 5.88848162e-03 7.40691612e-04
      -6.04406232e-03 -5.26019186e-03 -1.09130936e-02 1.64797690e-04
      3.51549173e-03 4.79188887e-03 -2.75743357e-03 -1.06405634e-04
      -9.69408429e-04 -6.32358424e-05 -7.68894143e-03 1.37778461e-05
      1.78013630e-02 -2.66849510e-02 -1.78202000e-02 -6.79436896e-04
      2.96585704e-03 1.43793961e-02 6.48135366e-03 -2.00032832e-06
      4.88400459e-04 1.24935741e-02 4.50470997e-03 -9.17814305e-06
      -3.82216950e-03 9.57825687e-03 2.47921050e-03 4.58479735e-05
      -3.72125134e-02 -2.59527490e-02 -1.08704120e-02 1.19512435e-02
      4.80993353e-02 -3.13927829e-02 -3.59820342e-03 9.41274595e-03
      -1.16002159e-02</_>
    <_>
      2.84694228e-02 9.84062906e-03 8.53456277e-03 -3.98132426e-04
      1.82283428e-02 -2.72155534e-02 -4.19985177e-03 4.22750018e-04
      3.43964808e-02 -3.65071334e-02 1.31959992e-03 5.43359609e-04
      -5.32791624e-03 -3.68806235e-02 3.23126130e-02 2.37796514e-04
      -3.50553840e-02 2.11975388e-02 -6.91011176e-03 -2.75384256e-04
      -6.92831352e-02 1.22068850e-02 3.88115318e-03 -6.61715283e-04
      4.01909128e-02 3.87306288e-02 -2.40223501e-02 6.24003354e-04
      1.50535489e-02 -8.74878466e-03 2.19415445e-02 1.80704432e-04
      2.14102324e-02 -1.70571543e-02 3.31246145e-02 1.16699026e-04
      -1.32131130e-02 3.47121060e-02 -2.66755745e-02 8.55608450e-05
      -4.52569500e-02 -1.14251636e-02 -1.58338044e-02 -3.66231281e-04
      -5.63269807e-03 6.37533842e-03 -1.82906836e-02 8.77711736e-03
      2.92203948e-02 1.10137565e-02 -8.96714721e-03 9.84243862e-03
      3.59509923e-02 1.49174640e-02 3.68607193e-02 6.58336212e-05
      -1.40076391e-02 1.37717817e-02 -4.73194243e-03 -2.96719118e-05
      -3.77947395e-03 7.75864115e-03 -7.27838883e-03 1.02267128e-04
      3.57572138e-02 -2.26647174e-03 -1.73549708e-02 6.21404790e-04
      -3.20342928e-02 1.66944843e-02 -1.52889418e-03 -3.01532389e-04
      -1.73890479e-02 6.53975680e-02 -4.57330570e-02 -4.96985391e-04
      -2.98195612e-02 2.97592971e-02 -5.18117473e-03 -3.23706307e-04
      2.25287806e-02 3.42102721e-02 -1.35644143e-02 5.55183215e-04
      2.46062744e-02 -2.87245736e-02 4.61721644e-02 1.23158025e-04
      2.42128018e-02 4.04442893e-03 2.18151603e-02 2.44028299e-04
      1.59787592e-02 3.06514874e-02 6.28964277e-04 3.64650652e-04
      -8.86995997e-03 4.10263985e-02 -2.57324316e-02 2.64838105e-04
      2.93185133e-02 3.19548324e-02 -7.20607117e-04 5.80334861e-04
      -4.71089361e-03 2.65556816e-02 5.89161646e-03 -4.45817481e-04
      -9.95002687e-04 -1.43844495e-03 -1.71625298e-02 -1.73686974e-04
      -3.09005324e-02 4.04052995e-03 2.41068704e-03 1.76280053e-04
      2.48909323e-03 9.05783568e-03 6.89188810e-03 -1.03357504e-03
      -1.52997309e-02 -2.06093490e-02 -1.58566497e-02 -2.47979071e-04
      1.93207525e-02 -2.51628701e-02 5.54925809e-03 -9.32575320e-04
      1.10021336e-02 -6.72883615e-02 -3.15201208e-02 -1.22951705e-03
      2.24695168e-02 -1.17226485e-02 6.48657652e-03 -6.71632064e-04
      -1.79744847e-02 1.24034006e-03 -9.39589634e-04 8.15949752e-05
      -4.07564975e-02 9.87647381e-03 6.55022403e-03 4.68428188e-04
      -1.32653548e-03 -1.48722585e-02 -2.05246303e-02 -1.88248698e-04
      -1.48047914e-03 3.70870419e-02 2.11619306e-02 -4.90609149e-04
      -9.28890333e-03 6.82956399e-03 -2.21448159e-03 -1.14283721e-04
      -3.38723734e-02 7.26023549e-03 7.55494880e-03 3.14218807e-04
      -4.91781626e-04 1.49434917e-02 1.24507211e-02 -6.09012670e-04
      1.12967324e-02 -5.47023350e-03 5.90370502e-03 -8.26170435e-04
      2.60429662e-02 -4.54275198e-02 -1.07739773e-02 -1.17066910e-03
      2.29980592e-02 -7.63484044e-03 1.35489239e-03 -9.11526848e-04
      -4.39267885e-03 -1.04278577e-02 -1.34106716e-02 -2.09830134e-04
      -2.90400861e-03 4.32157516e-03 -1.93215662e-03 -2.68586271e-04
      -9.15397629e-02 1.52549427e-02 2.35467945e-04 -4.61512973e-04
      3.04102767e-02 3.53080593e-02 3.88389826e-02 -2.02286690e-02
      -3.95353287e-02</_>
    <_>
      -8.45788233e-03 8.80355667e-03 2.32897233e-03 9.97143579e-05
      1.11885769e-02 -6.56389399e-04 -1.76268071e-03 7.47165905e-05
      2.37147370e-03 -7.47735088e-04 4.92873322e-03 1.34892462e-05
      7.51495315e-03 -4.15356411e-03 5.74275339e-03 5.19572677e-05
      1.11373737e-02 2.73704529e-03 -9.32755764e-04 5.61730449e-05
      1.17546925e-02 2.42894096e-03 -1.18868527e-04 6.05614841e-05
      -7.72559689e-03 2.77843163e-03 -1.06232015e-04 -1.07869855e-04
      -7.51900580e-03 8.75531696e-03 -7.60458270e-03 -8.40153371e-05
      -1.07416259e-02 1.07422890e-02 -1.24183502e-02 -8.84469628e-05
      -8.95994715e-03 -1.42469641e-03 -3.66957346e-03 -1.24625265e-04
      -2.79323687e-03 -1.60612613e-02 8.51782970e-03 -1.82028569e-04
      5.99841634e-03 1.85090601e-02 7.28259608e-03 -2.57030824e-05
      -2.16407527e-04 2.33343393e-02 1.69181861e-02 2.20110640e-04
      -5.09499619e-03 9.50021110e-03 -3.85576859e-03 8.45901159e-05
      2.55520325e-02 1.10588986e-02 -1.98813863e-02 1.05757979e-04
      1.50422249e-02 1.30050695e-02 -1.33210169e-02 3.05135090e-05
      5.52010536e-03 1.38937021e-02 -8.85949936e-03 -5.45220428e-05
      -3.54872970e-03 1.45612480e-02 -5.82701247e-03 -1.83005264e-04
      4.26414516e-03 3.08539299e-03 1.05366739e-03 4.62732214e-06
      8.90537910e-03 3.13683017e-03 -2.28251168e-03 4.75284833e-05
      -4.37182607e-04 1.27092963e-02 -8.62380490e-03 7.47769400e-06
      -7.58816116e-03 6.57833042e-03 -7.22460030e-03 -1.02716942e-04
      -2.20285486e-02 5.63812442e-03 -1.65870916e-02 -2.17992681e-04
      -2.29058638e-02 3.63715197e-04 -1.68558154e-02 -2.44931318e-04
      -1.44688971e-02 -4.56722267e-03 -6.57729059e-03 -2.53599515e-04
      -5.41278394e-03 9.05770622e-03 -8.72140005e-03 -6.93674156e-05
      -1.79236382e-02 -1.30378911e-02 2.60931090e-03 4.95603308e-04
      -2.90072785e-04 2.17694999e-03 5.03651798e-04 9.79647375e-05
      -7.03866081e-03 3.10794380e-03 7.41802622e-04 2.78384396e-04
      7.24757975e-03 -2.85970396e-03 -8.59757513e-03 -1.20130608e-04
      9.11445450e-03 -1.15878461e-03 -6.30940823e-03 -2.11354753e-04
      9.47820302e-03 -5.13349799e-03 -8.54773726e-03 -2.90834665e-04
      1.20149041e-02 -1.52382934e-02 -1.44058159e-02 -4.34530230e-04
      1.13699567e-02 -7.06567487e-04 -4.48053423e-03 -2.00401206e-04
      8.30460247e-03 -4.90172300e-03 -1.02743907e-02 -1.25778199e-04
      5.19446610e-03 3.05675226e-03 -2.71248794e-03 -2.57363627e-05
      8.88576964e-04 6.33483240e-03 1.76598609e-03 4.20592769e-05
      -1.33897252e-02 1.22130476e-03 4.18801792e-03 2.87964329e-04
      -1.96647365e-02 -5.10943355e-04 1.09139178e-02 4.12078953e-04
      -5.28284907e-03 -4.14334936e-03 -7.23369839e-03 2.27674551e-04
      2.53700046e-03 -6.30058115e-03 -1.23306224e-02 1.18154121e-05
      7.83445779e-03 -8.15543160e-03 -1.36101339e-02 -1.65978912e-04
      8.88101943e-03 -1.07326061e-02 -1.53223937e-02 -3.38645477e-04
      1.45271737e-02 -7.27548776e-03 -1.08146388e-02 -3.15492653e-04
      6.58667833e-03 -7.13209948e-03 -1.27412342e-02 -6.60647347e-05
      -1.69953599e-03 -6.43681129e-03 -9.82659403e-03 1.67364342e-04
      -2.51224432e-02 -3.41819413e-02 -2.05317475e-02 -7.60599645e-03
      2.67933626e-02 -9.74540599e-03 -2.91188131e-04 -4.10977937e-03
      -1.47444895e-02</_>
    <_>
      1.74960140e-02 -1.23098977e-02 -1.01995915e-02 -2.34564708e-04
      -2.02680938e-02 -9.14800540e-03 1.44565599e-02 -5.07714030e-05
      -1.28309121e-02 -5.35135567e-02 4.30734456e-02 1.85384124e-04
      -1.34314680e-02 -4.65192646e-02 4.16195020e-02 6.22221560e-05
      -1.02656065e-02 -1.39201954e-02 1.11443568e-02 -9.06055720e-05
      -2.81159151e-02 1.81805696e-02 -2.04472728e-02 -3.68305948e-04
      3.77988815e-02 5.60098961e-02 -5.46971448e-02 5.22267248e-04
      2.28143744e-02 -1.28015587e-02 1.22879017e-02 1.49419051e-04
      1.83599573e-02 -2.81212069e-02 2.52818670e-02 -1.31950210e-05
      1.22238295e-02 -3.62700894e-02 2.82480903e-02 -1.46261242e-04
      1.41055994e-02 -1.24998027e-02 1.31727848e-02 -3.86515530e-05
      3.68528860e-03 -1.43234967e-03 -8.95153917e-03 -3.56759131e-02
      3.71040264e-03 1.20288897e-02 1.89291555e-02 5.77283837e-03
      -1.19830072e-02 1.11853816e-02 -1.28932819e-02 9.08923219e-04
      3.34362499e-03 2.54970370e-03 -8.93479958e-03 -1.68578299e-05
      -2.77406466e-03 -4.58373167e-02 3.20933834e-02 2.95978243e-04
      -6.50699530e-03 -2.74002329e-02 2.11216956e-02 1.16215328e-04
      -2.09427290e-02 9.51810926e-03 -5.27180079e-03 -3.80010024e-04
      -1.36905266e-02 1.96070168e-02 -1.27994753e-02 -3.37416684e-04
      -2.44321339e-02 2.21447796e-02 -3.48627614e-03 -4.48969775e-04
      8.45107343e-03 4.14133668e-02 -3.92852426e-02 3.64547072e-04
      -1.98321301e-03 -1.51867736e-02 5.36023779e-03 -1.50303109e-04
      1.55151915e-02 -2.66227089e-02 2.39146464e-02 -1.02249272e-04
      8.44592880e-03 2.75158379e-02 -1.76995303e-02 2.63680879e-04
      1.31497914e-02 3.81605178e-02 -2.21293140e-02 4.38960269e-04
      3.08293775e-02 5.66007234e-02 -3.24191153e-02 8.30810692e-04
      3.04778083e-03 1.85566992e-02 4.33795294e-03 -3.31575429e-04
      2.00656522e-02 -9.39146336e-03 -2.51071043e-02 -4.53851710e-04
      -1.06947655e-02 -1.40104499e-02 -9.30393301e-03 -1.23201011e-04
      -9.76296235e-03 -2.56410763e-02 -1.86286923e-02 -3.79499907e-05
      -1.48011763e-02 -2.42034681e-02 -1.89752616e-02 5.14699321e-04
      -1.43478233e-02 -3.75207420e-03 -6.00235257e-03 4.84381948e-04
      2.36101542e-02 -9.11941193e-03 1.06114922e-02 -3.64349398e-04
      -1.63402706e-02 -1.17467856e-02 -6.79520518e-03 8.77110288e-05
      -8.69807031e-04 1.09038027e-02 1.78844687e-02 -2.07328094e-06
      -1.28737614e-02 6.22454379e-03 1.36285219e-02 1.10633569e-04
      -7.73480674e-03 1.08052464e-02 1.68172475e-02 -1.30637800e-05
      7.60002015e-03 1.36461919e-02 9.76352673e-03 -2.88578449e-04
      1.13371368e-02 2.63022594e-02 8.86673480e-03 -5.71569486e-04
      5.44094387e-03 2.51951013e-02 2.62457188e-02 -5.42743248e-04
      -1.02409888e-02 2.04000380e-02 2.81067677e-02 1.00340359e-04
      -7.70173210e-04 -6.38104102e-04 9.27122775e-03 4.89876729e-05
      6.64288085e-03 -4.86462889e-03 4.39710543e-03 -8.17858818e-05
      -1.01052755e-02 -2.00263467e-02 -1.22899674e-02 -4.51228834e-06
      -1.32147316e-02 -2.76151430e-02 -1.97263565e-02 1.28682339e-04
      5.88942412e-03 -2.09814049e-02 -1.60728693e-02 -1.90629580e-04
      -4.11688872e-02 1.23689268e-02 -2.63766153e-03 -3.48556712e-02
      2.07186863e-03 6.42601922e-02 2.27361768e-02 -9.25418735e-02
      -1.45521052e-02</_>
    <_>
      -1.68854669e-02 1.75323640e-03 8.83611865e-05 5.85815251e-05
      -2.87456233e-02 2.50417693e-03 1.25517929e-02 -1.23169157e-04
      -2.74857748e-02 -4.75558685e-03 1.51608428e-02 -1.02001293e-04
      -1.12090250e-02 -4.24746610e-03 5.24535496e-03 -1.42751787e-05
      2.99236551e-03 1.36321653e-02 -1.60905719e-02 4.81213538e-05
      1.60196293e-02 1.49813257e-02 -1.81305967e-02 2.13868232e-04
      -2.95538884e-02 -7.01212697e-03 4.86852601e-03 -2.17835652e-04
      -5.47640864e-03 -2.98987608e-03 5.95085695e-03 3.26113404e-05
      3.96829378e-03 -1.70131363e-02 2.31042635e-02 3.62167339e-05
      1.76241901e-02 -1.40772583e-02 2.93805599e-02 1.03519706e-04
      1.14933886e-02 -1.22812632e-02 2.45964937e-02 3.71946371e-05
      2.53509474e-03 -3.04404821e-04 3.13708349e-03 -2.91110147e-02
      -1.67325325e-03 5.94376633e-03 6.70008780e-03 5.76012360e-04
      -8.06014519e-03 -1.19064618e-02 3.54726543e-03 -1.27098919e-03
      5.02620451e-03 9.29829385e-03 -1.56530812e-02 2.75697985e-05
      -6.68074377e-03 1.92131158e-02 -1.54833170e-02 -1.28887463e-04
      -1.05112344e-02 2.35550776e-02 -1.90595165e-02 -1.81166382e-04
      -1.03653725e-02 1.32607576e-02 -1.04734525e-02 -1.30424101e-04
      -1.15421619e-02 1.28864602e-03 1.51761458e-03 -6.20606879e-05
      -8.53774231e-03 9.37415170e-04 2.86319584e-04 -1.76472859e-05
      -1.04483105e-02 8.94189253e-03 -6.99472567e-03 6.28637354e-05
      -3.58293648e-03 6.20025396e-03 -5.68765507e-04 1.25191349e-04
      -6.75998488e-03 1.36680622e-02 -7.09578907e-03 1.39092197e-04
      -1.02822511e-02 -1.70871877e-04 8.47247487e-04 -1.44254982e-05
      -1.19685009e-02 -3.71234096e-03 1.84348470e-03 -8.40917564e-05
      1.19736488e-03 9.53293592e-03 7.52354681e-04 2.10633458e-04
      8.48730654e-03 6.06529182e-03 -7.86158070e-03 -2.50848097e-04
      1.87689029e-02 1.09700570e-02 -4.46526939e-03 -5.59499254e-04
      5.95640205e-03 -4.01973166e-03 -7.96395354e-03 -2.33677652e-04
      9.18513071e-03 -6.05641981e-04 -3.18310782e-03 -3.41662264e-04
      6.00423291e-03 -8.73341050e-04 -1.38732453e-03 -2.55855877e-04
      -3.58817214e-03 1.11205867e-02 6.75902143e-03 5.16290456e-05
      6.32188097e-03 9.72580910e-03 9.67717916e-03 -1.30616245e-04
      -5.08620031e-03 -7.61100603e-03 -9.79657564e-03 -1.09093693e-04
      7.17436895e-03 -1.55627634e-02 -1.60145704e-02 -3.04098532e-04
      3.01071815e-03 -2.08257250e-02 -2.33724602e-02 -1.83563025e-04
      9.57119372e-03 -2.16541290e-02 -2.64883917e-02 -2.19045847e-04
      1.36401048e-02 -1.22603681e-03 -1.20699005e-02 -3.28339898e-04
      3.01186834e-03 1.33685162e-02 2.50421651e-03 -2.58778047e-04
      6.92660175e-03 1.00481184e-03 -3.08636180e-03 -2.40916459e-04
      -9.15010693e-04 -2.11543564e-04 -2.05643708e-03 -5.54788166e-05
      -2.32833042e-03 2.66155717e-03 1.16096996e-03 -3.26377085e-05
      -2.07702606e-03 -1.42462002e-02 -1.56164272e-02 -2.20289032e-04
      3.80968465e-03 -2.32147612e-02 -2.30276398e-02 -3.47156543e-04
      2.61346623e-03 -2.18600594e-02 -2.43095290e-02 -2.06830795e-04
      5.32100536e-03 -2.98968963e-02 -3.35301049e-02 -1.03427308e-04
      3.28914402e-03 -4.23665810e-03 6.24885317e-03 -3.82573120e-02
      -1.13365110e-02 -1.74837746e-02 -1.19132353e-02 -2.75391117e-02
      2.17308290e-02</_>
    <_>
      -4.94611412e-02 5.21872798e-03 1.58136373e-03 4.88426245e-04
      -1.65283438e-02 -3.58327478e-03 1.83478650e-02 -7.46512887e-05
      -6.84790546e-03 9.46667511e-03 5.46069583e-04 -1.07204090e-04
      -4.87212045e-03 5.74877718e-03 7.68110272e-04 -8.80438820e-05
      2.12357286e-03 2.71151774e-03 5.52571364e-05 -3.05711874e-05
      1.94718149e-02 -1.72877088e-02 1.65522974e-02 1.68961342e-04
      -2.52331682e-02 -1.34760840e-02 1.25580886e-02 -3.09176889e-04
      -2.25702254e-03 4.00432386e-03 -2.85167200e-03 -4.45806691e-05
      5.27415657e-03 -2.45482451e-03 5.32951066e-03 -3.73668604e-06
      2.45419461e-02 -1.22087132e-02 2.35382933e-02 6.08950504e-05
      2.61156596e-02 -2.22370438e-02 3.26170772e-02 -1.56478800e-05
      -8.72687437e-03 5.65481605e-03 2.41491683e-02 -8.25244747e-03
      -4.12882306e-04 -4.44234628e-03 -2.22894130e-03 -3.57651338e-03
      -7.25516758e-04 -1.72443278e-02 -1.69415330e-03 -1.06564304e-03
      -3.20608704e-03 5.50668268e-03 3.13034048e-03 -8.26896649e-05
      -9.83460806e-03 2.52721701e-02 -9.78784636e-03 -2.84353184e-04
      -1.56637449e-02 1.95988752e-02 -5.14932303e-03 -3.32879863e-04
      -3.53747117e-03 3.57775553e-03 2.68293940e-03 -1.40162883e-04
      -7.92944804e-03 -5.40378923e-03 1.36246132e-02 -8.83190150e-05
      -3.81332426e-03 -7.72929518e-03 1.33365756e-02 1.21720195e-05
      -2.41678394e-03 -6.25476660e-03 5.87122375e-03 -1.19128032e-04
      1.59338140e-03 1.92073714e-02 -1.58295929e-02 8.18240806e-05
      -2.05103061e-04 1.68129690e-02 -1.43206250e-02 7.01412137e-05
      9.53250844e-03 -1.91030353e-02 1.84093453e-02 -1.19764882e-04
      -3.78416094e-04 -1.67218242e-02 1.03466837e-02 -2.02486670e-04
      -8.10685474e-03 -1.03518656e-02 3.95715050e-03 -2.31213518e-04
      7.91314291e-04 2.51792418e-03 4.03653970e-03 1.52399734e-04
      1.01322704e-03 1.22509422e-02 1.36153558e-02 1.41373730e-05
      4.37712157e-03 1.06903566e-02 9.32008121e-03 -2.03592117e-05
      6.88885292e-03 9.25593451e-03 6.20898372e-03 3.61767252e-06
      4.72072605e-03 3.06917774e-03 -1.62688398e-03 9.89955006e-05
      -2.04187632e-03 -5.84756816e-03 -1.10368459e-02 -4.08325905e-05
      -1.08085675e-02 -9.02472250e-03 -1.85509846e-02 1.53939345e-05
      4.27669520e-03 -3.62282596e-03 -7.28860125e-03 -3.95425050e-05
      1.36224702e-02 -1.58379762e-03 -3.90016520e-03 -1.72495405e-04
      1.09508522e-02 -8.62371922e-03 -1.25848865e-02 -1.14265094e-04
      5.45118144e-03 5.72472811e-04 -3.24643496e-03 -2.16239587e-05
      -1.51713593e-05 6.27653860e-03 3.76400817e-03 2.63555248e-05
      -2.02085078e-03 -3.55097861e-03 -7.24949932e-04 2.82758789e-04
      -4.66437807e-04 8.32682569e-03 7.84948654e-03 1.92825537e-04
      4.49198158e-03 7.91317597e-03 4.43178136e-03 8.36877807e-05
      4.83152224e-03 -4.39389842e-03 -8.24695081e-03 -7.11104167e-06
      -1.45302992e-02 -2.44738627e-02 -3.32345217e-02 -5.01234972e-05
      1.85640175e-02 -2.04559471e-02 -2.08281875e-02 -3.84623738e-04
      1.69474240e-02 -1.90418568e-02 -2.30313726e-02 -2.66750867e-04
      4.34888946e-03 -2.22446620e-02 -2.50507239e-02 8.97343780e-05
      1.42265148e-02 -4.64474177e-03 8.59482400e-03 -2.09537782e-02
      -1.56355221e-02 -3.34909186e-02 -5.69542870e-03 -2.21849475e-02
      1.07240723e-02</_></support_vectors>
  <uncompressed_sv_total>73</uncompressed_sv_total>
  <uncompressed_support_vectors>
    <_>
      1.11974373e+02 1.82539047e+02 9.17911377e+01 1.46413815e+00
      1.24148979e+01 1.78614330e+01 1.15976662e+02 -2.45622754e+00
      2.77533035e+01 6.52783346e+00 1.12800079e+02 -2.29163027e+00
      4.80176201e+01 4.44533443e+00 1.02344795e+02 -2.12873197e+00
      6.99639587e+01 7.00840998e+00 9.02178955e+01 -1.93621731e+00
      8.89066849e+01 1.43372049e+01 7.80728149e+01 -1.74193239e+00
      1.23227875e+02 1.18942728e+01 8.21126709e+01 -1.31185901e+00
      1.40248291e+02 5.20624733e+00 9.40976028e+01 -1.15455985e+00
      1.60432526e+02 0. 1.08262848e+02 -1.00290394e+00 1.79215057e+02
      1.08129752e+00 1.18595230e+02 -8.64038050e-01 1.91990387e+02
      1.16940327e+01 1.19975403e+02 -7.25173116e-01 8.63836594e+01
      9.87985611e+01 1.75193195e+01 2.69737005e+00 1.08450142e+02
      1.06047256e+02 1.60440845e+01 1.17082095e+00 1.26992393e+02
      9.77573090e+01 2.56246548e+01 2.55971402e-01 3.47216644e+01
      3.44813766e+01 8.81962357e+01 -2.44202876e+00 4.86583900e+01
      2.94353218e+01 8.17952042e+01 -2.28446770e+00 6.27152596e+01
      2.90748901e+01 7.36710663e+01 -2.13648319e+00 7.54505386e+01
      3.81257515e+01 5.94973564e+01 -2.03715324e+00 6.14337196e+01
      4.00480576e+01 6.54655914e+01 -2.24305320e+00 4.73768539e+01
      4.04084892e+01 7.47844391e+01 -2.39369106e+00 1.33239883e+02
      3.66439743e+01 6.28272324e+01 -1.05410123e+00 1.45494598e+02
      2.69523430e+01 7.75299454e+01 -9.78352487e-01 1.59511414e+02
      2.50300369e+01 8.75897522e+01 -8.57557893e-01 1.72126556e+02
      2.93952751e+01 9.33690262e+01 -7.24398255e-01 1.61353622e+02
      3.59231071e+01 8.10065689e+01 -7.52182007e-01 1.47336807e+02
      3.78454132e+01 6.99373169e+01 -8.69312763e-01 6.67601089e+01
      1.25871048e+02 4.95321960e+01 2.36820078e+00 8.06567917e+01
      1.19263115e+02 3.53251343e+01 2.22676849e+00 9.62354813e+01
      1.17300758e+02 2.67064095e+01 1.79613400e+00 1.08810570e+02
      1.20104126e+02 2.95820713e+01 1.34551954e+00 1.19663597e+02
      1.16700043e+02 3.08479500e+01 9.69110727e-01 1.33760513e+02
      1.17901482e+02 4.12935867e+01 7.00947046e-01 1.46375656e+02
      1.22266724e+02 5.39636993e+01 6.11881137e-01 1.35963150e+02
      1.42851425e+02 6.16479073e+01 9.91262019e-01 1.22146576e+02
      1.52583099e+02 6.44756927e+01 1.25631332e+00 1.11253502e+02
      1.54425308e+02 6.38010292e+01 1.42845547e+00 9.87184601e+01
      1.53183823e+02 6.20122528e+01 1.62701130e+00 8.12975540e+01
      1.44253098e+02 5.69586029e+01 1.94660234e+00 7.30076065e+01
      1.25710854e+02 4.51503639e+01 2.27393866e+00 9.64357224e+01
      1.25110130e+02 3.43284760e+01 1.73958898e+00 1.08970764e+02
      1.26351624e+02 3.57289963e+01 1.38021529e+00 1.19823792e+02
      1.22947540e+02 3.62491570e+01 1.06316125e+00 1.40128159e+02
      1.22426910e+02 4.90828590e+01 6.87738836e-01 1.21826195e+02
      1.40088104e+02 5.26149940e+01 1.18859386e+00 1.09371246e+02
      1.41970367e+02 5.12051201e+01 1.43033719e+00 9.83980789e+01
      1.40688828e+02 4.95655365e+01 1.64763021e+00 9.63753815e+01
      9.68428268e+01 8.76330948e+01 2.78175201e+01 7.34488373e+01
      1.10477486e+01 2.49982014e+01 1.56238756e+01 2.12507687e+01</_>
    <_>
      1.04218781e+02 1.80156876e+02 9.00816727e+01 1.56232393e+00
      1.72143307e+01 1.27623491e+01 1.15824577e+02 -2.41070938e+00
      3.27750702e+01 2.50159001e+00 1.12540840e+02 -2.24983239e+00
      5.27029877e+01 0. 1.03392220e+02 -2.08388948e+00 7.25037079e+01
      2.07759166e+00 9.32854080e+01 -1.90900481e+00 9.06084366e+01
      1.02183590e+01 8.08868484e+01 -1.73030043e+00 1.22747513e+02
      8.05596733e+00 8.42606888e+01 -1.33979213e+00 1.42717834e+02
      4.02798367e+00 9.45843811e+01 -1.14274049e+00 1.61119354e+02
      1.48399401e+00 1.05707550e+02 -9.93807375e-01 1.79393677e+02
      3.51918602e+00 1.15148163e+02 -8.50667357e-01 1.89696838e+02
      1.75535297e+01 1.12682816e+02 -6.99218750e-01 8.35700684e+01
      9.86220093e+01 2.16431618e+01 2.73580050e+00 1.06381172e+02
      1.02310791e+02 1.25773401e+01 1.33603811e+00 1.27835487e+02
      9.98516006e+01 2.62658386e+01 3.81255776e-01 3.94742432e+01
      3.62942543e+01 8.35843964e+01 -2.44256783e+00 5.32965851e+01
      3.36230659e+01 7.55190964e+01 -2.29720545e+00 6.70341339e+01
      3.40046654e+01 6.68639679e+01 -2.14683914e+00 7.90756836e+01
      4.04494400e+01 5.52939186e+01 -2.02741385e+00 6.67797318e+01
      4.31630287e+01 5.95497627e+01 -2.23430610e+00 5.30421867e+01
      4.27814293e+01 6.91268234e+01 -2.38807774e+00 1.32499466e+02
      4.19334335e+01 5.62271194e+01 -1.02798438e+00 1.44922623e+02
      3.46406631e+01 6.92304993e+01 -9.28581357e-01 1.58660172e+02
      3.50222588e+01 7.79662018e+01 -7.84052253e-01 1.69260117e+02
      3.83718452e+01 8.36887589e+01 -6.65997684e-01 1.58363373e+02
      4.57070160e+01 7.05952377e+01 -6.79665387e-01 1.46152222e+02
      4.53678169e+01 6.18226624e+01 -8.08435559e-01 6.13949547e+01
      1.27029892e+02 5.59866638e+01 2.42076778e+00 7.83548889e+01
      1.21390717e+02 4.01310806e+01 2.24652719e+00 9.37036285e+01
      1.18761925e+02 3.02959251e+01 1.89852154e+00 1.04303581e+02
      1.22111511e+02 3.20442924e+01 1.54433000e+00 1.16599533e+02
      1.19397919e+02 3.21309090e+01 1.14935637e+00 1.31778671e+02
      1.22874710e+02 4.33335037e+01 8.58455539e-01 1.42293823e+02
      1.29277084e+02 5.51809998e+01 7.90016413e-01 1.31354675e+02
      1.38138641e+02 5.55710602e+01 1.04483628e+00 1.17489929e+02
      1.42336227e+02 5.41095123e+01 1.30842733e+00 1.05236382e+02
      1.43523422e+02 5.34746475e+01 1.53748858e+00 9.30252304e+01
      1.43184235e+02 5.41203957e+01 1.76473486e+00 7.78884888e+01
      1.38181046e+02 5.44751091e+01 2.05933428e+00 6.90269241e+01
      1.27241890e+02 5.06601906e+01 2.31801343e+00 9.34492264e+01
      1.27920288e+02 3.91424675e+01 1.82930541e+00 1.04091583e+02
      1.29743484e+02 3.96701393e+01 1.55476344e+00 1.17913925e+02
      1.27072289e+02 3.97188721e+01 1.19821918e+00 1.36188248e+02
      1.29107483e+02 5.09381371e+01 8.72914076e-01 1.17871529e+02
      1.28598679e+02 4.11294136e+01 1.21268928e+00 1.04049187e+02
      1.31269882e+02 4.11957130e+01 1.55638659e+00 9.34068298e+01
      1.29446686e+02 4.06304817e+01 1.82071042e+00 9.48205795e+01
      9.33459854e+01 8.46615143e+01 1.70721855e+01 7.48221512e+01
      1.06888790e+01 1.67968102e+01 1.52698267e+00 2.33583431e+01</_>
    <_>
      9.91228104e+01 1.96371613e+02 9.82210617e+01 1.54400074e+00
      1.38755980e+01 1.83811798e+01 1.14865662e+02 -2.37349963e+00
      2.60765553e+01 3.94736838e+00 1.17639740e+02 -2.21250105e+00
      4.38995209e+01 0. 1.11383751e+02 -2.06254363e+00 6.29984055e+01
      3.46889949e+00 1.00464233e+02 -1.91068339e+00 8.19377975e+01
      1.28389158e+01 8.65788269e+01 -1.73969269e+00 1.08492821e+02
      1.35566187e+01 8.54759445e+01 -1.42992175e+00 1.27910683e+02
      5.22328568e+00 9.81285477e+01 -1.24486971e+00 1.48684204e+02
      1.35566187e+00 1.10000839e+02 -1.07642531e+00 1.67703354e+02
      7.77511978e+00 1.15088043e+02 -9.03630376e-01 1.79106857e+02
      2.28468895e+01 1.11809189e+02 -7.39362299e-01 7.65151520e+01
      1.04226479e+02 2.08694344e+01 2.84793997e+00 9.55741653e+01
      1.09170654e+02 1.10230627e+01 1.65408778e+00 1.14872406e+02
      1.05263161e+02 1.96966171e+01 3.67537171e-01 3.55661888e+01
      3.52073364e+01 8.76250458e+01 -2.33962321e+00 4.61323776e+01
      2.66347694e+01 8.74960861e+01 -2.18407965e+00 5.93700142e+01
      2.84688988e+01 7.89837418e+01 -2.06007075e+00 7.08532715e+01
      4.05901108e+01 6.30441818e+01 -1.98959863e+00 5.75358849e+01
      4.17065392e+01 6.86106873e+01 -2.17459512e+00 4.42583733e+01
      4.13476868e+01 7.71935425e+01 -2.31399703e+00 1.22488037e+02
      4.19856453e+01 6.19216614e+01 -1.13753402e+00 1.33133972e+02
      3.04625206e+01 7.70008698e+01 -1.07483840e+00 1.46451355e+02
      2.93460922e+01 8.50583344e+01 -9.42999482e-01 1.58014359e+02
      3.85167465e+01 8.57058411e+01 -7.70100772e-01 1.49003189e+02
      4.41786270e+01 7.53278275e+01 -7.99434304e-01 1.34210526e+02
      4.52551842e+01 6.49953537e+01 -9.51652229e-01 6.08851662e+01
      1.36283890e+02 5.21464844e+01 2.32239628e+00 7.30063782e+01
      1.24800636e+02 3.54948921e+01 2.29380035e+00 8.50079727e+01
      1.17743225e+02 2.26794548e+01 2.10171819e+00 9.52551804e+01
      1.20972885e+02 2.28205795e+01 1.62498641e+00 1.05661880e+02
      1.18301437e+02 2.21074524e+01 1.14304936e+00 1.17264755e+02
      1.25996811e+02 3.47129860e+01 9.29247916e-01 1.28748001e+02
      1.38118027e+02 5.13330460e+01 8.91324401e-01 1.18261566e+02
      1.43740036e+02 5.04889603e+01 1.12498510e+00 1.06379585e+02
      1.46371613e+02 4.91899529e+01 1.36839330e+00 9.45773544e+01
      1.46052628e+02 4.79050713e+01 1.61075842e+00 8.42503967e+01
      1.45773529e+02 4.91368370e+01 1.82256484e+00 7.25279083e+01
      1.42503983e+02 5.03819580e+01 2.06647968e+00 6.67862854e+01
      1.36443375e+02 4.84357910e+01 2.23100924e+00 8.46092529e+01
      1.32496017e+02 3.63093872e+01 1.90418029e+00 9.49362030e+01
      1.32775116e+02 3.46242523e+01 1.61572289e+00 1.05263161e+02
      1.33054230e+02 3.59548836e+01 1.32433832e+00 1.21411484e+02
      1.36443375e+02 4.56580887e+01 9.93450940e-01 1.05303032e+02
      1.31578949e+02 3.45362091e+01 1.31279683e+00 9.49362030e+01
      1.32775116e+02 3.46242523e+01 1.61572289e+00 8.46491241e+01
      1.31020737e+02 3.49051285e+01 1.91693234e+00 1.03812012e+02
      1.04199425e+02 9.63811874e+01 1.32001162e+01 6.05265274e+01
      1.50504475e+01 1.77098141e+01 0. 2.08712158e+01</_>
    <_>
      1.04545456e+02 2.04545456e+02 1.02317612e+02 1.54117537e+00
      1.66666660e+01 1.81818180e+01 1.19459389e+02 -2.36067867e+00
      2.87878780e+01 4.54545450e+00 1.21819031e+02 -2.21056604e+00
      4.84848480e+01 1.51515150e+00 1.13860886e+02 -2.05527425e+00
      6.66666641e+01 6.06060600e+00 1.02328827e+02 -1.91830230e+00
      8.48484879e+01 1.51515150e+01 8.87010880e+01 -1.75981688e+00
      1.16666664e+02 1.36363640e+01 8.99220428e+01 -1.40149260e+00
      1.34848480e+02 4.54545450e+00 1.03255661e+02 -1.24208534e+00
      1.54545456e+02 0. 1.15203835e+02 -1.09244394e+00 1.74242432e+02
      4.54545450e+00 1.21819031e+02 -9.31026518e-01 1.86363632e+02
      1.96969700e+01 1.18397728e+02 -7.71824360e-01 8.18181839e+01
      1.09090912e+02 2.08436623e+01 2.80834842e+00 1.01515152e+02
      1.13636360e+02 1.13636360e+01 1.57079637e+00 1.21212120e+02
      1.09090912e+02 2.08436623e+01 3.33244294e-01 3.78787880e+01
      3.78787880e+01 9.05326767e+01 -2.35027742e+00 4.84848480e+01
      3.03030300e+01 8.93971481e+01 -2.20582294e+00 6.21212120e+01
      3.18181820e+01 8.07200470e+01 -2.08062959e+00 7.42424240e+01
      4.39393921e+01 6.43939362e+01 -2.00813413e+00 6.21212120e+01
      4.69696960e+01 6.78992462e+01 -2.18974876e+00 4.69696960e+01
      4.54545441e+01 7.87623825e+01 -2.33578920e+00 1.27272728e+02
      4.54545441e+01 6.23839607e+01 -1.14517391e+00 1.37878784e+02
      3.18181820e+01 7.92852859e+01 -1.09432888e+00 1.51515152e+02
      3.03030300e+01 8.76335373e+01 -9.63611424e-01 1.63636368e+02
      3.93939400e+01 8.83899689e+01 -7.91458666e-01 1.54545456e+02
      4.54545441e+01 7.77207718e+01 -8.19867253e-01 1.40909088e+02
      4.69696960e+01 6.78992462e+01 -9.51843858e-01 6.51515121e+01
      1.43939392e+02 5.53030319e+01 2.28833771e+00 7.87878799e+01
      1.31818176e+02 3.72754974e+01 2.22649193e+00 9.09090881e+01
      1.24242424e+02 2.43958206e+01 2.02055597e+00 1.01515152e+02
      1.27272728e+02 25. 1.57079637e+00 1.12121216e+02 1.24242424e+02
      2.43958206e+01 1.12103677e+00 1.24242424e+02 1.33333328e+02
      3.84875336e+01 9.39105690e-01 1.36363632e+02 1.45454544e+02
      5.54895172e+01 8.91791046e-01 1.24242424e+02 1.53030304e+02
      5.56134911e+01 1.14980578e+00 1.12121216e+02 1.57575760e+02
      5.63108673e+01 1.38131618e+00 1.01515152e+02 1.57575760e+02
      5.53030319e+01 1.57079637e+00 9.09090881e+01 1.57575760e+02
      5.63108673e+01 1.76027644e+00 7.87878799e+01 1.53030304e+02
      5.56134911e+01 1.99178696e+00 7.27272720e+01 1.43939392e+02
      5.06443787e+01 2.17539501e+00 9.09090881e+01 1.39393936e+02
      3.86066437e+01 1.84909594e+00 1.01515152e+02 1.39393936e+02
      3.71212120e+01 1.57079637e+00 1.12121216e+02 1.39393936e+02
      3.86066437e+01 1.29249668e+00 1.28787872e+02 1.43939392e+02
      4.97987213e+01 9.91232336e-01 1.12121216e+02 1.40909088e+02
      4.00656586e+01 1.30288589e+00 1.01515152e+02 1.40909088e+02
      3.86363640e+01 1.57079637e+00 9.09090881e+01 1.40909088e+02
      4.00656586e+01 1.83870673e+00 1.09510979e+02 1.09510979e+02
      1.00149109e+02 1.51515150e+01 6.36363640e+01 1.54515743e+01
      2.12121220e+01 1.51515150e+00 2.44310837e+01</_>
    <_>
      1.03943909e+02 2.05644165e+02 1.02936661e+02 1.52361012e+00
      1.49693251e+01 2.08238392e+01 1.17472343e+02 -2.36896157e+00
      2.54513588e+01 3.82120943e+00 1.23383972e+02 -2.21031952e+00
      4.56792297e+01 0. 1.15866013e+02 -2.04987001e+00 6.43295364e+01
      1.89307630e+00 1.06746674e+02 -1.90246499e+00 8.42769470e+01
      9.57055187e+00 9.44205017e+01 -1.72831511e+00 1.10184052e+02
      8.76424217e+00 9.47100220e+01 -1.45337403e+00 1.30482040e+02
      2.06836104e+00 1.05531349e+02 -1.26874375e+00 1.52077118e+02
      1.15687990e+00 1.14645569e+02 -1.09032750e+00 1.70622269e+02
      7.36196327e+00 1.19288353e+02 -9.27706659e-01 1.83207718e+02
      2.20508327e+01 1.16619186e+02 -7.65096903e-01 7.76161270e+01
      1.05766869e+02 2.16733799e+01 3.00530005e+00 9.90359344e+01
      1.12042068e+02 9.22013283e+00 1.57649970e+00 1.17826469e+02
      1.08185799e+02 1.94905148e+01 2.78793782e-01 3.61787910e+01
      3.57230492e+01 9.19777908e+01 -2.32398248e+00 4.64154243e+01
      2.87817707e+01 9.08648605e+01 -2.18913960e+00 6.07537231e+01
      3.05696754e+01 8.17922211e+01 -2.05859804e+00 7.05346222e+01
      4.23137589e+01 6.69072723e+01 -2.01171255e+00 5.89658203e+01
      4.49079742e+01 7.04547729e+01 -2.17667150e+00 4.45924644e+01
      4.45574074e+01 7.97783966e+01 -2.32278562e+00 1.25188431e+02
      4.22085876e+01 6.59939499e+01 -1.16419566e+00 1.36967575e+02
      3.09903603e+01 8.12072601e+01 -1.08552420e+00 1.51340927e+02
      3.13409290e+01 8.85430450e+01 -9.39569414e-01 1.62664337e+02
      3.88080635e+01 9.02201691e+01 -7.88832664e-01 1.52427689e+02
      4.57493439e+01 7.81176376e+01 -8.19200158e-01 1.38019287e+02
      4.68361092e+01 6.81911545e+01 -9.63186979e-01 6.37335663e+01
      1.44259415e+02 5.44704094e+01 2.27715373e+00 7.54425964e+01
      1.35915863e+02 4.06734276e+01 2.19119620e+00 8.70464478e+01
      1.31884308e+02 3.14582958e+01 1.96361578e+00 9.56003494e+01
      1.34969330e+02 3.23359299e+01 1.67887950e+00 1.05766869e+02
      1.30902710e+02 2.88638573e+01 1.33730638e+00 1.18597725e+02
      1.35530243e+02 3.80845375e+01 1.03298163e+00 1.31358459e+02
      1.43032425e+02 5.15579338e+01 8.94515634e-01 1.21016655e+02
      1.54285721e+02 5.59405746e+01 1.16800284e+00 1.07940407e+02
      1.59719543e+02 5.75819130e+01 1.41645753e+00 9.78439941e+01
      1.60911484e+02 5.81027260e+01 1.59221733e+00 8.77826462e+01
      1.60666077e+02 5.89385338e+01 1.76381743e+00 7.63891296e+01
      1.56073624e+02 5.78877182e+01 1.97373986e+00 6.94829102e+01
      1.44399643e+02 5.10410233e+01 2.18956876e+00 8.67659912e+01
      1.43382996e+02 4.23914146e+01 1.86573839e+00 9.53900070e+01
      1.43593338e+02 4.09386635e+01 1.66126239e+00 1.06923752e+02
      1.42436462e+02 4.03817978e+01 1.37552893e+00 1.25609116e+02
      1.42892197e+02 4.80515976e+01 9.86132443e-01 1.06888695e+02
      1.43873795e+02 4.17861900e+01 1.38302612e+00 9.67922897e+01
      1.45065735e+02 4.23060074e+01 1.62509978e+00 8.81682739e+01
      1.44855392e+02 4.34286804e+01 1.82497692e+00 1.08824516e+02
      1.11979507e+02 1.01522774e+02 1.55517864e+01 6.18906517e+01
      1.44493408e+01 2.01799679e+01 2.03330421e+00 2.73553085e+01</_>
    <_>
      1.00813011e+02 2.27642273e+02 1.14056084e+02 1.50659895e+00
      3.25203252e+00 2.11382122e+01 1.29360306e+02 -2.34286189e+00
      1.46341467e+01 6.50406504e+00 1.33177078e+02 -2.20452976e+00
      3.41463432e+01 3.25203252e+00 1.25490646e+02 -2.06342125e+00
      5.36585350e+01 8.13008118e+00 1.12949623e+02 -1.93125188e+00
      7.15447159e+01 1.78861790e+01 9.84142914e+01 -1.79573762e+00
      1.00813011e+02 1.62601624e+01 9.78349838e+01 -1.49593651e+00
      1.21951218e+02 6.50406504e+00 1.11025482e+02 -1.31160903e+00
      1.43089432e+02 0. 1.24156219e+02 -1.15988564e+00 1.67479675e+02 0.
      1.35752884e+02 -9.94421124e-01 1.83739838e+02 1.30081301e+01
      1.35304199e+02 -8.40660989e-01 6.99187012e+01 1.05691055e+02
      2.49396133e+01 -2.80953312e+00 9.10569077e+01 1.12195122e+02
      2.93134260e+00 -2.55359006e+00 1.12195122e+02 1.05691055e+02
      2.03901405e+01 -4.10127342e-01 2.43902435e+01 4.06504059e+01
      1.00645676e+02 -2.32763076e+00 3.73983727e+01 3.41463432e+01
      9.74423370e+01 -2.18425632e+00 5.04065056e+01 3.41463432e+01
      9.05802002e+01 -2.06656146e+00 6.34146347e+01 4.39024391e+01
      7.61151047e+01 -1.97709060e+00 5.04065056e+01 4.55284538e+01
      8.07501678e+01 -2.13366461e+00 3.57723579e+01 4.55284538e+01
      8.94198074e+01 -2.27251935e+00 1.20325203e+02 4.22764244e+01
      7.64097900e+01 -1.21202564e+00 1.33333328e+02 3.25203247e+01
      9.05364075e+01 -1.11518073e+00 1.47967484e+02 3.08943081e+01
      9.92169724e+01 -9.89611804e-01 1.62601624e+02 3.57723579e+01
      1.04245903e+02 -8.46096992e-01 1.49593491e+02 4.22764244e+01
      9.09152527e+01 -9.05831635e-01 1.34959351e+02 4.39024391e+01
      8.12886200e+01 -1.03552258e+00 5.85365868e+01 1.43089432e+02
      4.55937386e+01 2.44457126e+00 6.66666641e+01 1.33333328e+02
      3.31743202e+01 2.51279640e+00 7.96747971e+01 1.28455292e+02
      2.01291351e+01 2.32763076e+00 9.26829300e+01 1.30081299e+02
      1.62804756e+01 1.62075472e+00 1.04065041e+02 1.26829269e+02
      1.67605915e+01 8.88479769e-01 1.21951218e+02 1.33333328e+02
      3.45025940e+01 6.01073742e-01 1.38211380e+02 1.44715454e+02
      5.43500633e+01 6.04598582e-01 1.25203255e+02 1.65853653e+02
      6.09322357e+01 1.02351189e+00 1.08943092e+02 1.77235779e+02
      6.52689056e+01 1.33185983e+00 9.59349594e+01 1.78861786e+02
      6.50863647e+01 1.53331387e+00 8.29268265e+01 1.75609756e+02
      6.26860390e+01 1.74020934e+00 6.82926865e+01 1.65853653e+02
      5.78151131e+01 2.02186608e+00 6.50406494e+01 1.43089432e+02
      4.08207817e+01 2.34211087e+00 8.13008118e+01 1.39837402e+02
      2.87326775e+01 2.00913286e+00 9.26829300e+01 1.39837402e+02
      2.60289612e+01 1.60203612e+00 1.05691055e+02 1.39837402e+02
      2.87326775e+01 1.13245976e+00 1.30081299e+02 1.44715454e+02
      4.78847313e+01 7.01259911e-01 1.07317070e+02 1.57723572e+02
      4.60265999e+01 1.26580393e+00 9.43089447e+01 1.59349594e+02
      4.55357132e+01 1.55294108e+00 8.29268265e+01 1.57723572e+02
      4.51567268e+01 1.80704165e+00 1.11639961e+02 1.07980209e+02
      1.00181602e+02 2.93134251e+01 7.15631943e+01 1.14976711e+01
      3.25609512e+01 1.95798283e+01 2.93134251e+01</_>
    <_>
      1.01185280e+02 1.97005615e+02 9.85051956e+01 1.57776260e+00
      1.64691200e+01 2.52859230e+01 1.12491234e+02 -2.43286610e+00
      2.83634853e+01 9.56539822e+00 1.15383232e+02 -2.26149654e+00
      4.97816582e+01 4.36681223e+00 1.07586876e+02 -2.07620525e+00
      7.14077759e+01 6.86213350e+00 9.65714798e+01 -1.89172983e+00
      9.17030563e+01 1.70929508e+01 8.20424423e+01 -1.69505703e+00
      1.14743187e+02 1.49303389e+01 8.45578995e+01 -1.41797876e+00
      1.34456223e+02 3.61821580e+00 1.00323730e+02 -1.24000037e+00
      1.54377213e+02 0. 1.11622818e+02 -1.08106911e+00 1.76044922e+02
      4.03410292e+00 1.20108421e+02 -9.05167401e-01 1.87273865e+02
      2.06695786e+01 1.15549019e+02 -7.39061952e-01 8.16385956e+01
      1.00519859e+02 2.03331890e+01 3.04222918e+00 1.04928261e+02
      1.07589935e+02 9.58747768e+00 1.24630225e+00 1.29382401e+02
      1.00769394e+02 2.76041298e+01 8.22028518e-02 3.83863602e+01
      3.85527153e+01 8.73176727e+01 -2.38482547e+00 4.90330620e+01
      3.36452484e+01 8.36564560e+01 -2.25442719e+00 6.28405075e+01
      3.17321682e+01 7.73416824e+01 -2.09978032e+00 7.68974838e+01
      3.90517769e+01 6.44835358e+01 -1.96848977e+00 6.30900383e+01
      4.09648590e+01 6.93874359e+01 -2.16386914e+00 4.92410049e+01
      4.13391571e+01 7.77023239e+01 -2.31492996e+00 1.29174469e+02
      3.60989799e+01 6.81152725e+01 -1.15836835e+00 1.42857147e+02
      2.95695572e+01 8.01973572e+01 -1.03437889e+00 1.56664581e+02
      2.76564770e+01 8.95627518e+01 -9.12481844e-01 1.69141190e+02
      3.34788933e+01 9.35591888e+01 -7.68423975e-01 1.56955704e+02
      3.84279480e+01 8.15061951e+01 -8.28707993e-01 1.43106674e+02
      3.88022461e+01 7.25568542e+01 -9.66339231e-01 6.55853577e+01
      1.33291748e+02 5.02688103e+01 2.37725639e+00 7.77292557e+01
      1.26803909e+02 3.71994591e+01 2.27705789e+00 9.14951096e+01
      1.23352051e+02 2.69286842e+01 1.96635962e+00 1.02349762e+02
      1.26138489e+02 2.76398220e+01 1.55349183e+00 1.13079643e+02
      1.24308586e+02 2.81346931e+01 1.16105211e+00 1.24017464e+02
      1.30172592e+02 3.86447868e+01 9.60555255e-01 1.38074448e+02
      1.37492203e+02 5.32055130e+01 8.22438717e-01 1.24474945e+02
      1.47099182e+02 5.35959358e+01 1.13543487e+00 1.12289459e+02
      1.52048248e+02 5.45494995e+01 1.37863398e+00 1.01476395e+02
      1.50800583e+02 5.22992668e+01 1.57835090e+00 8.91245575e+01
      1.49594513e+02 5.26578255e+01 1.81529605e+00 7.66063614e+01
      1.42233307e+02 5.05042953e+01 2.09469199e+00 7.17404861e+01
      1.33125397e+02 4.58977203e+01 2.28694129e+00 9.17446442e+01
      1.32584732e+02 3.55546188e+01 1.85962021e+00 1.02557701e+02
      1.33832397e+02 3.53362541e+01 1.55137563e+00 1.13329178e+02
      1.33541275e+02 3.68642502e+01 1.25475383e+00 1.31919312e+02
      1.37658554e+02 4.93563042e+01 9.16256666e-01 1.11915161e+02
      1.38199203e+02 4.09472771e+01 1.32298481e+00 1.01185280e+02
      1.40029114e+02 4.15319748e+01 1.58731961e+00 9.03306274e+01
      1.37242676e+02 4.04223747e+01 1.86033142e+00 1.08553726e+02
      9.85660706e+01 9.33938751e+01 1.63634453e+01 6.64775391e+01
      1.07754040e+01 1.54702091e+01 6.34687519e+00 2.98886414e+01</_>
    <_>
      1.08929916e+02 2.13376038e+02 1.07287155e+02 1.46506464e+00
      1.23210249e+01 2.41522236e+01 1.18684120e+02 -2.37258267e+00
      2.46043701e+01 3.88093448e+00 1.26090195e+02 -2.18826675e+00
      4.52901268e+01 0. 1.18825203e+02 -2.02671528e+00 6.72569733e+01
      3.50414467e+00 1.07554916e+02 -1.85686755e+00 8.76036148e+01
      1.28485308e+01 9.43712082e+01 -1.67700028e+00 1.06744537e+02
      1.18688774e+01 9.52583694e+01 -1.47472894e+00 1.27543327e+02
      3.57950258e+00 1.07366318e+02 -1.28823054e+00 1.48153732e+02
      2.63752818e+00 1.15678162e+02 -1.11858392e+00 1.70082901e+02
      7.61115313e+00 1.22755547e+02 -9.39235568e-01 1.82893738e+02
      2.41145439e+01 1.18710327e+02 -7.69237936e-01 7.78447647e+01
      1.06706856e+02 1.97626324e+01 3.14063931e+00 9.83044434e+01
      1.11642807e+02 5.00357771e+00 1.43102920e+00 1.18990204e+02
      1.07761871e+02 2.14097652e+01 5.01781069e-02 3.54559174e+01
      3.94498863e+01 9.15629349e+01 -2.31690192e+00 4.60060272e+01
      2.94272804e+01 9.29081345e+01 -2.15964246e+00 6.06631508e+01
      3.12735500e+01 8.39774857e+01 -2.02631736e+00 7.21175613e+01
      4.33308220e+01 6.82925034e+01 -1.95330060e+00 6.02486801e+01
      4.74378281e+01 7.00446854e+01 -2.13335848e+00 4.40844002e+01
      4.70233612e+01 8.01534882e+01 -2.30198669e+00 1.25018837e+02
      4.46872635e+01 6.77899780e+01 -1.15451896e+00 1.35644318e+02
      3.17256966e+01 8.40604401e+01 -1.10123515e+00 1.50376785e+02
      3.06330070e+01 9.25687561e+01 -9.64221954e-01 1.63338364e+02
      4.12584763e+01 9.27447357e+01 -7.83099949e-01 1.51394119e+02
      4.83044472e+01 7.93829651e+01 -8.26356113e-01 1.36661636e+02
      4.93971367e+01 6.93359985e+01 -9.72469270e-01 6.92916336e+01
      1.53541824e+02 5.47454185e+01 2.11440277e+00 7.70158234e+01
      1.39035416e+02 3.83453598e+01 2.13767624e+00 8.89600601e+01
      1.31989456e+02 2.67383366e+01 1.90012252e+00 9.77015839e+01
      1.35154480e+02 2.84666214e+01 1.56748724e+00 1.06631500e+02
      1.30972122e+02 2.59066048e+01 1.21500468e+00 1.19668427e+02
      1.38658630e+02 3.88433952e+01 9.66785431e-01 1.28183868e+02
      1.50640549e+02 5.35420036e+01 9.62981761e-01 1.20572723e+02
      1.60738510e+02 5.87270126e+01 1.16902161e+00 1.10097969e+02
      1.67822159e+02 6.23970947e+01 1.36925578e+00 9.97362442e+01
      1.70497360e+02 6.38448486e+01 1.53744578e+00 8.94498901e+01
      1.70233612e+02 6.40670471e+01 1.69847047e+00 7.78824387e+01
      1.62584778e+02 5.92749634e+01 1.91003609e+00 7.37377548e+01
      1.52185379e+02 5.13786850e+01 2.05395937e+00 9.00904312e+01
      1.45252457e+02 3.92902031e+01 1.76330197e+00 9.74378281e+01
      1.45440842e+02 3.87531967e+01 1.57517159e+00 1.06292389e+02
      1.44197433e+02 3.85017662e+01 1.34326398e+00 1.20874153e+02
      1.48982666e+02 4.82719345e+01 1.06786764e+00 1.07648834e+02
      1.48643555e+02 4.31404457e+01 1.33587980e+00 9.87565918e+01
      1.51356445e+02 4.46832047e+01 1.54507446e+00 8.99773941e+01
      1.49660889e+02 4.36449814e+01 1.74651873e+00 1.14892448e+02
      1.19003471e+02 1.09460442e+02 1.67601566e+01 5.17836075e+01
      1.77006989e+01 2.35653000e+01 6.06081295e+00 3.09042034e+01</_>
    <_>
      9.77443619e+01 1.86466171e+02 9.32452087e+01 1.58692396e+00
      9.02255630e+00 9.02255630e+00 1.23418251e+02 -2.39066362e+00
      2.25563908e+01 0. 1.20722946e+02 -2.25915504e+00 4.21052628e+01
      3.00751877e+00 1.06798683e+02 -2.13536572e+00 6.01503754e+01
      7.51879692e+00 9.42102585e+01 -1.99874485e+00 7.96992493e+01
      1.35338345e+01 8.20617371e+01 -1.81133056e+00 1.12781952e+02
      1.65413532e+01 7.78767395e+01 -1.39612412e+00 1.32330826e+02
      1.05263157e+01 8.90779114e+01 -1.19028997e+00 1.53383453e+02
      6.01503754e+00 1.02652924e+02 -1.01530254e+00 1.72932327e+02
      4.51127815e+00 1.15329620e+02 -8.77727509e-01 1.89473679e+02
      1.35338345e+01 1.20385307e+02 -7.23530293e-01 7.51879730e+01
      1.03759399e+02 2.62620296e+01 2.72918224e+00 9.62406006e+01
      1.09774437e+02 1.68125420e+01 1.75064981e+00 1.18796989e+02
      1.05263161e+02 2.29538918e+01 5.51654994e-01 2.85714283e+01
      3.30827065e+01 9.28076630e+01 -2.43648124e+00 4.21052628e+01
      2.85714283e+01 8.62927322e+01 -2.29454422e+00 5.71428566e+01
      3.00751877e+01 7.59063416e+01 -2.15879893e+00 6.91729355e+01
      4.06015053e+01 6.06184807e+01 -2.08994246e+00 5.56390991e+01
      4.21052628e+01 6.71997070e+01 -2.27699542e+00 4.06015053e+01
      4.06015053e+01 7.88004379e+01 -2.41019607e+00 1.26315788e+02
      4.21052628e+01 5.78507805e+01 -1.08389711e+00 1.38345871e+02
      3.30827065e+01 7.17405167e+01 -9.94421124e-01 1.53383453e+02
      3.15789471e+01 8.20479584e+01 -8.50242198e-01 1.66917297e+02
      3.60902252e+01 8.85687485e+01 -7.01259911e-01 1.54887222e+02
      4.51127815e+01 7.35613556e+01 -7.13060856e-01 1.38345871e+02
      4.51127815e+01 6.20015869e+01 -8.88479769e-01 6.31578941e+01
      1.36842102e+02 5.66061058e+01 2.26213336e+00 7.51879730e+01
      1.29323303e+02 4.33750534e+01 2.15879893e+00 8.72180481e+01
      1.24812027e+02 3.37927895e+01 1.93477523e+00 9.62406006e+01
      1.27819550e+02 3.47169800e+01 1.65753472e+00 1.03759399e+02
      1.24812027e+02 3.18995533e+01 1.42889929e+00 1.17293236e+02
      1.30827072e+02 4.17005234e+01 1.12327635e+00 1.26315788e+02
      1.38345871e+02 5.26100922e+01 1.03037679e+00 1.15789474e+02
      1.56390976e+02 6.52881012e+01 1.31464493e+00 1.03759399e+02
      1.63909775e+02 7.08205261e+01 1.50705302e+00 9.47368393e+01
      1.65413528e+02 7.23212891e+01 1.63321519e+00 8.57142868e+01
      1.62406021e+02 7.04844589e+01 1.76400781e+00 7.36842117e+01
      1.54887222e+02 6.67438812e+01 1.96385431e+00 6.76691742e+01
      1.36842102e+02 5.38421478e+01 2.19753933e+00 8.72180481e+01
      1.33834579e+02 4.23462486e+01 1.85885179e+00 9.62406006e+01
      1.35338348e+02 4.22125397e+01 1.64210379e+00 1.03759399e+02
      1.35338348e+02 4.23462486e+01 1.46406066e+00 1.20300751e+02
      1.38345871e+02 4.97832947e+01 1.13416922e+00 1.03759399e+02
      1.47368423e+02 5.43229828e+01 1.48765504e+00 9.47368393e+01
      1.47368423e+02 5.43229828e+01 1.65393758e+00 8.72180481e+01
      1.47368423e+02 5.54559059e+01 1.78946531e+00 1.10021355e+02
      1.09372009e+02 9.88485947e+01 2.16875267e+01 5.71626396e+01
      1.36171207e+01 2.56080990e+01 1.21236963e+01 2.56080990e+01</_>
    <_>
      1.01321800e+02 1.88031723e+02 9.40188141e+01 1.56287217e+00
      1.21124725e+01 2.07642403e+01 1.14855278e+02 -2.44998884e+00
      2.39365540e+01 4.32588339e+00 1.17974648e+02 -2.27789807e+00
      4.45085335e+01 0. 1.09465202e+02 -2.10854244e+00 6.58495560e+01
      3.84522945e-01 9.98639450e+01 -1.92596173e+00 8.74789734e+01
      8.45950508e+00 8.65531235e+01 -1.72270679e+00 1.13290077e+02
      9.56500816e+00 8.54024277e+01 -1.42137766e+00 1.35592407e+02
      3.98942566e+00 9.65963364e+01 -1.19985354e+00 1.57414078e+02
      1.39389575e+00 1.08670639e+02 -1.02040184e+00 1.77793793e+02
      7.73852444e+00 1.15785347e+02 -8.40758264e-01 1.89041092e+02
      2.33117046e+01 1.13247574e+02 -6.74276948e-01 7.77697678e+01
      9.70920486e+01 2.30135384e+01 3.00752282e+00 9.96395111e+01
      1.03677002e+02 9.70649719e+00 1.66750860e+00 1.20451813e+02
      9.78610916e+01 2.02435818e+01 1.91109270e-01 3.27805824e+01
      3.47993279e+01 9.00162354e+01 -2.42364168e+00 4.41720734e+01
      3.05215092e+01 8.49295273e+01 -2.29713321e+00 5.93126640e+01
      3.14347515e+01 7.49608078e+01 -2.15373039e+00 7.17615967e+01
      3.95578003e+01 6.16116524e+01 -2.05747247e+00 5.91204033e+01
      4.21052628e+01 6.64329834e+01 -2.24468970e+00 4.37394867e+01
      4.26820488e+01 7.65874634e+01 -2.40702820e+00 1.28334534e+02
      3.95097351e+01 6.11670723e+01 -1.09976876e+00 1.41696701e+02
      3.24921875e+01 7.40000687e+01 -9.81622756e-01 1.55347275e+02
      3.31651039e+01 8.18695374e+01 -8.37937593e-01 1.66786835e+02
      3.80677719e+01 8.66830978e+01 -7.01589406e-01 1.56404709e+02
      4.55659714e+01 7.39198837e+01 -7.14762270e-01 1.41264114e+02
      4.46527290e+01 6.39701347e+01 -8.81445467e-01 6.40711365e+01
      1.34631104e+02 5.46100693e+01 2.30295730e+00 7.71929855e+01
      1.29103577e+02 4.21657486e+01 2.15864086e+00 9.00745010e+01
      1.25066093e+02 3.27782631e+01 1.89695215e+00 1.00264359e+02
      1.28238403e+02 3.42239685e+01 1.57992530e+00 1.09925499e+02
      1.25210289e+02 3.25651741e+01 1.27962232e+00 1.21845711e+02
      1.27132904e+02 3.93586769e+01 9.99899089e-01 1.35015625e+02
      1.30785873e+02 5.03792305e+01 8.18123579e-01 1.23431870e+02
      1.45734192e+02 5.65432701e+01 1.15468657e+00 1.11319397e+02
      1.54482101e+02 6.14131012e+01 1.39496803e+00 1.00408554e+02
      1.55779861e+02 6.17642288e+01 1.57352006e+00 8.97380447e+01
      1.55587601e+02 6.25184555e+01 1.74504542e+00 7.70487900e+01
      1.48954575e+02 5.97647820e+01 1.97542405e+00 7.00312424e+01
      1.35592407e+02 5.15910759e+01 2.20442176e+00 9.03628922e+01
      1.32756546e+02 4.00645027e+01 1.82857800e+00 9.95433807e+01
      1.32708481e+02 3.87064209e+01 1.59749806e+00 1.10454216e+02
      1.31410721e+02 3.86773720e+01 1.31255543e+00 1.28815186e+02
      1.31314590e+02 4.67825012e+01 9.22774553e-01 1.11992310e+02
      1.40831528e+02 4.81873550e+01 1.33162379e+00 1.01081474e+02
      1.42129303e+02 4.81160812e+01 1.56030715e+00 9.04109573e+01
      1.41937027e+02 4.89875793e+01 1.77983379e+00 9.80104828e+01
      1.04620651e+02 9.41700821e+01 1.84231491e+01 6.48289413e+01
      1.24458685e+01 1.98515205e+01 9.54554462e+00 2.93049793e+01</_>
    <_>
      1.04954842e+02 1.87649506e+02 9.39310150e+01 1.52322555e+00
      1.21552353e+01 2.01122780e+01 1.15048836e+02 -2.44617534e+00
      2.42128391e+01 5.66268015e+00 1.16578194e+02 -2.28403258e+00
      4.28118134e+01 3.90529662e-01 1.09802162e+02 -2.12383485e+00
      6.31681709e+01 1.31803763e+00 9.97510605e+01 -1.95425618e+00
      8.21576767e+01 8.54283619e+00 8.72296448e+01 -1.78251505e+00
      1.15010986e+02 9.07981491e+00 8.59803238e+01 -1.40107405e+00
      1.35123260e+02 2.19672942e+00 9.79555206e+01 -1.20940089e+00
      1.55381989e+02 0. 1.08703339e+02 -1.04142892e+00 1.75884796e+02
      5.61386395e+00 1.16042290e+02 -8.63561749e-01 1.88821091e+02
      1.92824020e+01 1.15582298e+02 -7.00930059e-01 7.86917267e+01
      9.77788620e+01 2.21521931e+01 2.96213341e+00 1.00659019e+02
      1.00219673e+02 6.39720535e+00 1.54408514e+00 1.20917747e+02
      9.80229416e+01 2.08564777e+01 2.02674374e-01 3.29021225e+01
      3.35367355e+01 9.05677490e+01 -2.41320467e+00 4.53014412e+01
      3.00219669e+01 8.43585739e+01 -2.28391027e+00 5.93605080e+01
      2.95826206e+01 7.62793198e+01 -2.14024973e+00 6.89773026e+01
      3.71003189e+01 6.48890991e+01 -2.07785821e+00 5.81401024e+01
      4.05662689e+01 6.80428085e+01 -2.24256802e+00 4.40810356e+01
      4.10056152e+01 7.72762909e+01 -2.38903189e+00 1.29948746e+02
      3.67586021e+01 6.42220459e+01 -1.09423089e+00 1.40688309e+02
      3.01684151e+01 7.52873230e+01 -1.00752330e+00 1.54747375e+02
      2.97290707e+01 8.39780807e+01 -8.68317544e-01 1.67341965e+02
      3.24627762e+01 9.07453690e+01 -7.42591679e-01 1.56651215e+02
      4.06150856e+01 7.73663788e+01 -7.58401811e-01 1.42592148e+02
      4.10544319e+01 6.75089035e+01 -8.97354066e-01 7.05394211e+01
      1.37124725e+02 5.26480293e+01 2.17590117e+00 8.11325378e+01
      1.25848183e+02 3.74184494e+01 2.11445999e+00 9.18721008e+01
      1.19257996e+02 2.68530521e+01 1.89743328e+00 1.01342445e+02
      1.22089333e+02 2.82774906e+01 1.54058099e+00 1.10617523e+02
      1.18672195e+02 2.68328114e+01 1.18370223e+00 1.24969490e+02
      1.27605568e+02 4.17190475e+01 9.43677604e-01 1.33121796e+02
      1.38296310e+02 5.51604385e+01 9.37738240e-01 1.24090797e+02
      1.49524048e+02 6.04937630e+01 1.16998398e+00 1.11691483e+02
      1.53038803e+02 6.02645760e+01 1.38380635e+00 1.02318771e+02
      1.53331711e+02 5.95351067e+01 1.54004312e+00 9.28972397e+01
      1.52062485e+02 5.87303658e+01 1.70040929e+00 8.18647766e+01
      1.49279968e+02 5.84988098e+01 1.89478993e+00 7.67390747e+01
      1.35367340e+02 4.78519173e+01 2.09013224e+00 9.23114471e+01
      1.33317062e+02 4.03299065e+01 1.77495742e+00 1.01684158e+02
      1.33024170e+02 3.92176552e+01 1.54029524e+00 1.11056870e+02
      1.32731262e+02 4.03164330e+01 1.30555320e+00 1.26775688e+02
      1.35367340e+02 4.91611748e+01 1.00661838e+00 1.11056870e+02
      1.32731262e+02 4.03164330e+01 1.30555320e+00 1.01732979e+02
      1.34586288e+02 4.07805367e+01 1.54026687e+00 9.23114471e+01
      1.33317062e+02 4.03299065e+01 1.77495742e+00 1.11228401e+02
      1.10213600e+02 9.96941833e+01 1.34444122e+01 5.62637215e+01
      1.10512390e+01 2.34432182e+01 1.56288123e+00 2.98588028e+01</_>
    <_>
      1.02075653e+02 2.08768188e+02 1.04410477e+02 1.54831362e+00
      1.56741028e+01 2.26964111e+01 1.17209236e+02 -2.37047243e+00
      2.81668282e+01 4.65567398e+00 1.22746971e+02 -2.19321370e+00
      4.85741997e+01 0. 1.16244537e+02 -2.02645850e+00 6.85935974e+01
      2.52182341e+00 1.06514313e+02 -1.86743402e+00 8.81474304e+01
      1.36566439e+01 9.14635925e+01 -1.69775569e+00 1.15499512e+02
      1.36954412e+01 9.20497665e+01 -1.39861453e+00 1.34704178e+02
      4.65567398e+00 1.05683777e+02 -1.23348916e+00 1.54801163e+02
      5.74199820e+00 1.12974648e+02 -1.06159639e+00 1.74587784e+02
      1.25703201e+01 1.18463890e+02 -8.86771977e-01 1.83782730e+02
      2.89039764e+01 1.12970688e+02 -7.31704712e-01 7.87196884e+01
      1.08166832e+02 2.13465633e+01 2.96344614e+00 1.00019402e+02
      1.13637245e+02 9.25772667e+00 1.53936017e+00 1.20426773e+02
      1.08981575e+02 2.12027950e+01 2.18569711e-01 3.77885551e+01
      3.97284203e+01 8.95371628e+01 -2.33474517e+00 4.96605225e+01
      3.31716766e+01 8.70517197e+01 -2.18358517e+00 6.40155182e+01
      3.39476242e+01 7.89728241e+01 -2.04004645e+00 7.34432602e+01
      4.59747810e+01 6.40512085e+01 -1.99366403e+00 6.31619797e+01
      4.97381172e+01 6.57517090e+01 -2.16051722e+00 4.74490776e+01
      4.74490776e+01 7.72963486e+01 -2.31359148e+00 1.26634338e+02
      4.74102821e+01 6.30074883e+01 -1.12959361e+00 1.38661499e+02
      3.79825401e+01 7.69737015e+01 -1.04049063e+00 1.51580994e+02
      3.86808929e+01 8.36994629e+01 -9.02679265e-01 1.62677017e+02
      4.64791451e+01 8.55307465e+01 -7.43688822e-01 1.52240540e+02
      5.31134834e+01 7.33907242e+01 -7.73436129e-01 1.39243454e+02
      5.38506317e+01 6.41488037e+01 -9.07153964e-01 6.09117355e+01
      1.44636276e+02 5.59193459e+01 2.33804154e+00 7.42192078e+01
      1.38157135e+02 4.23241997e+01 2.21768904e+00 8.88845749e+01
      1.33191071e+02 3.07803707e+01 1.93082094e+00 9.87778854e+01
      1.36605240e+02 3.22351608e+01 1.60028803e+00 1.07623665e+02
      1.32764313e+02 2.94579601e+01 1.29946172e+00 1.23181374e+02
      1.37924347e+02 4.09266396e+01 9.60575163e-01 1.35712906e+02
      1.45800201e+02 5.48650742e+01 8.55458736e-01 1.23452957e+02
      1.59534439e+02 6.00367699e+01 1.16454685e+00 1.10067894e+02
      1.67449081e+02 6.39069405e+01 1.40829253e+00 9.85063019e+01
      1.68263824e+02 6.38914185e+01 1.58992553e+00 8.84578094e+01
      1.67720657e+02 6.43315430e+01 1.74690092e+00 7.44131927e+01
      1.61202713e+02 6.22030258e+01 1.98993897e+00 6.66537323e+01
      1.44946655e+02 5.23379021e+01 2.25485682e+00 8.96993179e+01
      1.44752670e+02 4.15957298e+01 1.81430459e+00 9.83123169e+01
      1.45218231e+02 4.08586884e+01 1.60546172e+00 1.08516006e+02
      1.42890396e+02 3.94962921e+01 1.34642720e+00 1.29970901e+02
      1.45489822e+02 5.10322266e+01 9.36494410e-01 1.09330750e+02
      1.54451996e+02 5.09803772e+01 1.38131106e+00 9.76915588e+01
      1.56702225e+02 5.23577728e+01 1.60970879e+00 8.91561584e+01
      1.54801163e+02 5.15136261e+01 1.77749741e+00 1.02916153e+02
      1.07425972e+02 9.81152115e+01 2.23637314e+01 6.90644379e+01
      1.44476519e+01 2.30464039e+01 1.15007610e+01 2.90735626e+01</_>
    <_>
      1.06468613e+02 2.17057983e+02 1.08544258e+02 1.58757174e+00
      2.17537136e+01 2.08912315e+01 1.23161697e+02 -2.34986711e+00
      3.66075706e+01 4.88739824e+00 1.26015335e+02 -2.17588401e+00
      5.69238129e+01 0. 1.20070671e+02 -2.01284790e+00 7.82942047e+01
      2.87494016e+00 1.09829369e+02 -1.84741807e+00 9.92812653e+01
      1.18830862e+01 9.70648117e+01 -1.66373551e+00 1.31672256e+02
      1.08289413e+01 1.00459229e+02 -1.33588207e+00 1.51892670e+02
      7.47484446e+00 1.10059914e+02 -1.16344643e+00 1.70388123e+02
      7.09151888e+00 1.18936157e+02 -1.02146387e+00 1.88212738e+02
      1.74413033e+01 1.21180466e+02 -8.50590050e-01 1.94825104e+02
      3.47867737e+01 1.13694069e+02 -7.05746412e-01 8.75898438e+01
      1.00431244e+02 2.22271385e+01 -2.76869226e+00 1.13080978e+02
      1.11260185e+02 5.51529932e+00 5.18068552e-01 1.36559662e+02
      1.05031143e+02 2.84858150e+01 -1.23103172e-01 4.22616196e+01
      3.75658836e+01 9.69300308e+01 -2.32018352e+00 5.63488274e+01
      3.38284607e+01 9.09834747e+01 -2.17837286e+00 7.16818390e+01
      3.47867737e+01 8.23287811e+01 -2.03158092e+00 8.35649261e+01
      4.16866302e+01 7.12685089e+01 -1.92508161e+00 7.11068497e+01
      4.39865837e+01 7.44866714e+01 -2.09345317e+00 5.57738380e+01
      4.30282707e+01 8.39537354e+01 -2.24660683e+00 1.37134644e+02
      4.65740280e+01 6.83407974e+01 -1.13505864e+00 1.49880203e+02
      3.96741753e+01 8.04411621e+01 -1.02741432e+00 1.63679916e+02
      4.05366554e+01 8.76987228e+01 -8.87181163e-01 1.75563004e+02
      4.74365120e+01 9.08736954e+01 -7.37283051e-01 1.64542404e+02
      5.13655968e+01 8.02000809e+01 -7.93425024e-01 1.49209396e+02
      5.04072838e+01 7.10814819e+01 -9.57364380e-01 7.41734543e+01
      1.42692856e+02 4.82811394e+01 2.35549283e+00 8.56732178e+01
      1.31097275e+02 3.19502678e+01 2.35725498e+00 9.97604218e+01
      1.27359848e+02 2.06723213e+01 1.99608099e+00 1.10397697e+02
      1.29563965e+02 2.11403694e+01 1.47090209e+00 1.21226639e+02
      1.28701492e+02 2.39645901e+01 1.00054002e+00 1.33109726e+02
      1.35601349e+02 3.67281952e+01 8.28768909e-01 1.41351227e+02
      1.51509338e+02 5.42254028e+01 9.15100694e-01 1.32822235e+02
      1.64829895e+02 6.14137764e+01 1.15986013e+00 1.18543365e+02
      1.71633926e+02 6.39325943e+01 1.40971363e+00 1.07810257e+02
      1.70963104e+02 6.24359550e+01 1.57847083e+00 9.71729736e+01
      1.68758987e+02 6.12472649e+01 1.75330889e+00 8.39482498e+01
      1.58696701e+02 5.57610130e+01 2.02253056e+00 8.18399582e+01
      1.43172012e+02 4.35856934e+01 2.22287250e+00 9.91854324e+01
      1.36559662e+02 2.94720306e+01 1.88483500e+00 1.09918541e+02
      1.37230469e+02 2.87476845e+01 1.51409590e+00 1.20651649e+02
      1.37901291e+02 3.18678093e+01 1.17241979e+00 1.35313843e+02
      1.49592712e+02 4.91584167e+01 9.88741219e-01 1.19597511e+02
      1.54767609e+02 4.76012917e+01 1.33094454e+00 1.08768570e+02
      1.55630096e+02 4.71035385e+01 1.56062376e+00 9.81312866e+01
      1.53425964e+02 4.60317955e+01 1.79330397e+00 1.09551819e+02
      1.09863762e+02 1.01348785e+02 2.55690155e+01 6.15284958e+01
      1.08632336e+01 2.76532784e+01 1.84355183e+01 3.07642479e+01</_>
    <_>
      1.05528984e+02 2.04208908e+02 1.02341660e+02 1.50269866e+00
      1.42337866e+01 2.13889427e+01 1.16733765e+02 -2.37809896e+00
      2.58274345e+01 7.65257311e+00 1.19213814e+02 -2.22703981e+00
      4.66424332e+01 4.13238955e+00 1.10880539e+02 -2.05813503e+00
      6.46642456e+01 8.14999008e+00 9.98834991e+01 -1.91707993e+00
      8.28008423e+01 1.66443462e+01 8.69019165e+01 -1.75320959e+00
      1.11115364e+02 1.44251003e+01 8.85730057e+01 -1.42862439e+00
      1.30285065e+02 4.97417259e+00 1.02178497e+02 -1.25514436e+00
      1.49569550e+02 0. 1.14134872e+02 -1.10752356e+00 1.69083603e+02
      3.97933817e+00 1.20836220e+02 -9.47657287e-01 1.82896500e+02
      1.85574894e+01 1.18709198e+02 -7.80725837e-01 8.06963806e+01
      1.09278748e+02 1.92552052e+01 2.75979471e+00 1.00210449e+02
      1.13258080e+02 1.12743244e+01 1.42433965e+00 1.19494926e+02
      1.08283913e+02 2.18229618e+01 2.87090391e-01 3.71149788e+01
      4.02142715e+01 8.72153549e+01 -2.35262704e+00 4.73311653e+01
      3.09929218e+01 8.76457138e+01 -2.19513106e+00 6.07996941e+01
      3.21408081e+01 7.95056076e+01 -2.06576443e+00 7.15898209e+01
      4.53032341e+01 6.28812141e+01 -2.01416898e+00 5.97283325e+01
      4.85938416e+01 6.61187134e+01 -2.19861412e+00 4.62598038e+01
      4.74459534e+01 7.56531601e+01 -2.33419847e+00 1.25349152e+02
      4.54180222e+01 6.26955757e+01 -1.12939453e+00 1.35412277e+02
      3.02276649e+01 8.07711868e+01 -1.09708548e+00 1.48842545e+02
      2.98832989e+01 8.79983749e+01 -9.62652922e-01 1.61010147e+02
      3.85307045e+01 8.91122894e+01 -7.94354975e-01 1.52209686e+02
      4.47292900e+01 7.85470963e+01 -8.18988860e-01 1.37325424e+02
      4.66041718e+01 6.76952133e+01 -9.61158514e-01 6.81461639e+01
      1.43944901e+02 5.17294579e+01 2.19942951e+00 7.97398148e+01
      1.30208527e+02 3.38264999e+01 2.16099501e+00 9.00325241e+01
      1.23971687e+02 2.34729900e+01 1.94282711e+00 9.90625610e+01
      1.26726608e+02 2.46271782e+01 1.55059707e+00 1.09431793e+02
      1.23474266e+02 2.39740067e+01 1.10036790e+00 1.23053375e+02
      1.30591156e+02 3.75654869e+01 8.60733807e-01 1.35335754e+02
      1.43715317e+02 5.55296516e+01 8.47072363e-01 1.23589058e+02
      1.51482681e+02 5.53570747e+01 1.10173917e+00 1.13219818e+02
      1.54735031e+02 5.46327438e+01 1.29923093e+00 1.01281807e+02
      1.55041138e+02 5.30063362e+01 1.51952219e+00 9.07977829e+01
      1.53816727e+02 5.22923508e+01 1.71988523e+00 8.02754898e+01
      1.51100052e+02 5.22979927e+01 1.92806840e+00 7.56074219e+01
      1.43753586e+02 4.75574074e+01 2.07457352e+00 9.19074020e+01
      1.38855942e+02 3.73496590e+01 1.75000846e+00 1.00860916e+02
      1.38626358e+02 3.65939903e+01 1.50801873e+00 1.11306679e+02
      1.38358521e+02 3.84279060e+01 1.23282933e+00 1.27874496e+02
      1.43906631e+02 5.10535088e+01 9.59302902e-01 1.11306679e+02
      1.38358521e+02 3.84279060e+01 1.23282933e+00 1.00860916e+02
      1.38626358e+02 3.65939903e+01 1.50801873e+00 9.19074020e+01
      1.38855942e+02 3.73496590e+01 1.75000846e+00 1.08272705e+02
      1.08272705e+02 9.89497833e+01 1.49274225e+01 5.97283478e+01
      1.52230434e+01 2.08983917e+01 0. 2.25892887e+01</_>
    <_>
      1.04706413e+02 1.89242493e+02 9.47190399e+01 1.61624110e+00
      2.44733295e+01 1.93635139e+01 1.13181602e+02 -2.41419387e+00
      3.90856133e+01 4.93052435e+00 1.13726707e+02 -2.23298025e+00
      5.92559395e+01 0. 1.06904579e+02 -2.05488372e+00 8.04123688e+01
      4.30300331e+00 9.47374039e+01 -1.87743509e+00 1.01389511e+02
      1.16539669e+01 8.33164597e+01 -1.66238165e+00 1.31869110e+02
      1.34468851e+01 8.43317413e+01 -1.29629314e+00 1.50515457e+02
      8.42671490e+00 9.56673889e+01 -1.12202609e+00 1.68892868e+02
      7.97848511e+00 1.05323296e+02 -9.66032207e-01 1.85298065e+02
      1.50605106e+01 1.10226448e+02 -8.06390166e-01 1.93545502e+02
      3.08381901e+01 1.05899139e+02 -6.46379292e-01 9.28731537e+01
      1.04437469e+02 1.88874893e+01 2.59506822e+00 1.12505600e+02
      1.08650826e+02 1.44586496e+01 1.32656956e+00 1.30972656e+02
      1.06678619e+02 2.50552273e+01 5.02059460e-01 4.49125938e+01
      3.58583603e+01 8.69567642e+01 -2.39958215e+00 5.74630203e+01
      3.04796047e+01 8.22871857e+01 -2.24774909e+00 7.10891953e+01
      3.28103981e+01 7.25156784e+01 -2.12107444e+00 8.28328094e+01
      4.11474686e+01 5.95370445e+01 -2.02602673e+00 7.04616776e+01
      4.34782600e+01 6.40432129e+01 -2.21667695e+00 5.67458534e+01
      4.26714478e+01 7.36903076e+01 -2.35920525e+00 1.39130432e+02
      4.59883461e+01 5.72052002e+01 -1.01626670e+00 1.51860153e+02
      3.75616302e+01 7.13581467e+01 -9.26667094e-01 1.65575974e+02
      3.83684464e+01 7.97756424e+01 -7.82617092e-01 1.74361267e+02
      4.50022430e+01 8.20543213e+01 -6.49400771e-01 1.64858810e+02
      5.05602875e+01 7.11373520e+01 -6.67951047e-01 1.52666962e+02
      4.98431206e+01 6.25384865e+01 -7.98068523e-01 7.55714951e+01
      1.38592560e+02 5.52410240e+01 2.22095108e+00 8.98251877e+01
      1.30255493e+02 4.04701576e+01 2.06466269e+00 1.02375618e+02
      1.24876740e+02 3.09742146e+01 1.78663993e+00 1.11340210e+02
      1.28462570e+02 3.39214973e+01 1.50203073e+00 1.20573730e+02
      1.27476471e+02 3.48310089e+01 1.23236036e+00 1.30883011e+02
      1.34199905e+02 4.52208481e+01 1.06591213e+00 1.41102646e+02
      1.42447327e+02 5.75960960e+01 9.79771912e-01 1.30165848e+02
      1.46391754e+02 5.59265594e+01 1.18284845e+00 1.19318687e+02
      1.48812195e+02 5.51628494e+01 1.38280284e+00 1.10174812e+02
      1.48274323e+02 5.36657257e+01 1.54907882e+00 1.01030930e+02
      1.47736435e+02 5.37110786e+01 1.71989262e+00 8.89287338e+01
      1.45495300e+02 5.46937141e+01 1.94673717e+00 8.31913910e+01
      1.39040787e+02 5.13776779e+01 2.09730077e+00 1.01658447e+02
      1.37068573e+02 4.30791435e+01 1.74227405e+00 1.10802330e+02
      1.37606461e+02 4.30225830e+01 1.52911043e+00 1.19946213e+02
      1.38144333e+02 4.48761902e+01 1.32460642e+00 1.35006729e+02
      1.42088745e+02 5.41204567e+01 1.06973100e+00 1.20125504e+02
      1.35096375e+02 4.19738388e+01 1.30276477e+00 1.10891975e+02
      1.36082474e+02 4.15039444e+01 1.52542210e+00 1.03361725e+02
      1.34110260e+02 3.98908386e+01 1.71285224e+00 1.02964470e+02
      1.07211395e+02 9.77510300e+01 1.40746918e+01 5.95379715e+01
      1.22129173e+01 1.52661467e+01 1.52661467e+00 2.75214367e+01</_>
    <_>
      9.92396927e+01 1.90676270e+02 9.53559036e+01 1.55149126e+00
      8.40336132e+00 1.81272507e+01 1.17820786e+02 -2.42698002e+00
      1.96878757e+01 4.36174488e+00 1.19648300e+02 -2.27771759e+00
      3.85354156e+01 1.60064027e-01 1.11909706e+02 -2.12467670e+00
      5.72228889e+01 2.20088029e+00 1.01433060e+02 -1.97804511e+00
      7.57502975e+01 1.04841938e+01 8.75720062e+01 -1.82059598e+00
      1.14805923e+02 9.92396927e+00 8.71698456e+01 -1.36975455e+00
      1.33773514e+02 1.04041612e+00 1.01070114e+02 -1.20264184e+00
      1.54101639e+02 0. 1.10925896e+02 -1.03424358e+00 1.72669067e+02
      6.72268915e+00 1.16268166e+02 -8.66649747e-01 1.86394562e+02
      1.95678272e+01 1.16881805e+02 -7.05302715e-01 7.32693100e+01
      1.07242897e+02 2.69065685e+01 2.68326592e+00 9.65586243e+01
      1.12525009e+02 1.72074070e+01 1.61965144e+00 1.20128052e+02
      1.06882751e+02 2.54929371e+01 4.69965518e-01 2.96918774e+01
      4.05362129e+01 8.71062546e+01 -2.46114802e+00 4.23369331e+01
      3.46138458e+01 8.19711304e+01 -2.30733061e+00 5.48219299e+01
      3.49339752e+01 7.39017334e+01 -2.18478274e+00 6.71068420e+01
      4.30572243e+01 6.04227295e+01 -2.09593892e+00 5.45818329e+01
      4.42977180e+01 6.66215439e+01 -2.26880312e+00 4.05362129e+01
      4.39375763e+01 7.66510849e+01 -2.40660453e+00 1.24889954e+02
      4.29771919e+01 5.91390190e+01 -1.08732688e+00 1.39135651e+02
      3.55342140e+01 7.29277802e+01 -9.61486340e-01 1.53181274e+02
      3.58943596e+01 8.15182724e+01 -8.17163825e-01 1.63985596e+02
      4.08563423e+01 8.60351410e+01 -6.85745895e-01 1.52941177e+02
      4.52581024e+01 7.47860107e+01 -7.33729839e-01 1.38895554e+02
      4.48979607e+01 6.53159943e+01 -8.82372677e-01 5.69827919e+01
      1.33373352e+02 5.54990463e+01 2.38653469e+00 7.26290512e+01
      1.32212891e+02 4.44217911e+01 2.16229677e+00 8.51540604e+01
      1.30972382e+02 3.76794052e+01 1.90178251e+00 9.44777908e+01
      1.32773102e+02 3.75487747e+01 1.64867163e+00 1.03921570e+02
      1.29891953e+02 3.51640587e+01 1.38422501e+00 1.19487793e+02
      1.31852737e+02 4.26759071e+01 1.02675855e+00 1.36654663e+02
      1.32292923e+02 5.39135056e+01 7.55215704e-01 1.20648262e+02
      1.47498993e+02 5.71076660e+01 1.15150476e+00 1.04881950e+02
      1.53341339e+02 5.84838982e+01 1.44249499e+00 9.54781876e+01
      1.54661865e+02 5.93548164e+01 1.60316277e+00 8.61144485e+01
      1.54421768e+02 6.01516075e+01 1.75951576e+00 7.22288895e+01
      1.47819122e+02 5.82046967e+01 2.01799393e+00 6.31852722e+01
      1.35094040e+02 5.24510078e+01 2.28140855e+00 8.49139633e+01
      1.40336136e+02 4.66979141e+01 1.84144497e+00 9.42777100e+01
      1.40576233e+02 4.53456459e+01 1.63968313e+00 1.03681473e+02
      1.39255707e+02 4.43646545e+01 1.42870796e+00 1.31932770e+02
      1.33733490e+02 5.16409492e+01 8.38298023e-01 1.05202080e+02
      1.40856339e+02 4.61822014e+01 1.40101802e+00 9.58383331e+01
      1.40616241e+02 4.53050003e+01 1.60525024e+00 8.64745865e+01
      1.40376144e+02 4.63439827e+01 1.80875945e+00 9.54338913e+01
      9.67653198e+01 9.09354019e+01 1.60728912e+01 7.49508438e+01
      9.36682320e+00 1.56113720e+01 1.56113720e+00 2.49781952e+01</_>
    <_>
      1.02902054e+02 2.20677139e+02 1.10461967e+02 1.52352560e+00
      1.41072149e+01 2.75695286e+01 1.17624504e+02 -2.36104059e+00
      2.10399036e+01 7.98065281e+00 1.27871864e+02 -2.21350932e+00
      4.02257156e+01 0. 1.24402046e+02 -2.05089045e+00 5.96533661e+01
      9.67351854e-01 1.15794083e+02 -1.90542591e+00 7.92825470e+01
      9.39137459e+00 1.02610382e+02 -1.75108898e+00 1.10600563e+02
      8.54494190e+00 1.02610054e+02 -1.44456553e+00 1.29826675e+02
      2.05562282e+00 1.12953323e+02 -1.28222764e+00 1.50705368e+02
      1.49133408e+00 1.21075005e+02 -1.11749601e+00 1.70334549e+02
      9.91535664e+00 1.23948204e+02 -9.44498479e-01 1.81257553e+02
      2.75292225e+01 1.17652870e+02 -7.80795455e-01 7.60580444e+01
      1.10963318e+02 2.16333675e+01 3.11270976e+00 9.70979462e+01
      1.16364372e+02 6.05407238e+00 1.66748393e+00 1.16364372e+02
      1.11366386e+02 1.87102356e+01 5.49607761e-02 3.54695702e+01
      4.49012489e+01 9.02910767e+01 -2.33093929e+00 4.56670685e+01
      3.56711006e+01 9.09990387e+01 -2.17925429e+00 5.91293831e+01
      3.67996788e+01 8.30319443e+01 -2.05365777e+00 6.84401474e+01
      4.99798470e+01 6.70692520e+01 -2.02194619e+00 5.80411110e+01
      5.17533264e+01 7.07365646e+01 -2.16567349e+00 4.30874634e+01
      5.06650543e+01 8.08797531e+01 -2.31177926e+00 1.22168480e+02
      5.00201530e+01 6.50990067e+01 -1.18517363e+00 1.33776703e+02
      3.77670288e+01 8.10520096e+01 -1.10926151e+00 1.47198715e+02
      3.74042740e+01 8.81548538e+01 -9.74360704e-01 1.57920197e+02
      4.75614662e+01 8.70032120e+01 -8.06037426e-01 1.49093109e+02
      5.22773094e+01 7.75511017e+01 -8.46074700e-01 1.34220078e+02
      5.41717033e+01 6.70053711e+01 -9.94055450e-01 5.61870232e+01
      1.48810959e+02 5.65861282e+01 2.39397883e+00 7.09391403e+01
      1.42442566e+02 4.17835808e+01 2.26534939e+00 8.57315598e+01
      1.37565491e+02 2.97342854e+01 1.98440981e+00 9.62515106e+01
      1.40266022e+02 2.99616356e+01 1.61857140e+00 1.06610237e+02
      1.37001205e+02 2.81176586e+01 1.24768579e+00 1.23135834e+02
      1.41031845e+02 3.98742371e+01 8.78452420e-01 1.38170090e+02
      1.45102783e+02 5.33648262e+01 7.09486485e-01 1.23579201e+02
      1.57436523e+02 5.37481308e+01 1.06806815e+00 1.08867393e+02
      1.65296249e+02 5.60843201e+01 1.37001812e+00 9.69770279e+01
      1.67110031e+02 5.67758446e+01 1.58322024e+00 8.65376892e+01
      1.67392181e+02 5.81319046e+01 1.76370454e+00 7.14228134e+01
      1.60338577e+02 5.64762344e+01 2.05439329e+00 6.21926651e+01
      1.50141068e+02 5.33269081e+01 2.29897642e+00 8.60137024e+01
      1.48004837e+02 3.94322891e+01 1.87121165e+00 9.64933472e+01
      1.49214020e+02 3.88936348e+01 1.60137260e+00 1.06892380e+02
      1.47440552e+02 3.82280083e+01 1.32747984e+00 1.30753723e+02
      1.46795654e+02 4.92222710e+01 8.34055364e-01 1.08464333e+02
      1.50382904e+02 4.14704628e+01 1.30778360e+00 9.66142654e+01
      1.53688034e+02 4.33626137e+01 1.59543109e+00 8.61346207e+01
      1.52478836e+02 4.36938553e+01 1.83826196e+00 9.95207214e+01
      1.05954903e+02 9.90162506e+01 1.82107010e+01 7.45939331e+01
      1.49931955e+01 1.79025440e+01 4.47563601e+00 3.04284744e+01</_>
    <_>
      1.00787399e+02 2.14173233e+02 1.07098190e+02 1.55609155e+00
      1.25984249e+01 2.36220474e+01 1.20284447e+02 -2.37471080e+00
      2.51968498e+01 7.87401581e+00 1.23779930e+02 -2.21175289e+00
      4.40944901e+01 3.14960623e+00 1.17647385e+02 -2.05839157e+00
      6.29921265e+01 6.29921246e+00 1.07098190e+02 -1.91579854e+00
      8.18897629e+01 1.41732283e+01 9.45144348e+01 -1.75512075e+00
      1.13385826e+02 1.25984249e+01 9.55452652e+01 -1.42190635e+00
      1.32283463e+02 3.14960623e+00 1.09071465e+02 -1.26274359e+00
      1.52755905e+02 0. 1.19726471e+02 -1.10714877e+00 1.73228348e+02
      6.29921246e+00 1.25045715e+02 -9.37370420e-01 1.85826767e+02
      2.36220474e+01 1.20284447e+02 -7.66881764e-01 7.87401581e+01
      1.10236221e+02 2.07133007e+01 2.98894334e+00 9.92126007e+01
      1.16535431e+02 9.44881916e+00 1.57079637e+00 1.19685036e+02
      1.11811020e+02 2.10104942e+01 2.26798847e-01 3.46456680e+01
      4.25196838e+01 9.13114243e+01 -2.35619450e+00 4.56692924e+01
      3.46456680e+01 9.00809402e+01 -2.20730448e+00 5.98425179e+01
      3.46456680e+01 8.24481277e+01 -2.06861877e+00 7.08661423e+01
      4.72440948e+01 6.62166824e+01 -2.01317048e+00 5.98425179e+01
      4.72440948e+01 7.16319046e+01 -2.15270138e+00 4.56692924e+01
      4.72440948e+01 8.02995224e+01 -2.30069590e+00 1.27559052e+02
      4.56692924e+01 6.76432495e+01 -1.13838851e+00 1.38582672e+02
      3.46456680e+01 8.24481277e+01 -1.07297397e+00 1.51181107e+02
      3.30708656e+01 9.04381332e+01 -9.58643854e-01 1.63779526e+02
      4.25196838e+01 9.13114243e+01 -7.85398185e-01 1.52755905e+02
      4.72440948e+01 8.02995224e+01 -8.40896666e-01 1.40157486e+02
      4.72440948e+01 7.25093842e+01 -9.70746100e-01 5.66929131e+01
      1.43307083e+02 5.58555832e+01 2.43602443e+00 7.08661423e+01
      1.32283463e+02 3.79262810e+01 2.41495037e+00 8.66141739e+01
      1.27559052e+02 2.40383263e+01 2.12245131e+00 9.92126007e+01
      1.29133865e+02 2.20472450e+01 1.57079637e+00 1.11811020e+02
      1.27559052e+02 2.40383263e+01 1.01914132e+00 1.27559052e+02
      1.32283463e+02 3.79262810e+01 7.26642370e-01 1.41732285e+02
      1.41732285e+02 5.48474808e+01 6.83709323e-01 1.29133865e+02
      1.60629929e+02 6.13365097e+01 1.06120408e+00 1.13385826e+02
      1.68503937e+02 6.30314827e+01 1.34399748e+00 9.92126007e+01
      1.71653549e+02 6.45669327e+01 1.57079637e+00 8.66141739e+01
      1.68503937e+02 6.26961555e+01 1.77311790e+00 7.08661423e+01
      1.60629929e+02 6.05838852e+01 2.05769563e+00 6.29921265e+01
      1.43307083e+02 5.12234840e+01 2.35619450e+00 8.66141739e+01
      1.40157486e+02 3.53892975e+01 1.93477523e+00 9.92126007e+01
      1.41732285e+02 3.46456680e+01 1.57079637e+00 1.11811020e+02
      1.40157486e+02 3.53892975e+01 1.20681739e+00 1.37007874e+02
      1.43307083e+02 5.23488808e+01 7.64124751e-01 1.11811020e+02
      1.54330704e+02 4.88950386e+01 1.31019390e+00 9.92126007e+01
      1.55905518e+02 4.88188972e+01 1.57079637e+00 8.66141739e+01
      1.54330704e+02 4.88950386e+01 1.83139873e+00 1.01632774e+02
      1.03170639e+02 9.66934280e+01 2.70939369e+01 8.03149643e+01
      1.42604494e+01 2.83464565e+01 1.41732283e+01 2.19344692e+01</_>
    <_>
      1.01612900e+02 1.98387100e+02 9.91935501e+01 1.57079637e+00
      1.29032259e+01 1.77419357e+01 1.20431610e+02 -2.39882278e+00
      2.58064518e+01 4.83870983e+00 1.21034927e+02 -2.24761844e+00
      4.51612892e+01 0. 1.14132133e+02 -2.08818960e+00 6.45161285e+01 0.
      1.05903404e+02 -1.92867577e+00 8.22580643e+01 8.06451607e+00
      9.31617432e+01 -1.78007591e+00 1.19354836e+02 8.06451607e+00
      9.28400574e+01 -1.37851143e+00 1.38709671e+02 1.61290324e+00
      1.04394218e+02 -1.20750487e+00 1.58064514e+02 0. 1.14132133e+02
      -1.05340302e+00 1.77419357e+02 8.06451607e+00 1.18537415e+02
      -8.76929104e-01 1.90322586e+02 2.09677410e+01 1.18273766e+02
      -7.22678602e-01 7.90322571e+01 1.04838707e+02 2.32755966e+01
      2.89661407e+00 100. 1.09677422e+02 1.06072149e+01 1.72344565e+00
      1.20967743e+02 1.06451614e+02 2.06709766e+01 3.58770669e-01
      3.22580643e+01 3.87096786e+01 9.20238647e+01 -2.42441154e+00
      4.51612892e+01 3.38709679e+01 8.63355331e+01 -2.28347516e+00
      5.96774178e+01 3.38709679e+01 7.76248932e+01 -2.14150953e+00
      7.09677429e+01 4.35483856e+01 6.35256615e+01 -2.07419562e+00
      5.80645180e+01 4.51612892e+01 6.93970261e+01 -2.24916697e+00
      4.35483856e+01 4.51612892e+01 7.93156509e+01 -2.39215016e+00
      1.29032257e+02 4.35483856e+01 6.20339012e+01 -1.11296260e+00
      1.41935486e+02 3.38709679e+01 7.67655487e+01 -1.01776493e+00
      1.56451614e+02 3.54838715e+01 8.40607376e+01 -8.60088885e-01
      1.69354843e+02 4.03225822e+01 8.97483215e+01 -7.15448797e-01
      1.56451614e+02 4.67741928e+01 7.58621979e+01 -7.62845576e-01
      1.41935486e+02 4.51612892e+01 6.74195480e+01 -9.29687560e-01
      5.80645180e+01 1.35483871e+02 5.66872978e+01 2.44685435e+00
      7.25806427e+01 1.30645157e+02 4.28027573e+01 2.31621575e+00
      8.70967712e+01 1.27419357e+02 3.17397881e+01 2.04580712e+00
      9.83871002e+01 1.29032257e+02 3.00125713e+01 1.67848623e+00
      1.08064514e+02 1.25806450e+02 2.73837528e+01 1.33296037e+00
      1.22580643e+02 1.30645157e+02 3.78001328e+01 9.82793748e-01
      1.37096771e+02 1.33870972e+02 4.96147995e+01 7.73904443e-01
      1.22580643e+02 1.48387100e+02 5.34757080e+01 1.16788471e+00
      1.09677422e+02 1.54838715e+02 5.62265091e+01 1.42687082e+00
      9.83871002e+01 1.56451614e+02 5.73488617e+01 1.62707484e+00
      8.70967712e+01 1.54838715e+02 5.75074081e+01 1.82597876e+00
      7.41935501e+01 150. 5.77331505e+01 2.06568384e+00 6.45161285e+01
      1.35483871e+02 5.18956451e+01 2.36718297e+00 8.70967712e+01
      1.37096771e+02 4.05878372e+01 1.93654358e+00 9.83871002e+01
      1.38709671e+02 3.96475754e+01 1.65224838e+00 1.08064514e+02
      1.37096771e+02 3.84483795e+01 1.40219939e+00 1.30645157e+02
      1.33870972e+02 4.52260475e+01 8.73774946e-01 1.09677422e+02
      1.38709671e+02 4.03306427e+01 1.36947918e+00 9.83871002e+01
      1.40322586e+02 4.12553406e+01 1.64906752e+00 8.70967712e+01
      1.38709671e+02 4.20980110e+01 1.92284060e+00 9.89539490e+01
      1.00155968e+02 9.14816208e+01 1.66058559e+01 7.25985641e+01
      1.12903223e+01 1.94219265e+01 1.61290324e+00 2.42472515e+01</_>
    <_>
      1.00145988e+02 2.13613144e+02 1.06816299e+02 1.55729985e+00
      1.60948906e+01 2.56934299e+01 1.15774216e+02 -2.36533380e+00
      2.53284664e+01 7.40875912e+00 1.23547356e+02 -2.20670557e+00
      4.31751823e+01 0. 1.20379128e+02 -2.05024028e+00 6.40145950e+01
      8.39416087e-01 1.11500755e+02 -1.88716447e+00 8.22627716e+01
      8.68613148e+00 9.94884262e+01 -1.73681951e+00 1.12773720e+02
      7.88321161e+00 9.99188538e+01 -1.42951918e+00 1.32043793e+02
      1.82481754e+00 1.10148468e+02 -1.26329613e+00 1.52883209e+02
      2.66423368e+00 1.17392387e+02 -1.09108949e+00 1.71167877e+02
      1.18978100e+01 1.19409515e+02 -9.18706596e-01 1.81313873e+02
      2.82846718e+01 1.13973755e+02 -7.60035515e-01 7.64963531e+01
      1.05985405e+02 2.22232056e+01 -3.10463333e+00 9.88321152e+01
      1.10948906e+02 4.14430475e+00 1.53996909e+00 1.19525551e+02
      1.06240875e+02 2.08288517e+01 -2.71624681e-02 3.73357658e+01
      4.17883224e+01 8.94062576e+01 -2.32732582e+00 4.82481766e+01
      3.45620422e+01 8.81198044e+01 -2.18045354e+00 6.21532860e+01
      3.55839424e+01 8.00540161e+01 -2.04494405e+00 7.21532822e+01
      4.64233589e+01 6.59628143e+01 -1.98506010e+00 6.10948906e+01
      4.81021881e+01 6.97185593e+01 -2.14057684e+00 4.71897812e+01
      4.70802917e+01 7.88731995e+01 -2.28250933e+00 1.23503647e+02
      4.64598541e+01 6.52436218e+01 -1.18088913e+00 1.35729919e+02
      3.64233589e+01 7.95279083e+01 -1.08652151e+00 1.49598541e+02
      3.60583954e+01 8.71522827e+01 -9.47187901e-01 1.60912415e+02
      4.40875931e+01 8.83374710e+01 -7.89488137e-01 1.49927002e+02
      4.85401459e+01 7.75804977e+01 -8.49642992e-01 1.36058395e+02
      4.89051094e+01 6.89050140e+01 -9.97851729e-01 5.79562035e+01
      1.39781021e+02 5.24187775e+01 2.46125174e+00 7.16788330e+01
      1.33868607e+02 3.82457123e+01 2.35551977e+00 8.82116776e+01
      1.29270081e+02 2.47932606e+01 2.00777912e+00 9.79926987e+01
      1.31788315e+02 2.49918861e+01 1.59927654e+00 1.09014595e+02
      1.28722626e+02 2.42201195e+01 1.13107407e+00 1.24343063e+02
      1.31094894e+02 3.53166351e+01 7.58358002e-01 1.39781021e+02
      1.37627731e+02 5.13540154e+01 6.43714309e-01 1.24817520e+02
      1.49124084e+02 4.97259331e+01 1.01791525e+00 1.09708031e+02
      1.55072998e+02 4.95048256e+01 1.34664989e+00 9.86496353e+01
      1.56751831e+02 4.99452858e+01 1.57189238e+00 8.75182495e+01
      1.55656937e+02 5.01147461e+01 1.79590309e+00 7.21167908e+01
      1.50510956e+02 5.11563568e+01 2.11733341e+00 6.35401459e+01
      1.41021896e+02 4.90633469e+01 2.36987066e+00 8.85036469e+01
      1.40364960e+02 3.50745010e+01 1.86589086e+00 9.82481766e+01
      1.41496353e+02 3.46927795e+01 1.58394659e+00 1.09306572e+02
      1.39817520e+02 3.46717339e+01 1.26003063e+00 1.32846710e+02
      1.37810226e+02 4.61186028e+01 7.37256110e-01 1.09343063e+02
      1.41204376e+02 3.60054283e+01 1.27084422e+00 9.82846680e+01
      1.42883209e+02 3.60790825e+01 1.58242965e+00 8.85766449e+01
      1.43138687e+02 3.77172890e+01 1.84264958e+00 9.58973083e+01
      1.00138763e+02 9.33238525e+01 1.92735634e+01 7.49164352e+01
      1.24860725e+01 1.66480980e+01 1.38734150e+00 2.53166065e+01</_>
    <_>
      1.03032570e+02 2.15050537e+02 1.07527748e+02 1.56400669e+00
      1.53874950e+01 2.45975285e+01 1.20130051e+02 -2.37966633e+00
      2.69561958e+01 8.23661518e+00 1.24640701e+02 -2.21994448e+00
      4.73605385e+01 0. 1.20748932e+02 -2.04317975e+00 6.87757416e+01
      2.58330202e+00 1.10167427e+02 -1.88002670e+00 8.51366501e+01
      1.41520033e+01 9.49380493e+01 -1.75260746e+00 1.22051666e+02
      1.44140768e+01 9.51825790e+01 -1.36179090e+00 1.39460876e+02
      4.49269915e+00 1.09528328e+02 -1.22466826e+00 1.57880951e+02
      5.39123917e+00 1.16276924e+02 -1.07243896e+00 1.76001495e+02
      1.24298019e+01 1.20310806e+02 -9.11486268e-01 1.89217514e+02
      2.53837509e+01 1.19588669e+02 -7.57169604e-01 8.15050507e+01
      1.20142265e+02 2.43253517e+01 2.59629011e+00 1.02770500e+02
      1.25795586e+02 1.82763042e+01 1.54518712e+00 1.23025085e+02
      1.20628975e+02 2.45179996e+01 5.63859880e-01 3.72894058e+01
      4.87457886e+01 8.76454849e+01 -2.40650725e+00 4.84088364e+01
      4.15949097e+01 8.51548080e+01 -2.25607729e+00 6.21490097e+01
      4.38038177e+01 7.53175125e+01 -2.13308406e+00 7.39797821e+01
      5.36128807e+01 6.08992844e+01 -2.05451560e+00 6.16248589e+01
      5.45488586e+01 6.67919998e+01 -2.22562051e+00 4.78098106e+01
      5.38749542e+01 7.64709778e+01 -2.36398387e+00 1.32384872e+02
      5.49232483e+01 6.05963821e+01 -1.05130541e+00 1.43728943e+02
      4.31673546e+01 7.65381699e+01 -9.98871028e-01 1.57543991e+02
      4.38412590e+01 8.43046570e+01 -8.56269360e-01 1.67989517e+02
      5.05054283e+01 8.69830170e+01 -7.14882195e-01 1.58479965e+02
      5.61961823e+01 7.60958786e+01 -7.40330338e-01 1.44590042e+02
      5.70572815e+01 6.58426437e+01 -8.73364329e-01 6.01272926e+01
      1.48333954e+02 5.86864357e+01 2.37266040e+00 7.73118668e+01
      1.43017593e+02 4.34078026e+01 2.18427801e+00 9.12766724e+01
      1.40621490e+02 3.48845062e+01 1.89237714e+00 1.01946838e+02
      1.42680649e+02 3.51571732e+01 1.58091319e+00 1.12841629e+02
      1.40134781e+02 3.42702980e+01 1.25820076e+00 1.26506927e+02
      1.43878693e+02 4.36740799e+01 9.83388126e-01 1.41557465e+02
      1.50767502e+02 5.84024200e+01 8.33692789e-01 1.26843880e+02
      1.68513672e+02 6.57408752e+01 1.18822777e+00 1.12654434e+02
