<?xml version="1.0"?>
<opencv_storage>
<opencv_ml_svm>
  <format>3</format>
  <svmType>C_SVC</svmType>
  <kernel>
    <type>LINEAR</type></kernel>
  <C>2.7300000000000000e+00</C>
  <term_criteria><epsilon>1.1920928955078125e-07</epsilon>
    <iterations>1000</iterations></term_criteria>
  <var_count>193</var_count>
  <class_count>7</class_count>
  <class_labels type_id="opencv-matrix">
    <rows>7</rows>
    <cols>1</cols>
    <dt>i</dt>
    <data>
      0 1 2 3 4 5 6</data></class_labels>
  <sv_total>21</sv_total>
  <support_vectors>
    <_>
      -4.37145866e-02 -1.43422019e-02 -1.59559641e-02 6.46304630e-04
      -6.19682996e-03 1.57867838e-02 -1.63501743e-02 -1.29110063e-04
      -4.45801839e-02 -2.91332528e-02 3.84742022e-02 -1.89844795e-04
      -3.26586328e-02 -2.48574428e-02 2.53766663e-02 -1.71035281e-04
      -4.33569588e-02 1.35868583e-02 -1.00354571e-02 -4.35508322e-04
      -3.74847129e-02 4.02696095e-02 -4.23875414e-02 -4.55898087e-04
      1.12265423e-02 -4.58028400e-03 -3.85261420e-03 1.81883152e-04
      2.41790060e-02 -6.10701041e-03 6.63065165e-03 2.46607873e-04
      1.78406220e-02 -1.54678561e-02 1.34629356e-02 4.76769346e-05
      2.30130944e-02 -9.07349773e-03 1.11874277e-02 5.25248179e-05
      1.38876578e-02 -5.44639723e-03 2.74890591e-03 -3.61836078e-06
      9.46107227e-03 5.74126281e-03 -8.23336560e-03 1.70010123e-02
      1.13939708e-02 -4.71912883e-02 -7.45652691e-02 5.42313047e-03
      8.88496358e-03 2.86171138e-02 -7.58932438e-03 6.56157907e-04
      -1.64727550e-02 -4.22855429e-02 3.44459787e-02 1.73389781e-04
      -2.21262546e-03 -3.88062745e-02 2.19880491e-02 2.64214061e-04
      2.69633587e-02 -6.03257902e-02 2.64502838e-02 7.49747211e-04
      1.39584113e-03 3.18787955e-02 -3.65979560e-02 -2.65313283e-04
      7.02628680e-03 5.30212559e-02 -5.36739007e-02 -4.65201942e-04
      -2.16497015e-02 3.45184691e-02 -1.42772803e-02 -6.07599271e-04
      -2.26566177e-02 -4.56238585e-03 -1.40668293e-02 -3.61479790e-04
      1.52532812e-02 -5.28803952e-02 4.36569043e-02 -2.70740042e-04
      2.98330244e-02 -2.97384877e-02 3.33637074e-02 1.54602403e-05
      -3.47875617e-03 -1.46646518e-02 -3.75696953e-04 -1.06368680e-04
      2.27591265e-02 6.81563169e-02 -3.76341231e-02 8.73907120e-04
      1.46415653e-02 4.33413945e-02 -3.07230279e-02 5.97319799e-04
      -1.16299437e-02 -1.79918250e-03 1.58931222e-02 9.33886840e-05
      1.37522174e-02 1.80183854e-02 1.40013145e-02 -9.01888765e-04
      1.39536690e-02 4.23387950e-03 4.82688937e-03 -1.32117257e-03
      -1.06034111e-02 3.53127532e-02 3.93990129e-02 1.74911751e-03
      -2.63864622e-02 2.74310559e-02 -3.73643497e-03 3.44004249e-03
      -7.31796771e-03 5.64503744e-02 9.32090729e-03 1.93142972e-03
      4.47758334e-03 -2.13043136e-03 -1.25160590e-02 -9.38176672e-05
      -1.28670558e-02 -2.24905480e-02 -3.20117697e-02 1.48666659e-04
      -4.36129756e-02 -1.29116513e-02 -2.29251906e-02 6.99866971e-04
      2.18416075e-03 -2.62136292e-02 -2.36496646e-02 5.18938468e-05
      3.53024923e-04 -1.80845205e-02 -1.11653404e-02 2.04064563e-04
      -6.66897604e-03 -1.37342159e-02 3.25271743e-04 3.29496223e-04
      7.29644224e-02 -7.48472381e-03 -3.85930985e-02 -1.12625689e-03
      3.55888754e-02 -3.26660275e-02 -3.12558785e-02 -5.23705618e-04
      -5.23993373e-03 -1.70515142e-02 -1.44304540e-02 8.58154148e-04
      -2.89867129e-02 -4.12219763e-02 -5.83753772e-02 1.52362755e-03
      -8.32794292e-04 -1.09249987e-02 -2.16706395e-02 -3.18177772e-05
      1.16597479e-02 -8.88968632e-03 -1.15403219e-03 -4.59648320e-04
      -6.60608150e-03 1.09738838e-02 1.58606265e-02 1.15645787e-04
      1.30179822e-02 1.58362333e-02 2.07558330e-02 -2.53157137e-04
      5.80185605e-03 3.12255602e-02 -3.78581546e-02 1.49564706e-02
      9.16142203e-03 9.60831195e-02 -3.19413505e-02 4.12899032e-02
      2.76477970e-02</_>
    <_>
      4.44103926e-02 7.47725088e-03 -1.77763274e-03 -5.47442294e-04
      -3.14512365e-02 -1.83991808e-02 3.08981836e-02 -1.08105596e-05
      -2.19829045e-02 -5.06216884e-02 4.98217717e-02 1.71785898e-04
      -6.96116779e-03 -2.08746418e-02 1.97594594e-02 1.07649335e-04
      1.99583005e-02 1.13091050e-02 -1.74156930e-02 2.48620199e-04
      1.70432422e-02 3.59941050e-02 -3.63726094e-02 2.49486911e-04
      1.39959948e-02 3.16228904e-02 -2.82921884e-02 2.96446466e-04
      7.10880710e-03 1.15890494e-02 -6.09874353e-03 1.62615543e-04
      1.82700832e-03 -9.70312301e-03 1.13035953e-02 -1.77213860e-05
      1.75765567e-02 -4.09494974e-02 4.26313691e-02 -1.70984436e-04
      8.70617945e-03 -1.24405241e-02 1.99857317e-02 -8.11310456e-05
      -1.29357595e-02 -3.07937223e-03 6.20570546e-03 2.33833824e-04
      -1.37107233e-02 -2.19943989e-02 -2.08504703e-02 -1.55746040e-03
      2.90899770e-03 -1.63958780e-02 4.48567182e-04 -8.50237440e-04
      2.86508780e-02 -2.63390932e-02 -8.23098607e-03 5.48861339e-04
      2.19421014e-02 -6.44104136e-03 -1.28301177e-02 4.11758898e-04
      1.70350540e-02 -2.50996426e-02 1.04013421e-02 5.44365379e-04
      -2.71399263e-02 -3.11667882e-02 3.82327139e-02 1.52697849e-05
      4.03866321e-02 1.28486659e-02 -3.82110588e-02 5.81316883e-04
      3.39137539e-02 -2.15791296e-02 -1.39470445e-02 6.57648023e-04
      -1.57609228e-02 -2.10836902e-02 1.87507365e-02 -3.36672907e-04
      -1.14618689e-02 -1.38512533e-02 1.05824508e-02 -2.63171532e-04
      -4.04266082e-02 -3.68233537e-03 -2.06391085e-02 -4.74636559e-04
      -3.66442017e-02 -1.11486269e-02 -1.68234669e-02 -4.23033489e-04
      -4.17514928e-02 -1.56178307e-02 -1.75857935e-02 -6.08200789e-04
      -6.52532210e-04 -3.14247725e-03 8.41995049e-03 -7.73301363e-05
      7.51795666e-03 -1.69033725e-02 -2.45929267e-02 -7.07197660e-06
      1.86137687e-02 2.69363746e-02 4.00257716e-03 -1.08585227e-03
      -4.12472617e-03 2.19968781e-02 1.73088480e-02 -6.71333750e-04
      1.42560061e-02 2.55608074e-02 2.21152175e-02 -4.70712112e-04
      -7.72952335e-04 2.66558342e-02 1.95993222e-02 7.74964690e-04
      -1.58965327e-02 1.45997759e-02 -7.60544324e-03 6.26652094e-04
      7.08770473e-03 -2.70702653e-02 -2.09782831e-02 -6.26043882e-04
      -1.20735299e-02 -3.69281247e-02 -4.17269431e-02 -3.01768363e-04
      1.14434166e-02 -1.15022985e-02 -1.40687842e-02 -5.10910584e-04
      2.76009832e-03 -2.45317109e-02 -3.00035290e-02 -3.36530560e-04
      2.46657412e-02 9.35936999e-03 -2.00625719e-03 -7.14355556e-04
      3.97768952e-02 3.88918743e-02 1.06591005e-02 -1.12052518e-03
      -9.93569382e-03 -1.48010748e-02 -1.17212282e-02 1.79566079e-04
      2.16507148e-02 1.94933116e-02 9.27010179e-03 -6.83506834e-04
      1.07944198e-02 -2.12506647e-03 -6.08539209e-03 -3.08279152e-04
      1.43462047e-03 -2.39265691e-02 -2.67311055e-02 -2.67229538e-04
      -8.98339599e-03 -3.54901776e-02 -3.71084027e-02 -4.07256914e-04
      -3.59471119e-03 -2.02215626e-03 -4.25238302e-03 -3.64416308e-04
      -1.21658416e-02 1.73282828e-02 1.41219292e-02 -1.59676027e-04
      1.13072693e-02 1.06759360e-02 2.38589942e-03 -6.09143695e-04
      -3.39121222e-02 6.23072265e-03 2.28721602e-03 -7.24793877e-03
      -1.77545026e-02 -1.14877466e-02 7.27484189e-03 2.40800548e-02
      2.54036039e-02</_>
    <_>
      -5.71573572e-03 -8.83273501e-03 -6.39958540e-03 -3.22039523e-05
      -1.20233921e-02 -2.84250900e-02 1.91377085e-02 1.25579681e-04
      3.67491250e-03 -2.41461135e-02 8.41418095e-03 1.70740241e-04
      2.00692173e-02 -4.21225885e-03 -1.36421816e-02 2.08048878e-04
      2.34697796e-02 5.37771406e-03 -1.99617669e-02 2.50975834e-04
      2.76302174e-02 1.83781926e-02 -2.86436677e-02 3.52454023e-04
      -1.53127238e-02 2.88210250e-03 -8.36136751e-03 -4.82081923e-05
      -1.33852316e-02 8.89374409e-03 -1.37659060e-02 1.78235987e-05
      -1.32800648e-02 3.50727560e-03 -9.14392620e-03 4.55483951e-06
      -2.09234958e-03 -1.50054535e-02 1.19376602e-02 -1.90272822e-05
      -6.03561010e-03 -1.42362313e-02 7.88032636e-03 -5.88552975e-05
      -7.28295243e-04 -2.32482348e-02 -6.71900064e-03 -8.57194979e-03
      -3.86280846e-03 -2.05994137e-02 -1.48705058e-02 -1.27522286e-03
      -3.27164168e-03 -1.59131866e-02 5.13552735e-03 -7.11103843e-04
      2.50723027e-03 -1.45473415e-02 -2.06708894e-04 1.46515536e-04
      6.71341317e-03 -9.63891204e-03 -4.56572324e-03 1.49199477e-04
      1.02553153e-02 -1.35756722e-02 -1.16488920e-03 2.44923489e-04
      1.13270991e-02 -6.81340881e-03 -6.66969549e-03 2.81341083e-04
      1.31269498e-02 2.52660434e-03 -1.78507306e-02 1.70379368e-04
      3.71553260e-03 -2.14139046e-03 -9.75811481e-03 6.59873622e-05
      -1.36795752e-02 -6.70225127e-03 7.29218824e-04 -4.85363671e-05
      -1.13080824e-02 -3.14870290e-03 -1.85935060e-03 1.89820867e-06
      -9.12653655e-03 -4.70837252e-03 5.56816056e-04 1.25541067e-06
      -8.01444240e-03 -1.53454822e-02 7.93269463e-03 -9.43348205e-05
      -4.26210649e-03 2.99474108e-03 -1.43851328e-03 1.13950504e-04
      -5.59871364e-03 1.36543056e-02 -1.11243958e-02 2.29105091e-04
      2.28199176e-03 6.36864360e-03 -5.29793673e-04 -3.04949470e-04
      -5.16670116e-04 4.20788210e-03 1.31190754e-03 -3.07599985e-04
      1.97769119e-03 -4.03434271e-03 -3.32593173e-03 -3.08093237e-04
      -7.24920398e-03 1.96099794e-03 5.95363742e-03 4.61478703e-05
      -7.69635895e-03 -9.58060613e-04 2.30695354e-03 1.01780810e-04
      -4.79620462e-03 4.16849228e-03 4.71750367e-03 1.32472545e-04
      -1.74971633e-02 1.61260888e-02 5.08381613e-03 4.49718034e-04
      -6.62623160e-03 -2.62306148e-05 3.67743964e-03 -5.08294852e-06
      6.84107072e-05 -4.01883712e-03 1.05317007e-03 -1.70301602e-04
      -4.78133513e-03 -6.43665716e-03 -2.27904995e-03 -5.69587937e-05
      1.20574364e-03 1.54243957e-03 3.70357838e-03 -1.51235581e-04
      3.06467363e-03 6.93888031e-03 5.15548605e-03 -2.45824398e-04
      7.67085748e-03 2.67636240e-03 -5.44133782e-03 -3.62576393e-04
      1.07345246e-02 -7.25571811e-03 -8.20598472e-03 -4.21161298e-04
      -7.30836065e-03 -2.13385443e-03 1.94142654e-03 3.06617731e-05
      -2.03473959e-03 -1.41732376e-02 -9.27122962e-03 -1.44376783e-04
      -2.58372594e-02 1.09619657e-02 -2.38568801e-03 5.34086430e-04
      -4.96458821e-03 -2.72638572e-04 4.68829833e-03 -8.24406670e-05
      -1.27505288e-02 6.46708440e-03 1.04208784e-02 7.61146803e-05
      2.96405703e-03 2.20810738e-03 3.91063979e-03 -2.35824235e-04
      3.22212726e-02 2.04452854e-02 8.63093883e-03 4.40131873e-03
      -2.84799226e-02 7.88072962e-03 2.61487742e-03 1.58440433e-02
      1.90648288e-02</_>
    <_>
      -3.06222066e-02 7.49251340e-03 3.57847125e-03 4.35948838e-04
      2.63594892e-02 -4.30682441e-04 -9.94462986e-03 1.10690868e-04
      8.76564439e-03 3.11045032e-02 -2.13810429e-02 -1.70442785e-04
      -7.39140064e-03 1.96813443e-03 8.92680325e-03 -1.56588867e-04
      -4.65645827e-02 6.27969280e-02 -3.90930437e-02 -7.64884113e-04
      -9.39741172e-03 4.96338271e-02 -4.38317694e-02 -3.13047465e-04
      -7.42064491e-02 9.93418228e-03 -2.04428770e-02 -8.43029353e-04
      -2.98348125e-02 2.79345829e-02 -3.20978574e-02 -1.75545807e-04
      1.35003831e-02 3.49761210e-02 -1.82722602e-02 2.80650158e-04
      1.90319158e-02 -3.99443274e-03 1.97023489e-02 1.01758451e-04
      -1.63147580e-02 -7.32063269e-03 -4.21354221e-03 -1.47290004e-04
      1.39554180e-02 2.92944554e-02 -6.65960880e-03 -1.69308891e-03
      6.77209347e-03 2.56137736e-02 1.32987276e-02 1.79986306e-03
      2.97725853e-02 4.66733128e-02 3.32878605e-02 1.29486772e-03
      2.61072777e-02 -8.26580599e-02 4.74736914e-02 8.20509857e-04
      4.52958643e-02 -2.01864578e-02 -1.69620384e-03 4.00351011e-04
      3.94816436e-02 -2.27723122e-02 7.98720773e-03 4.27079038e-04
      -1.80532783e-02 -4.10144776e-02 4.93341647e-02 -1.22545884e-04
      2.20267996e-02 -3.06258332e-02 1.97823327e-02 4.38078598e-04
      4.86459397e-02 -7.97102228e-02 2.74220500e-02 1.15412741e-03
      4.72769514e-03 1.83462091e-02 -8.27255566e-03 2.94189813e-04
      3.45867686e-03 1.12805504e-03 1.15164202e-02 2.16922155e-04
      -7.42786098e-03 4.76504639e-02 -2.92370003e-02 4.22716752e-04
      -5.11849187e-02 -2.80686915e-02 -1.19900601e-02 -6.14471908e-04
      -1.85981747e-02 -2.89538540e-02 1.31314723e-02 -3.96602583e-04
      1.63499434e-02 -2.84560435e-02 3.93879600e-02 -1.21246339e-05
      3.86888185e-03 -9.00536627e-02 -4.20571193e-02 9.72234528e-04
      1.46176154e-02 -4.37146984e-02 -3.93353999e-02 2.72766716e-04
      2.68191583e-02 6.03677751e-03 -4.18466888e-03 -7.95075437e-04
      2.39751022e-02 1.97906811e-02 1.48031889e-02 -5.03446150e-04
      -1.34963673e-02 -5.09652169e-03 -1.82730779e-02 6.59908110e-04
      -2.05000751e-02 3.16575915e-02 6.48209592e-03 1.00731221e-03
      -3.93418409e-02 -1.62143465e-02 -3.38588357e-02 4.07895888e-04
      4.60340781e-03 -7.10035255e-03 -1.00322850e-02 -1.45945727e-04
      1.44221494e-02 4.70084837e-03 1.81131542e-03 -1.71662265e-04
      -3.39898691e-02 -1.53022502e-02 -1.95484143e-02 8.95240344e-04
      -1.64754931e-02 1.94883142e-02 2.26591807e-02 5.91959746e-04
      -2.56575625e-02 1.03742806e-02 3.07311844e-02 7.13791000e-04
      -2.06814334e-02 -3.05011477e-02 1.02792382e-02 7.28049665e-04
      2.70721372e-02 1.65449306e-02 8.76091793e-03 -6.61657075e-04
      -2.63534067e-03 -1.03674252e-02 -1.40026212e-02 2.74714519e-04
      7.48517271e-03 1.92319471e-02 1.35055473e-02 1.84459495e-04
      -9.97558609e-03 1.64876003e-02 7.71162100e-03 3.47296067e-04
      9.47519112e-03 -1.51640950e-02 -1.96116902e-02 -5.85935195e-05
      -2.33640280e-02 2.68662814e-02 2.17294693e-02 9.68604698e-04
      4.31124121e-03 7.39683677e-03 7.77642988e-03 2.13118561e-04
      9.27962922e-03 -5.69820032e-03 -6.66833064e-03 1.42305354e-02
      -1.22774402e-02 -7.49594346e-02 5.15790619e-02 3.25043984e-02
      -1.77891552e-02</_>
    <_>
      2.01469995e-02 7.25556072e-03 2.98159616e-03 -4.04612772e-04
      -8.72138422e-03 -2.84572989e-02 1.88227016e-02 2.39218716e-04
      9.29483026e-03 -5.64917736e-02 3.43308337e-02 4.55891481e-04
      3.36658023e-02 -1.66928116e-02 -3.52641079e-03 4.34227433e-04
      1.77151058e-02 1.94429755e-02 -2.39990931e-02 1.85686760e-04
      2.09220257e-02 6.88987449e-02 -6.96575046e-02 2.05009186e-04
      7.31704943e-03 4.78205197e-02 -4.15463969e-02 2.72635341e-04
      -5.21258404e-03 1.23329414e-02 -7.15433620e-03 6.13663069e-05
      -1.20598888e-02 7.51022715e-03 -5.76571608e-03 -4.28185776e-05
      -1.05308518e-02 -1.92638934e-02 1.61130633e-02 -1.93910411e-04
      -1.87695865e-02 -6.25746138e-03 -6.79274788e-04 -1.93471962e-04
      -1.38478521e-02 -1.65729783e-02 -1.32537307e-02 1.32023655e-02
      7.08612800e-03 -7.14028860e-03 -1.69863421e-02 7.31194718e-03
      2.73599941e-02 -1.98583677e-02 1.70797743e-02 -1.33735419e-03
      -1.00327404e-02 -4.21397611e-02 3.14289778e-02 3.99817945e-04
      1.17234634e-02 -2.45804451e-02 8.56462866e-03 4.24058584e-04
      2.14439463e-02 -2.95349434e-02 1.23099172e-02 6.12085103e-04
      -4.01038956e-03 -7.71287829e-03 6.68065762e-03 2.15592445e-04
      -3.43735237e-03 1.75910052e-02 -1.54095590e-02 8.82042968e-06
      -6.37148554e-03 -7.69739272e-03 4.56005568e-03 1.63891309e-04
      -6.14079135e-03 -1.20478906e-02 1.64004825e-02 -9.51912734e-05
      -1.14850299e-02 -1.57309547e-02 1.66306701e-02 -1.82374060e-04
      -2.28829179e-02 -1.68045126e-02 7.85990059e-03 -3.39712366e-04
      -1.84860677e-02 -2.21362412e-02 1.09973531e-02 -3.51637864e-04
      -1.13542788e-02 2.00690655e-03 5.07238845e-04 -9.51667171e-05
      3.39330384e-03 1.84228197e-02 -2.57434580e-03 2.34134772e-04
      2.73176539e-03 -9.53997765e-03 -1.58155859e-02 -1.41118740e-04
      1.20370574e-02 1.65163688e-02 -8.85611307e-03 -8.55492312e-04
      1.02947019e-02 1.40808895e-02 -3.08320136e-03 -1.29605818e-03
      1.23737054e-02 1.51364552e-02 1.01792915e-02 -1.00019423e-03
      -6.61877263e-03 -2.94805225e-03 -6.96089398e-03 2.15732973e-04
      -4.85761510e-03 1.10329576e-02 2.22457619e-03 2.07422287e-04
      1.47422710e-02 -2.41157822e-02 -1.25934137e-02 -6.45020162e-04
      3.26747628e-04 -2.03444120e-02 -1.66660864e-02 -5.09436883e-04
      9.00329556e-03 1.67375291e-03 2.55752867e-03 -4.98679408e-04
      -4.87050693e-03 1.48303807e-03 -2.14027963e-03 -1.66204583e-04
      9.82890930e-03 6.47035753e-03 -8.98177037e-04 -3.63009225e-04
      -4.71951487e-03 2.60253083e-02 2.01696679e-02 -2.15170672e-04
      -6.41989522e-03 -6.13788981e-03 -7.04034371e-03 -8.03619769e-05
      2.17609126e-02 4.87529254e-03 -8.69315956e-03 -9.21084662e-04
      3.71489045e-03 8.03627074e-03 4.37033735e-03 -4.43192286e-04
      1.67985004e-03 -1.06821358e-02 -1.04960920e-02 -3.33294098e-04
      9.18714050e-03 -1.90309212e-02 -1.44458953e-02 -5.25203010e-04
      -1.00234635e-02 -8.19453970e-03 -9.71215405e-03 -2.86242808e-04
      -1.80834662e-02 7.48053379e-03 3.88474925e-03 4.46570011e-05
      7.51873711e-03 1.16359368e-02 3.70910182e-03 -4.11263230e-04
      -1.31347068e-02 3.66800055e-02 2.61806697e-03 -9.22236033e-03
      7.19046220e-03 1.93826370e-02 8.88320152e-03 -1.80280004e-02
      2.59828195e-02</_>
    <_>
      1.28834937e-02 -8.41902056e-06 -3.55543947e-04 -1.89614002e-04
      -2.89723696e-03 -1.29553601e-02 5.88802854e-03 1.01199184e-04
      9.82862548e-04 -1.61132198e-02 8.10301304e-03 1.30747998e-04
      8.88609607e-03 -4.45853407e-03 -3.28915007e-03 1.37551207e-04
      7.43598584e-03 3.02762236e-03 -7.26541597e-03 1.19346587e-04
      1.37162246e-02 9.28667933e-03 -1.22304466e-02 2.05375065e-04
      -1.12694902e-02 3.66265746e-03 -4.54205414e-03 -4.92030194e-05
      -1.37043791e-02 2.16014544e-03 -4.52612992e-03 -5.95855818e-05
      -1.23333111e-02 9.78575367e-03 -1.15251783e-02 -6.19001730e-06
      -9.62929614e-03 3.80256516e-03 -5.23817772e-03 -7.09584447e-06
      -1.10073294e-02 -8.35275184e-03 1.84877077e-03 -8.53767051e-05
      -4.61837649e-03 -1.15135107e-02 -4.19487385e-03 -5.93328662e-03
      1.81880605e-04 -1.19294291e-02 -1.23485671e-02 -1.19150861e-03
      3.87029164e-03 -1.61350034e-02 5.07480977e-03 -8.06170399e-04
      6.37452770e-03 -2.34489013e-02 6.75553596e-03 2.90142925e-04
      5.85381500e-03 -1.09631149e-02 1.09701336e-03 1.95210392e-04
      6.78179087e-03 -1.63136385e-02 7.63003388e-03 2.56312022e-04
      -1.27781404e-03 -1.65834855e-02 1.26175620e-02 1.87622791e-04
      8.21071584e-03 -1.07327839e-02 -2.04133947e-04 2.78163818e-04
      5.32896770e-03 -1.68362930e-02 3.49580869e-03 2.63660797e-04
      -6.15442777e-03 -2.00598780e-02 1.83155332e-02 -1.31046123e-04
      -7.02546909e-03 -3.98240890e-03 2.84573343e-03 -3.79934536e-05
      -1.60614662e-02 -2.31391774e-03 -4.68456000e-03 -1.09565859e-04
      -1.33305658e-02 -1.25963790e-02 3.02427029e-03 -1.57652044e-04
      -1.30164484e-02 -8.80034547e-03 1.09304115e-03 -1.44728692e-04
      -7.40156556e-03 -6.54770853e-03 4.52465564e-03 -6.77378557e-05
      -1.51114841e-03 -5.22774924e-03 -1.16013186e-02 7.90558533e-06
      3.03189014e-03 1.51007185e-02 3.59739456e-03 -4.32287983e-04
      -5.13190753e-04 8.60399380e-03 4.86551877e-03 -3.72609065e-04
      3.70541890e-03 1.19578820e-02 1.11655379e-02 -3.87106993e-04
      -7.60164158e-03 6.37609698e-03 4.77101980e-03 1.68008497e-04
      -2.95752916e-03 5.07242105e-04 -1.18143260e-04 -2.55571231e-05
      -2.63818307e-03 -1.43056344e-02 -1.19292336e-02 -2.31430633e-04
      -2.08891230e-03 -1.43755376e-02 -1.26655065e-02 -1.59825009e-04
      5.34996949e-03 -7.64862960e-03 -6.03779824e-03 -2.06553654e-04
      3.58047523e-03 -8.38307571e-03 -8.78504757e-03 -1.56515540e-04
      7.21419603e-03 -4.55542933e-03 -7.07971351e-03 -1.99028553e-04
      1.04224437e-03 -6.25688932e-04 -4.62715793e-03 -1.17683063e-04
      -6.77686045e-03 -5.89023158e-03 -7.73680769e-03 7.81030903e-05
      9.38443653e-03 4.10243543e-03 -9.33820265e-04 -4.28185187e-04
      5.19976206e-03 5.98286139e-03 5.21090347e-03 -3.25167348e-04
      1.43179845e-03 -7.04383058e-03 -5.65384841e-03 -2.25815631e-04
      8.24133982e-04 -1.44351181e-02 -1.17540238e-02 -2.86337163e-04
      4.42219526e-03 7.38362374e-04 2.62830243e-03 -2.25329757e-04
      9.27611720e-04 3.65827186e-03 3.28741618e-03 -1.60958429e-04
      4.62534837e-03 4.33282973e-03 1.56651449e-03 -2.41537215e-04
      -5.39214630e-03 1.58618428e-02 1.02507863e-02 -7.82870408e-03
      1.95329939e-03 -6.22973032e-03 -1.56087521e-02 -2.24016816e-03
      1.33846924e-02</_>
    <_>
      2.78737005e-02 1.57469306e-02 1.14937769e-02 -2.42017864e-04
      -2.35240571e-02 -6.48105145e-03 2.50333585e-02 -5.33898383e-05
      -3.59998783e-03 -2.89382413e-03 9.92143527e-03 3.78318691e-05
      1.91222243e-02 1.89430825e-02 -1.85932387e-02 1.19516691e-04
      2.05200147e-02 4.90284450e-02 -4.41421568e-02 8.48180716e-05
      4.05313373e-02 4.44731005e-02 -3.83915752e-02 3.90156405e-04
      -9.36143938e-03 4.73471433e-02 -3.56853195e-02 -1.62014549e-05
      -2.56922822e-02 3.22357938e-02 -2.81806365e-02 -1.50352484e-04
      -1.24515658e-02 1.36786727e-02 -8.10436159e-03 -4.97863257e-05
      -7.72114191e-03 -2.72596662e-04 2.90122395e-03 -8.31216312e-05
      2.16247309e-02 1.17226341e-03 2.28231531e-02 1.37656811e-04
      -1.89235788e-02 4.44105535e-04 1.53889842e-02 5.26104076e-03
      -7.96186551e-03 1.77490134e-02 2.05853246e-02 1.72405981e-03
      1.52448798e-02 -1.56647060e-02 4.75209858e-03 -1.12203148e-03
      2.32641771e-02 -1.38751930e-02 -3.21189826e-03 3.62949213e-04
      2.06354074e-02 2.22651772e-02 -2.51938831e-02 1.33224370e-04
      2.75631733e-02 3.69597040e-03 -1.05463220e-02 3.80918471e-04
      1.04012154e-02 -1.27620948e-02 1.37675088e-02 3.35379038e-04
      1.94884986e-02 -1.92155037e-02 9.46932193e-03 5.13676612e-04
      3.08245085e-02 -4.12864089e-02 1.30055221e-02 7.33258727e-04
      -4.26160591e-03 -3.08675468e-02 3.32619511e-02 -3.31246090e-04
      -4.67052311e-03 -6.20299892e-04 3.28097027e-03 -1.34988150e-04
      -4.00637649e-02 1.27871637e-03 -2.25704387e-02 -4.30638000e-04
      -1.68812480e-02 -3.61477807e-02 1.54379010e-02 -4.91213636e-04
      -3.56373824e-02 -5.83039485e-02 1.91988572e-02 -9.50011890e-04
      -9.18354094e-03 -4.46732305e-02 3.59905176e-02 -5.84333146e-04
      3.88413994e-03 -1.53361671e-02 -1.49164619e-02 1.25107690e-04
      -1.19980075e-03 1.73783246e-02 6.71852333e-03 -3.76128941e-04
      3.20573081e-03 2.14502905e-02 9.54515953e-03 -7.30195898e-04
      3.65654472e-03 1.39429681e-02 6.56932499e-03 -9.97106035e-05
      1.13565810e-02 8.12058151e-03 3.51229799e-03 4.82600371e-05
      4.26019635e-03 -1.81703251e-02 -1.99160986e-02 -2.01999777e-04
      3.02131404e-03 -2.65072193e-02 -2.65695360e-02 -3.36859870e-04
      -2.01241975e-03 -1.66143198e-02 -2.23868340e-02 3.75145901e-05
      2.15697847e-02 -1.37262710e-03 -4.67761140e-03 -3.02055094e-04
      -6.54421793e-03 -6.04084507e-03 -1.12884976e-02 1.72892076e-04
      -8.94671865e-03 7.64991716e-03 4.71299281e-03 1.79287003e-04
      -7.85314199e-03 3.63295758e-03 3.91622633e-03 1.50013366e-04
      -1.08152581e-02 6.04988961e-03 1.14484318e-02 6.77341814e-05
      -9.88286454e-03 1.52013879e-02 1.04569467e-02 1.66859492e-04
      1.34545490e-02 1.99803468e-02 1.33612603e-02 -3.61096725e-04
      2.37153657e-02 2.06508394e-02 1.87331066e-02 -3.49709124e-04
      -7.97889568e-03 -3.45767252e-02 -3.75477783e-02 -2.12847037e-04
      1.36181964e-02 3.82836370e-05 -4.54106415e-03 -1.96539462e-04
      1.66783645e-03 1.97545737e-02 1.52936131e-02 5.74045553e-05
      -1.68723874e-02 1.34020336e-02 1.23698041e-02 4.51896543e-04
      3.58722894e-03 2.06514192e-03 2.85690315e-02 -1.19203907e-02
      -1.08548608e-02 -5.90210557e-02 -1.40586291e-02 4.02062526e-03
      4.52746695e-04</_>
    <_>
      1.94703141e-04 -7.47363968e-03 -4.49393597e-03 -3.09864990e-05
      -5.77905029e-03 -1.10746617e-03 1.33130793e-03 -5.30995057e-05
      9.81436460e-04 -2.52932496e-03 -2.55448348e-03 3.72507679e-06
      7.87887443e-03 4.13936423e-03 -1.14372792e-02 3.45060434e-05
      1.82806179e-02 -3.87912442e-04 -9.52954218e-03 1.72808242e-04
      2.28267442e-02 -1.26011425e-03 -5.79576241e-03 2.67306401e-04
      -1.13209123e-02 -1.40063069e-03 -1.82923465e-03 -9.26713547e-05
      -1.28808338e-02 7.14948867e-03 -1.25846937e-02 -5.65005757e-05
      -7.96229020e-03 6.95960457e-03 -1.08562252e-02 1.04333367e-05
      -2.36964412e-03 2.31580692e-03 -3.26803187e-03 4.66971651e-05
      3.16275196e-04 4.35145153e-03 -1.95724890e-03 9.01816384e-05
      -5.27100754e-04 -1.12713268e-02 3.11665842e-03 -5.61915431e-03
      -3.61772906e-03 -8.18968192e-03 6.90177362e-03 -2.10423418e-03
      -4.92257765e-04 -8.63295794e-03 5.87157160e-03 -3.42576968e-04
      8.38140026e-03 -9.59357899e-03 -3.03611811e-03 1.16396404e-04
      6.42939517e-03 -5.65857347e-03 -3.15466058e-03 8.03606890e-05
      3.03145917e-03 -9.72917955e-03 3.05487029e-03 8.67420458e-05
      8.17236025e-03 -1.06686223e-02 2.08020862e-03 1.89426748e-04
      8.76527652e-03 -1.35939904e-02 1.85934745e-03 2.08180907e-04
      5.42871375e-03 -1.26521932e-02 1.44506712e-03 1.41565615e-04
      -3.55316652e-03 -1.27806440e-02 8.41286778e-03 -5.44572904e-05
      -2.73933169e-03 -6.53800042e-03 2.47362047e-03 -1.39462254e-05
      -7.18890631e-04 -2.58376985e-03 5.67738723e-04 3.08471717e-05
      1.62517396e-03 -1.42423268e-02 1.02159604e-02 -5.85643356e-05
      -2.64634960e-03 -1.39026549e-02 7.30985776e-03 -9.54003626e-05
      -6.29741116e-04 -1.14319390e-02 8.13141838e-03 -3.14160607e-05
      9.97682940e-03 1.50419902e-02 4.46908735e-03 -4.20386234e-04
      -2.11907536e-04 2.67556030e-03 4.39172424e-03 -1.08156870e-04
      1.00367051e-03 -5.79590350e-03 -1.83125050e-03 1.28097687e-04
      -5.32218348e-03 -7.63397943e-03 -4.17204620e-03 1.58930823e-04
      -3.09956353e-03 -5.04239555e-03 -1.14446541e-03 -1.73672859e-04
      -3.58456303e-03 7.01265817e-05 7.16226408e-04 5.02704352e-05
      -2.09482852e-02 1.48475561e-02 -1.22590177e-03 5.09601436e-04
      -5.74478274e-03 9.52197053e-03 9.62022599e-03 1.53760120e-04
      -9.82165337e-04 -2.76777847e-03 4.18820215e-04 -3.18500788e-05
      4.83415206e-04 -2.54407385e-03 7.80591858e-04 -5.58871652e-05
      -1.29554945e-03 9.71280446e-04 3.94917931e-03 -3.94041599e-05
      5.66071970e-03 4.74803196e-03 4.01516072e-03 -1.99707531e-04
      7.94246979e-03 9.23011824e-03 3.11914971e-03 -3.31754942e-04
      2.75146379e-03 -7.25568924e-03 -4.86941542e-03 -6.23105734e-05
      -3.00875353e-03 -3.16852680e-03 1.73975190e-04 5.88470975e-05
      -1.33412320e-03 -8.00833013e-03 -4.79083275e-03 -5.89905030e-05
      -2.30150931e-02 8.91568605e-03 -5.15378872e-03 5.01916627e-04
      -3.07001476e-03 2.36277399e-03 5.18031558e-03 4.25773724e-05
      -3.49026965e-03 -3.50055448e-03 -1.87727142e-04 1.05317822e-05
      7.03211466e-04 -1.83929806e-03 1.05563737e-03 -7.92801948e-05
      3.42594497e-02 2.57004667e-02 2.92206910e-02 -2.11250782e-03
      -3.33950818e-02 -1.11315269e-02 2.19891081e-03 -2.22498988e-04
      7.92126730e-03</_>
    <_>
      -7.34627014e-03 -1.16605277e-03 1.38665375e-03 7.21323013e-05
      1.43319741e-02 2.65990430e-03 -1.21684484e-02 6.01218308e-05
      2.07688957e-02 1.18417414e-02 -2.19219774e-02 7.30649408e-05
      1.65485330e-02 9.30597633e-03 -1.58951990e-02 8.63669338e-05
      1.51807470e-02 1.14795556e-02 -1.56638194e-02 9.71471527e-05
      1.73143856e-02 6.38399227e-03 -8.78172088e-03 1.70821470e-04
      -1.01393545e-02 6.01920066e-03 -6.76230853e-03 -1.07290609e-04
      -1.01929158e-02 5.04284678e-03 -7.44179729e-03 -8.57082341e-05
      -9.21123382e-03 1.37515394e-02 -1.55899106e-02 -1.61841472e-05
      -1.13213165e-02 1.22752022e-02 -1.56387333e-02 -7.69484450e-06
      -1.35062551e-02 6.07669959e-03 -1.35801379e-02 -2.88608971e-05
      -2.66420335e-04 7.51091633e-03 2.72387580e-04 2.62023718e-03
      1.46241614e-03 1.35356868e-02 1.42005635e-02 1.74712244e-04
      1.28307333e-02 8.75117164e-03 1.26982378e-02 2.81033426e-04
      1.03715295e-02 -1.97539497e-02 6.00113487e-03 2.38423265e-04
      1.05380481e-02 -1.27054816e-02 3.61702498e-03 1.80112736e-04
      7.55407428e-03 -1.09851304e-02 5.63712884e-03 1.48119623e-04
      -3.04169185e-03 -1.72434635e-02 1.64141376e-02 7.04745689e-05
      8.58283788e-03 -2.34142113e-02 1.34909442e-02 3.13867902e-04
      1.23500004e-02 -2.97783688e-02 1.20706791e-02 3.89078370e-04
      -1.34530046e-03 -1.04361465e-02 8.51789489e-03 -1.02311045e-04
      -4.43492085e-03 -4.42079501e-03 2.54260586e-03 -6.69711735e-05
      -1.47504956e-02 1.49292278e-03 -8.96753930e-03 -1.08880820e-04
      -1.84783284e-02 -1.13219433e-02 -5.40115451e-03 -2.39818051e-04
      -1.38106523e-02 -1.77017264e-02 2.42089434e-03 -2.93595280e-04
      -5.64441085e-03 -2.09050421e-02 1.28868371e-02 -2.70491320e-04
      -3.83968768e-03 -1.29454648e-02 -6.00984646e-03 1.79008610e-04
      -8.62039533e-03 -1.33707048e-02 -5.98702580e-03 3.27137619e-04
      -3.50110233e-03 -6.61687972e-03 -4.24251705e-03 1.38721778e-04
      -6.71639282e-04 -4.68769949e-03 -3.50286975e-03 4.53959001e-06
      5.02017094e-03 -8.75368528e-03 -5.40407421e-03 -2.83229048e-04
      7.55842077e-03 -1.01227090e-02 -2.70650396e-03 -3.04190326e-04
      -1.85799599e-03 -1.17022162e-02 -8.55308678e-03 -1.02708764e-04
      7.71187479e-03 9.66241769e-03 1.29238842e-02 -3.64686130e-05
      9.14462097e-03 1.40688363e-02 1.65828038e-02 -9.74853392e-05
      -4.44898754e-03 1.36446543e-02 1.44703127e-02 8.68135394e-05
      -7.85514060e-03 1.11588538e-02 1.34549858e-02 9.21308310e-05
      -1.92052033e-02 6.82587316e-03 1.51246628e-02 2.43483053e-04
      -1.43861054e-02 -7.12122163e-03 3.87025578e-03 2.84401875e-04
      5.93917794e-04 6.34728046e-03 6.76299958e-03 -1.00215038e-04
      7.22602010e-03 6.85388513e-04 1.72119669e-03 -1.88934224e-04
      8.81024823e-03 8.07642750e-03 1.08718649e-02 -1.47949235e-04
      -3.62489780e-04 -5.64859621e-03 -3.29256104e-03 -5.69908589e-05
      5.71397133e-03 4.97023435e-03 6.75030239e-03 -6.54203977e-05
      -4.90555214e-03 8.76251049e-03 9.52996779e-03 1.42369972e-04
      -8.98621976e-03 8.31024628e-03 1.11625539e-02 1.40361022e-04
      -3.25913844e-03 3.66759719e-03 1.45374229e-02 8.34362395e-03
      3.91292712e-03 -1.82813276e-02 2.02962849e-02 -1.02514809e-03
      -1.82696730e-02</_>
    <_>
      -7.47479359e-03 -1.14834476e-02 -4.73268609e-03 -2.50381654e-05
      -5.53056784e-03 -1.47059057e-02 5.33882901e-03 6.37700359e-05
      2.16402709e-02 -2.11410355e-02 -5.50764427e-03 2.72438716e-04
      2.63264272e-02 1.11097647e-02 -3.05384193e-02 1.82328586e-04
      2.73460187e-02 1.83172133e-02 -3.31945159e-02 2.31366765e-04
      2.61925701e-02 2.68371534e-02 -3.65710370e-02 2.98216619e-04
      8.26577283e-03 3.14917490e-02 -3.01905014e-02 2.24755466e-04
      -8.85290653e-03 2.07540020e-02 -2.33625863e-02 5.40755755e-05
      -1.57266986e-02 2.17152964e-02 -2.59722024e-02 4.76013847e-05
      -1.47538846e-02 6.67823385e-03 -1.17101790e-02 3.03565175e-05
      -8.80366657e-03 -7.55521469e-03 2.75576673e-03 1.32152354e-05
      -6.03177492e-03 -9.94331390e-03 -1.69756287e-03 -2.44977721e-03
      8.17567389e-03 7.34849833e-03 1.50076877e-02 -3.19975195e-03
      1.20666865e-02 -1.78192612e-02 1.23405186e-02 -8.48983356e-04
      3.93114379e-03 -1.63923018e-02 4.38046874e-04 1.78108035e-04
      3.01987352e-03 -2.15872824e-02 7.62365945e-03 2.10820755e-04
      4.55088820e-03 -2.33624801e-02 1.01848291e-02 2.61337118e-04
      -4.58345795e-03 -1.28540257e-02 5.89941908e-03 1.08827997e-04
      -1.78218773e-03 -7.34933093e-03 -1.64075813e-03 1.08414577e-04
      -7.06409290e-03 -1.82831157e-02 9.16829892e-03 1.27975014e-04
      3.18246218e-03 -1.87550262e-02 1.68627519e-02 4.13269954e-05
      -4.42624150e-04 -1.45854121e-02 1.09462095e-02 -1.15974954e-05
      -3.53908120e-03 -1.78626664e-02 1.17986882e-02 -7.65822697e-05
      -2.51400052e-03 -1.53934211e-02 9.84818581e-03 -6.10959760e-05
      2.18601548e-03 -2.05110852e-02 1.64502822e-02 -7.35062058e-05
      8.66017397e-03 -1.62323173e-02 1.79027878e-02 6.64512045e-05
      7.92386662e-03 9.82443802e-04 -5.28069632e-03 -3.30106937e-04
      -1.03530670e-02 -2.23851437e-03 5.02308737e-03 -1.34911215e-05
      -1.07749198e-02 3.72577854e-03 1.17465248e-02 -2.46739592e-06
      2.18221010e-03 -1.08261434e-02 -4.87859687e-03 -2.69075477e-04
      1.00394348e-02 -5.57464221e-03 5.84351690e-03 -5.53627091e-04
      1.79146358e-03 -7.13631045e-03 3.20791896e-03 -2.13269246e-04
      -1.57485045e-02 -1.07617872e-02 -1.17909675e-02 7.50082254e-05
      1.26121131e-06 9.60972812e-03 1.66567154e-02 -1.90151659e-05
      1.15946904e-02 5.60989557e-03 1.49522079e-02 -3.08176415e-04
      3.59315868e-03 1.30895711e-02 1.89239085e-02 -2.11445789e-04
      -7.09582074e-03 8.84833466e-03 1.45798940e-02 -7.52846099e-05
      -1.29618561e-02 1.56659037e-02 2.21774131e-02 -9.27244546e-05
      -6.75444538e-03 1.84528099e-03 5.78754349e-03 -1.54878799e-04
      -4.61734831e-03 -6.91478606e-03 -1.30678306e-03 -5.61339075e-05
      1.46723317e-03 -4.05837083e-03 1.79047708e-03 -1.96261419e-04
      1.05601978e-02 -6.65992172e-03 3.58666456e-03 -4.25281993e-04
      -1.21438252e-02 -3.25706159e-03 -3.40273255e-03 1.30426575e-04
      7.58216204e-03 1.59386043e-02 2.45119035e-02 -2.49482749e-04
      -4.48994525e-03 5.18738874e-04 6.58028666e-03 -7.75869266e-05
      -8.42654519e-03 1.12960143e-02 1.71746202e-02 -8.42893278e-05
      8.20066500e-03 2.05907281e-02 2.36406364e-02 6.43747626e-03
      -2.00413018e-02 -1.62339583e-03 1.81002636e-02 -9.08744056e-03
      9.23794508e-03</_>
    <_>
      5.53019578e-03 6.79131458e-03 5.46662789e-03 -6.55227705e-05
      -3.71933891e-03 -2.05288758e-03 5.93928015e-03 1.24292837e-05
      4.34633810e-03 5.79402130e-03 -4.45810659e-03 2.42275146e-05
      1.35257915e-02 8.08097888e-03 -1.00286258e-02 9.46174259e-05
      1.56000927e-02 1.30637828e-02 -1.31318783e-02 1.22899321e-04
      2.03721374e-02 7.16610067e-03 -4.97122295e-03 2.25193784e-04
      -1.48016913e-02 1.83351766e-02 -1.49240484e-02 -1.31960944e-04
      -2.24306360e-02 1.76716112e-02 -1.87298954e-02 -1.51990142e-04
      -2.26352457e-02 1.72380134e-02 -2.10499018e-02 -1.08295637e-04
      -1.80129297e-02 9.73027945e-03 -1.48770371e-02 -8.30110002e-05
      1.41546526e-03 -1.10211819e-02 1.15153752e-02 -7.55598012e-05
      -4.19041049e-03 -5.27528394e-03 1.03726354e-03 3.35976132e-04
      -3.40621569e-03 -3.85795836e-03 -6.27463171e-03 5.40243229e-04
      5.63999731e-03 -1.21084759e-02 1.27448831e-04 -7.79291557e-04
      7.34140398e-03 -1.26517201e-02 5.52931800e-03 1.94080829e-04
      5.63386641e-03 -1.26899430e-03 2.32725288e-04 1.02238948e-04
      3.86597589e-03 -9.13040619e-03 8.83394293e-03 1.45674494e-04
      6.85246801e-03 -1.07388124e-02 9.56268888e-03 2.16475746e-04
      2.93038599e-03 -1.20786699e-02 1.01781962e-02 1.92836465e-04
      5.38689271e-03 -1.70494560e-02 1.02224518e-02 2.45306932e-04
      -2.77635711e-03 -1.51340393e-02 1.59594938e-02 -1.65916514e-04
      -3.84727702e-03 1.90005451e-03 -7.05846120e-04 -6.18107806e-05
      -8.27537477e-03 4.03783401e-04 -3.09114694e-03 -1.02444188e-04
      7.20204553e-04 -1.29074715e-02 1.14275021e-02 -1.28235653e-04
      -8.82910751e-03 -1.65218599e-02 7.82366935e-03 -2.68992560e-04
      -4.07372741e-03 -2.14051995e-02 1.77103337e-02 -2.67463503e-04
      -3.30918166e-03 -3.23750963e-03 -4.88561066e-03 5.65590744e-05
      -6.33874210e-04 1.27957556e-02 5.35845896e-03 -2.16058674e-04
      -1.48562540e-03 8.43286142e-03 4.20227740e-03 -2.03938704e-04
      4.90477728e-03 6.69750199e-03 3.42590665e-03 -2.71184457e-04
      1.24322789e-04 3.37002799e-03 5.75113925e-04 -5.87099566e-06
      -2.89441622e-03 -3.89835588e-03 -6.85534114e-03 -7.50221625e-06
      -4.85663442e-03 -8.15789308e-03 -1.29557000e-02 -2.43939339e-05
      -9.62449878e-04 -7.99129717e-03 -9.72643215e-03 -1.60035925e-05
      5.81427198e-03 -3.46086337e-03 -4.70003951e-03 -9.42896222e-05
      8.44992138e-03 -4.20857267e-03 -6.22010557e-03 -1.15015064e-04
      -8.75618774e-04 -1.38049154e-03 -2.72736023e-03 3.78650366e-05
      -6.07058499e-03 -6.00119075e-03 -4.58461093e-03 1.32630666e-04
      -1.03588505e-02 -4.11454123e-03 -5.18611399e-04 1.67881473e-04
      1.91336300e-03 1.13824045e-03 -2.83209025e-03 -9.52331538e-05
      8.19844659e-03 6.03162777e-03 2.97188014e-03 -2.95470032e-04
      5.68399904e-03 -4.62939148e-04 -1.43205491e-03 -1.93544736e-04
      -1.14530313e-03 -1.15057789e-02 -1.34545043e-02 -1.03075239e-04
      7.76761025e-03 -2.20858259e-03 -3.12209665e-03 -1.50541440e-04
      7.10549485e-03 -1.38716260e-03 -3.56844463e-03 -1.02922306e-04
      3.94136267e-04 -5.98273182e-04 -2.31050770e-03 4.15349750e-05
      6.56265439e-03 9.63875372e-03 1.47460122e-02 -6.93457108e-03
      2.86281016e-03 -1.68725494e-02 -1.80274341e-02 -5.19963633e-03
      8.19580164e-03</_>
    <_>
      2.13530436e-02 -2.06041224e-02 -1.05365068e-02 -2.85594549e-04
      -1.35888569e-02 1.06987311e-02 -8.49175639e-03 -1.79383394e-04
      -1.11458823e-02 9.96166002e-03 -1.20942928e-02 -1.34362985e-04
      -3.23157036e-03 6.27841009e-03 -1.53986420e-02 -3.85184358e-05
      1.89024501e-03 -5.47901914e-03 -6.70501217e-03 6.34171520e-05
      5.17000351e-03 -1.30267814e-02 1.57685648e-03 1.46284845e-04
      -7.59049831e-03 -1.65688973e-02 7.35660829e-03 -3.00243992e-05
      -2.44623213e-03 3.75470263e-03 -1.08050145e-02 7.89286569e-05
      6.15567202e-03 2.77280086e-03 -4.49675554e-03 1.56113558e-04
      5.10029076e-03 8.49300809e-03 -6.05576998e-03 1.89644328e-04
      -1.22617045e-03 5.44475997e-03 -6.54912693e-03 1.33741996e-04
      -7.10939988e-03 -2.34837942e-02 -4.70534572e-03 -1.64522976e-02
      -7.80004449e-03 -2.52811126e-02 -1.58605520e-02 2.59464257e-04
      -1.00174127e-03 -2.62764506e-02 1.22041546e-03 -8.51753575e-04
      -1.30591029e-02 -1.40593238e-02 7.47698219e-03 -2.76615738e-05
      -8.84828251e-03 -2.00316403e-02 9.17962752e-03 4.08808992e-05
      -2.23911088e-03 -1.93819702e-02 6.13125786e-03 9.60690377e-05
      1.99201200e-02 -5.06564183e-03 -1.68596655e-02 3.54700373e-04
      -3.80044361e-03 -3.94871505e-03 -7.03020440e-03 -2.57347692e-05
      -1.73054188e-02 5.55557839e-04 -4.16474737e-04 -2.00070936e-04
      -1.30651435e-02 1.05202838e-03 -1.24519365e-02 -9.52562402e-08
      -9.63164493e-03 -6.52504759e-03 -4.02703602e-03 1.16399096e-05
      1.48703028e-02 -1.38850613e-02 1.71161275e-02 1.66624741e-04
      1.75060816e-02 -1.16942190e-02 1.89796761e-02 1.53328248e-04
      2.53253020e-02 6.00051554e-03 1.26878554e-02 4.38665593e-04
      2.60387803e-03 1.24776326e-02 -1.12871164e-02 3.34010489e-04
      1.66501794e-02 2.95402389e-02 1.07008340e-02 -7.90368125e-04
      1.36290488e-04 -6.30842941e-03 -4.38182428e-03 -2.76291801e-04
      -9.01518739e-04 -1.50331343e-02 -8.85721110e-03 -3.26578971e-04
      -8.58483557e-03 -6.95411675e-03 2.85334722e-03 5.42102389e-05
      -1.12161860e-02 -1.42139783e-02 -6.26737438e-03 1.98025184e-04
      1.99483638e-03 -9.84386727e-03 3.06316931e-03 -1.23125195e-04
      -2.57377289e-02 2.71788463e-02 1.77427866e-02 7.52268534e-04
      -1.27553090e-03 1.20445387e-02 2.34012399e-02 4.17299816e-05
      4.68201144e-03 5.23076253e-03 1.72694512e-02 -1.75166802e-04
      -1.81074427e-06 -8.56796093e-03 1.89926580e-03 -1.40870121e-04
      2.03940622e-03 2.48323707e-03 1.00009749e-02 -1.92101637e-04
      6.24982640e-03 -4.86950594e-04 1.86744914e-03 -2.89345742e-04
      1.37771564e-02 2.47415751e-02 1.24746738e-02 -7.39566749e-04
      1.43862003e-03 -1.24111492e-02 -6.11408101e-03 -2.59431719e-04
      -4.68232529e-03 -3.17197246e-03 6.65187556e-03 -4.67820755e-05
      2.09948281e-03 -8.38255230e-03 2.55323225e-03 -1.31059700e-04
      -2.71520484e-02 2.00947598e-02 1.25138815e-02 6.95801864e-04
      -3.30198882e-03 -2.23329361e-03 8.77259672e-03 -5.52504971e-05
      3.87801183e-03 -1.12269574e-03 8.74052756e-03 -2.43875053e-04
      -1.63326750e-03 -6.18613651e-03 2.27690791e-03 -1.39715354e-04
      5.03648147e-02 4.97166924e-02 3.36758792e-02 -1.76869368e-03
      -4.42223698e-02 2.02773195e-02 6.58852700e-03 1.45748090e-02
      1.79699082e-02</_>
    <_>
      6.46654470e-03 3.96677712e-03 3.98919918e-03 -2.32660586e-05
      2.28485782e-02 5.32259345e-02 -5.06460778e-02 -1.79091308e-04
      1.38388490e-02 2.86517087e-02 -2.73807626e-02 -3.78091208e-05
      2.27992050e-02 -2.12325808e-02 1.06030973e-02 2.93085963e-04
      8.67721438e-03 -5.01585007e-02 4.76623923e-02 2.54200393e-04
      2.38346774e-02 -4.85551655e-02 4.91635762e-02 4.10390843e-04
      -1.03473373e-01 -6.29550517e-02 4.51589972e-02 -1.23323768e-03
      -7.57303536e-02 1.42262075e-02 -3.78556289e-02 -6.25566987e-04
      9.16229188e-03 4.06586006e-02 -2.64040902e-02 2.86597497e-04
      -2.61278301e-02 5.77730648e-02 -5.58276437e-02 1.86101082e-04
      -1.93948038e-02 3.29072662e-02 -3.24753858e-02 1.49646206e-04
      8.79451353e-03 -2.90404656e-03 -2.33502351e-02 1.33691868e-02
      1.59891564e-02 2.44930368e-02 1.50083257e-02 -1.53207540e-04
      3.24419029e-02 4.48840950e-03 1.73101760e-02 2.63314956e-04
      4.80554620e-04 -2.05289517e-02 1.48704825e-02 1.89546787e-04
      2.21651830e-02 -8.35881662e-03 -5.13017038e-03 2.63584923e-04
      1.21257659e-02 -8.84039444e-04 -9.41642036e-04 9.48664965e-05
      6.36384785e-02 -3.11088786e-02 1.98989554e-04 1.18569937e-03
      3.40512656e-02 -5.93520468e-03 -1.39196711e-02 4.80172079e-04
      -3.34767997e-03 -1.43000316e-02 1.37904380e-02 1.39831463e-04
      -1.84867121e-02 4.73582651e-03 -1.25403870e-02 -2.88931275e-04
      -6.89326180e-03 -1.17165018e-02 8.94691702e-03 -1.22383164e-04
      2.71737408e-02 -7.80284032e-03 2.61799786e-02 2.13274048e-04
      3.73301329e-03 -4.86255772e-02 3.41122560e-02 -4.40256525e-04
      1.14280945e-02 -5.44097647e-03 1.32094212e-02 6.47696070e-05
      -4.96464362e-03 5.50806755e-03 -7.66447000e-03 -1.21143303e-05
      -4.78007123e-02 -2.25482192e-02 1.05372639e-02 8.97066027e-04
      -3.34957950e-02 -9.22706630e-03 5.90309268e-03 7.29577499e-04
      -1.87626760e-02 3.01764486e-03 7.19406782e-03 5.52680751e-04
      5.59214829e-03 2.45888066e-02 2.25255862e-02 -2.50575598e-04
      3.18306424e-02 -1.92864425e-02 -1.10216103e-02 -1.32724852e-03
      4.29888107e-02 -3.90248336e-02 -6.27808645e-03 -1.35564897e-03
      -3.20592113e-02 -1.71541441e-02 -2.35618018e-02 5.16319473e-04
      6.30092472e-02 -1.65205058e-02 1.09973680e-02 -1.03110762e-03
      6.38106689e-02 2.39796867e-03 1.36112897e-02 -1.02554495e-03
      3.51641662e-02 5.47338836e-02 5.46906441e-02 -5.59885404e-04
      -2.81821825e-02 -1.75305898e-03 4.09510406e-03 5.61028952e-04
      -7.69989118e-02 -3.88789363e-02 -3.49624152e-03 1.51365879e-03
      3.63296422e-04 6.59696059e-03 2.88165989e-03 -8.45631293e-05
      -2.91337520e-02 -6.78672316e-03 -7.49635336e-04 5.28920500e-04
      7.35634053e-03 1.59266870e-02 1.39910132e-02 -2.49624514e-04
      4.78351787e-02 2.39366740e-02 3.31793837e-02 -8.99665698e-04
      4.29683318e-03 2.64059696e-02 3.12098172e-02 3.59874393e-04
      3.57476920e-02 -1.88086517e-02 -1.02815721e-02 -8.42905429e-04
      5.43159340e-03 -4.77721728e-03 -5.42981084e-03 -8.63300083e-05
      -1.25027429e-02 1.29603501e-02 1.48929432e-02 1.98550508e-04
      4.64658849e-02 -1.64428130e-02 -1.72475874e-02 4.14515920e-02
      5.41393794e-02 1.86817604e-03 -2.75515020e-02 2.87420414e-02
      -3.55189703e-02</_>
    <_>
      1.15776043e-02 -3.66207138e-02 -2.36191675e-02 -4.64868528e-04
      -5.25117032e-02 -9.92312096e-03 6.87625725e-03 -5.33990205e-05
      -3.77674177e-02 -4.97130416e-02 2.69231778e-02 2.21091293e-04
      4.81146760e-02 -4.28739823e-02 -1.78340711e-02 7.55455694e-04
      1.32511770e-02 -5.54253235e-02 2.13043578e-02 4.30639135e-04
      -2.38248669e-02 2.65429486e-02 -4.50129993e-02 -1.92227555e-04
      -1.49419187e-02 4.23860662e-02 -6.46567941e-02 5.82724024e-05
      2.52658408e-03 -1.29876425e-02 -7.03302736e-04 7.44720019e-05
      5.90383960e-03 2.61420477e-02 -2.70672888e-02 2.17409339e-04
      -2.85873432e-02 2.51875110e-02 -3.13314721e-02 2.48994384e-05
      -2.88245119e-02 6.77323118e-02 -5.47544435e-02 3.49368260e-04
      1.02441516e-02 -2.80419663e-02 -6.31972551e-02 -6.22923709e-02
      4.05912995e-02 2.49436870e-02 3.31469253e-02 8.50352179e-03
      4.14290577e-02 -1.15144914e-02 4.62495871e-02 8.59489664e-04
      -4.44887392e-02 -6.08797707e-02 4.06317264e-02 3.57488694e-04
      -4.17980878e-03 -4.28270586e-02 5.29826619e-03 4.64776065e-04
      -3.09135336e-02 1.26122497e-02 -2.10136604e-02 -2.08663201e-04
      2.96562910e-02 -1.37290440e-03 -4.19852398e-02 8.50278011e-04
      -3.84494625e-02 2.27138568e-02 -2.60625407e-02 -3.27264512e-04
      -9.40636098e-02 3.57025154e-02 8.71904381e-03 -9.83880134e-04
      -4.53242622e-02 1.20373797e-02 -4.04928587e-02 -4.12711466e-04
      -1.36617459e-02 1.67500824e-02 -2.13907119e-02 2.72566889e-04
      5.30506298e-03 -2.46837772e-02 2.52141804e-02 3.98994962e-05
      8.03475548e-03 -2.15224344e-02 2.29802616e-02 -4.40964686e-05
      2.11328845e-02 2.44982466e-02 2.63849320e-03 5.84570225e-04
      5.21279685e-02 1.47628924e-02 1.72097459e-02 9.02531552e-04
      1.91439893e-02 3.76075953e-02 -7.42826052e-03 -1.60420174e-03
      -7.10393162e-03 -4.72321063e-02 -5.83732687e-02 -1.48444291e-04
      -5.53770773e-02 -3.10310982e-02 -1.54338982e-02 7.60970579e-05
      2.62004845e-02 -1.44253941e-02 4.88945888e-03 -3.36815696e-03
      1.27946027e-02 -3.70402038e-02 1.22279953e-02 -2.51994026e-03
      -9.11524612e-03 -4.15846892e-03 3.32203731e-02 -2.00398703e-04
      -1.68126319e-02 -8.51341523e-03 3.13886590e-02 1.35472801e-04
      2.22565942e-02 -6.19011633e-02 -9.54520702e-03 -1.28076016e-03
      7.59776607e-02 -1.06581002e-02 3.03996336e-02 -1.75552384e-03
      2.09259503e-02 3.62295732e-02 5.63746393e-02 -9.26009438e-04
      -3.39527577e-02 1.38872499e-02 3.36147211e-02 -9.64714709e-05
      -5.70014641e-02 -1.31774833e-02 1.19607812e-02 2.66580930e-04
      -3.70631344e-03 4.00779024e-02 1.64353177e-02 -1.37301057e-03
      -7.18401652e-03 -1.51858805e-02 -1.07100755e-02 -1.42627698e-03
      -2.37284992e-02 3.77523154e-02 5.97803108e-02 -9.59674595e-04
      8.04692581e-02 -3.18698660e-02 2.40341555e-02 -3.33953230e-03
      -1.04411971e-02 4.25870493e-02 7.50771910e-02 5.03651216e-04
      7.31907738e-03 1.28461476e-02 4.24377657e-02 -6.96618459e-04
      -5.47604300e-02 8.93584162e-04 2.11995225e-02 5.16062311e-04
      -8.13404750e-03 2.19602957e-02 3.60288918e-02 -7.01130251e-04
      2.01836266e-02 1.08826682e-01 1.79802682e-02 4.43962403e-02
      -3.13364454e-02 5.15376441e-02 3.36123221e-02 1.94785651e-02
      4.53198748e-03</_>
    <_>
      3.53637673e-02 1.78894568e-02 1.36433514e-02 -5.07670688e-04
      -1.56032359e-02 2.70283222e-02 5.52194891e-04 -2.47843680e-04
      3.83635634e-03 4.04359102e-02 -2.40202062e-02 -1.64651065e-04
      -1.28003675e-02 1.33376438e-02 6.68519689e-03 -1.51711778e-04
      2.66819093e-02 -6.08568080e-03 1.04026813e-02 2.57590553e-04
      3.15097310e-02 -3.11228354e-02 3.84731330e-02 3.95504117e-04
      -2.14634910e-02 -4.18710895e-02 4.60412204e-02 -3.65344255e-04
      -2.11238395e-02 1.31310159e-02 -1.09830396e-02 -2.07599005e-04
      -1.32194012e-02 4.82026041e-02 -4.17515114e-02 3.28483839e-05
      -1.22095905e-02 4.78482656e-02 -4.10696119e-02 7.03408587e-05
      1.19867921e-02 -4.22826484e-02 3.91012244e-02 -3.28785100e-04
      -1.77501924e-02 -1.92372724e-02 8.36773019e-04 -4.81843725e-02
      4.05756495e-04 4.26774751e-03 -7.55275879e-03 2.81053392e-04
      3.99797782e-02 -2.35991087e-02 2.55220421e-02 -2.08756607e-03
      1.96906868e-02 4.78783017e-03 -1.01053352e-02 1.43048979e-04
      8.75821710e-03 2.82991379e-02 -1.93164647e-02 -7.64382712e-05
      3.91302109e-02 -2.91056801e-02 1.49156405e-02 6.57958328e-04
      2.12103929e-02 -2.74011176e-02 2.52427906e-02 5.52361889e-04
      3.60272340e-02 -1.49260284e-02 -2.48086127e-03 6.39353530e-04
      3.73939164e-02 6.94452785e-03 -2.51976643e-02 3.41632054e-04
      -2.08218745e-03 -4.24618348e-02 4.46266010e-02 -4.44359699e-04
      4.25090082e-03 -1.39189661e-02 2.01289970e-02 -1.68920102e-04
      3.23002646e-03 3.65664344e-03 2.89245113e-03 -6.37600169e-05
      3.21636572e-02 1.15500819e-02 1.97493378e-02 2.31409242e-04
      1.18786152e-02 -1.60786454e-02 2.27164049e-02 -1.89016690e-04
      1.27308760e-02 -4.12636623e-02 4.54205722e-02 -3.81227233e-04
      -3.22803631e-02 7.93057866e-03 1.66465028e-03 3.64622538e-04
      -3.03418282e-02 1.03970123e-02 5.34057990e-03 2.54292216e-04
      -3.42337675e-02 -5.84251713e-03 -9.42252018e-03 5.23150840e-04
      1.88131873e-02 5.85693587e-03 -5.31003438e-03 -1.17773237e-03
      5.33415889e-03 6.09120168e-03 -1.82780914e-03 -3.48461443e-04
      -1.00503424e-02 1.19482577e-02 -2.12946255e-03 4.58579161e-05
      -4.02831240e-03 4.87027923e-03 -7.89476000e-03 -1.46334132e-04
      9.98243317e-03 2.58253124e-02 2.26066038e-02 -2.62174435e-04
      1.19423596e-02 6.38584467e-03 3.84680741e-03 -3.90348403e-04
      9.50801373e-03 6.31843274e-03 -7.33522815e-04 -3.60912993e-04
      -1.95379209e-04 -1.19561981e-02 -1.86340846e-02 -9.66952430e-05
      -4.32088040e-02 -1.86295193e-02 -1.04389032e-02 6.62625418e-04
      -3.15384381e-02 7.01426202e-03 2.94320378e-03 3.89485765e-04
      -3.37803550e-03 -8.39717686e-03 -2.02069245e-02 -2.24910560e-04
      1.59154218e-02 1.16789655e-03 -9.75623075e-03 -8.35982501e-04
      6.54560840e-03 1.19042182e-02 8.77878256e-03 -4.86562145e-04
      -4.27661417e-03 8.69246665e-03 -1.01091117e-02 -1.48258696e-04
      2.22985353e-02 -1.63575877e-02 -1.57200340e-02 -7.77557201e-04
      2.57419348e-02 -3.90226394e-02 -4.75867242e-02 -6.84948638e-04
      -2.11598147e-02 -3.14528160e-02 -3.33570950e-02 3.79986857e-04
      2.27475073e-03 -5.73322363e-03 -9.11687501e-03 -3.07702161e-02
      3.11502963e-02 -1.79894846e-02 -2.73443554e-02 -3.90240625e-02
      3.04089934e-02</_>
    <_>
      -2.17070263e-02 1.61710866e-02 8.90862010e-03 2.29491867e-04
      1.25633832e-02 -1.48475007e-03 -1.45681505e-03 1.24204162e-04
      8.22403282e-03 9.69178276e-04 1.87521637e-03 7.75875960e-05
      8.81027523e-03 -3.41310957e-03 6.98201545e-03 9.88725733e-05
      9.51997750e-03 -5.00243157e-03 1.00473026e-02 1.06517218e-04
      6.12521358e-03 -2.03199030e-04 7.64748175e-03 5.52250312e-05
      9.74417757e-03 -7.28997681e-03 1.60069652e-02 7.19616583e-05
      7.26368558e-03 1.49510836e-03 8.00961070e-03 4.48495157e-05
      5.80496108e-03 5.86933782e-03 4.24728775e-03 3.50117007e-05
      -8.55430681e-03 1.68142430e-02 -1.29262749e-02 -1.03646507e-05
      -8.61052144e-03 1.15134083e-02 -9.74271726e-03 -2.67819141e-05
      7.83609692e-03 1.67537704e-02 -5.73870819e-03 7.31545806e-05
      5.88341709e-03 2.56168116e-02 1.57309417e-02 -1.10159403e-04
      2.04326995e-02 1.46445250e-02 1.67830233e-02 1.67314778e-04
      7.91705493e-03 -2.15097331e-03 2.09600851e-03 1.38006464e-04
      1.97166074e-02 9.39305034e-03 -1.26058785e-02 1.55726811e-04
      1.55734904e-02 1.28521807e-02 -1.12645840e-02 1.21461526e-04
      1.31317116e-02 -3.07203690e-03 4.53494443e-03 2.44018011e-04
      1.05053866e-02 -8.30134191e-03 7.12146703e-03 2.64028960e-04
      1.18852332e-02 -1.21775819e-02 6.32525561e-03 2.92377110e-04
      -4.82964655e-03 -8.34082998e-03 1.11794099e-02 -2.18378162e-04
      9.50024929e-03 -8.28987174e-03 1.77292805e-02 -3.59566402e-05
      4.81862202e-03 1.06840553e-02 -3.23015411e-04 4.39101932e-05
      -3.33296601e-04 -6.91928854e-03 7.46090058e-03 -1.43321289e-04
      -1.21268146e-02 -1.23839248e-02 2.98978854e-03 -3.30092793e-04
      -1.78157305e-03 -2.58034822e-02 2.36261599e-02 -3.80964688e-04
      -2.47678906e-02 -2.81834267e-02 -7.40983477e-03 7.51978834e-04
      -1.04476856e-02 5.85329114e-03 4.54846956e-03 1.73111039e-04
      5.05570730e-04 2.01085825e-02 1.14418101e-02 -1.61953649e-04
      8.07025656e-03 1.00557739e-02 1.85505289e-03 -1.89592785e-04
      1.07426930e-03 8.06194078e-03 -1.52849534e-03 1.41979472e-04
      3.61497258e-03 3.82977817e-03 -4.04513720e-03 1.31214592e-05
      1.95472091e-02 -3.50793861e-02 -2.05838028e-02 -7.40921008e-04
      5.20346593e-03 5.04681666e-04 -6.70207478e-03 -6.67517088e-05
      -1.01944571e-02 1.07022598e-02 1.03715144e-03 2.32004866e-04
      -8.76660459e-03 1.30605539e-02 5.52746933e-03 1.94659529e-04
      -1.37015423e-02 9.57883243e-03 5.25301555e-03 2.54001265e-04
      -2.33806577e-02 4.11422399e-04 4.25365753e-03 4.29878681e-04
      -1.61743388e-02 -2.11113356e-02 -1.09160095e-02 5.85391012e-04
      -7.33194826e-03 2.63011269e-03 -2.01444444e-03 2.28039993e-04
      -3.90932849e-03 4.33179317e-03 -3.35693778e-03 1.37488300e-04
      -6.88559981e-03 4.26652422e-03 -4.98496182e-03 2.21299255e-04
      2.09539831e-02 -2.19064057e-02 -1.23548172e-02 -6.33584161e-04
      -2.14600330e-03 1.47035625e-02 4.84006340e-03 1.81405470e-04
      -1.92005222e-03 7.15658814e-03 -4.74508328e-04 1.10346249e-04
      -1.35445007e-04 8.46360344e-03 1.53933500e-03 3.65940941e-05
      -3.25905457e-02 -3.36783119e-02 -2.19714940e-02 9.63832531e-03
      4.66103740e-02 -2.35858131e-02 -5.30598033e-03 6.06838986e-03
      -1.33064818e-02</_>
    <_>
      1.94936618e-02 1.72161646e-02 1.09503418e-02 -1.71249252e-04
      1.98555999e-02 -2.65434589e-02 8.01478606e-03 3.59775469e-04
      2.41276417e-02 -2.10626163e-02 7.45501695e-03 3.22733249e-04
      1.47571610e-02 -1.32457232e-02 1.17339352e-02 2.08084864e-04
      -1.36035010e-02 1.45274280e-02 -1.32897010e-04 -1.59538438e-04
      -2.12974399e-02 3.54419053e-02 -2.20577456e-02 -3.17524944e-04
      3.41173261e-02 2.37340927e-02 -9.25177429e-03 3.82651953e-04
      2.02749558e-02 1.31379536e-04 1.40052205e-02 1.22574289e-04
      1.55868838e-05 -1.43933704e-03 6.92310464e-03 -8.80042062e-05
      -1.73784811e-02 5.67785697e-03 -1.06587969e-02 -1.75106077e-04
      -1.87095422e-02 -7.01267365e-03 -6.11447403e-03 -2.61271518e-04
      -3.77842551e-03 2.66178809e-02 1.33485068e-03 1.06711686e-02
      2.00752039e-02 4.04429175e-02 2.26548407e-02 5.70819061e-03
      9.30239912e-03 6.60849735e-03 -1.31019601e-03 -6.31813673e-05
      -6.38850033e-03 1.22631271e-03 1.04528684e-02 2.93368321e-05
      -1.57593237e-03 -1.04685212e-02 1.67444330e-02 1.30110289e-04
      7.16540543e-03 -1.30627584e-02 1.55139649e-02 2.38081091e-04
      -9.46289860e-03 9.47848801e-03 3.61407804e-03 -1.18048403e-04
      -1.29199866e-02 1.98765416e-02 -1.08912354e-03 -2.23221723e-04
      -1.24511067e-02 3.24543170e-03 1.31863225e-02 -5.12068364e-05
      9.41794738e-03 4.01236117e-03 6.89771771e-03 3.12387715e-06
      1.08114453e-02 -1.11933919e-02 2.21441910e-02 -6.65951666e-05
      6.99884864e-03 -1.88340601e-02 2.46681217e-02 -1.97164845e-04
      -7.44154956e-03 1.23716202e-02 -9.52463876e-03 -7.17208677e-05
      1.10091995e-02 8.20869487e-03 5.81812253e-03 3.25097244e-05
      1.59017760e-02 4.11113165e-03 1.07333697e-02 4.78693837e-05
      -1.09900692e-02 -1.85563061e-02 -9.93284397e-03 5.08857949e-04
      2.24641102e-04 3.43340496e-03 -4.98891855e-03 8.94536570e-05
      9.08559770e-04 2.56589558e-02 1.31870704e-02 -4.60470881e-04
      7.50082219e-03 3.19686299e-03 -3.82758956e-03 -5.09874197e-04
      -4.06736834e-03 4.83106123e-03 -7.68606318e-04 5.73640173e-05
      5.51192975e-03 -3.73941963e-03 -1.94913743e-03 -2.87946983e-04
      1.36459330e-02 -4.22181748e-02 -2.38096081e-02 -8.79314437e-04
      8.35794897e-04 -1.68839023e-02 -2.07171068e-02 -2.21415728e-04
      -9.94986040e-04 -3.86691489e-03 -1.03945080e-02 4.13996077e-06
      8.75027291e-03 -3.58562358e-03 -1.09660672e-02 -1.30217391e-04
      1.08753256e-02 4.63618943e-03 -4.87414747e-03 -1.65661200e-04
      -9.28080175e-03 8.58707819e-03 4.68891207e-03 1.52717679e-04
      -1.70591660e-02 1.65956735e-03 6.90658065e-03 3.45165929e-04
      -2.03489931e-03 2.21870095e-02 1.30573902e-02 -1.42839956e-04
      5.00203017e-03 1.09823486e-02 3.78790242e-03 -2.80029024e-04
      -3.43916961e-03 8.42395797e-03 2.93403841e-03 -4.10587199e-05
      2.48697903e-02 -2.45171431e-02 -6.95900433e-03 -8.09843128e-04
      -1.80587685e-03 -4.67818882e-03 -1.16077475e-02 -3.02943117e-05
      8.67344160e-03 2.69554148e-04 -6.96670264e-03 -1.53471716e-04
      4.30230331e-03 5.50494110e-03 -3.45627172e-03 -6.66865453e-05
      -5.75619675e-02 -1.93214472e-02 -2.09795032e-02 6.96050702e-04
      3.60484421e-02 2.76398007e-02 5.29741123e-03 -1.08198654e-02
      -8.46457668e-03</_>
    <_>
      7.13496981e-03 1.48476595e-02 7.24052545e-03 -6.16637190e-05
      1.13690430e-02 4.53973049e-03 -5.26453601e-03 6.84450570e-05
      8.15016497e-03 1.19898012e-02 -7.58681819e-03 1.47512574e-05
      1.04002347e-02 7.79864471e-03 -4.38810000e-03 5.62401874e-05
      1.06996791e-02 1.28351627e-02 -7.86712114e-03 5.71418968e-05
      1.48481866e-02 1.24750650e-02 -7.26192165e-03 1.24311802e-04
      -1.17467539e-02 -1.42499898e-02 1.82952676e-02 -1.75010486e-04
      -1.64763927e-02 -3.40345106e-03 4.05418128e-03 -1.82696604e-04
      -2.16757096e-02 2.39014011e-02 -2.50228271e-02 -9.34825730e-05
      -2.53103338e-02 1.84786543e-02 -2.52036937e-02 -1.13939641e-04
      -7.25932373e-03 -1.72884520e-02 1.04494514e-02 -2.04029740e-04
      1.60370022e-02 3.65424044e-02 -2.42881733e-03 -1.22534449e-03
      4.64991154e-03 3.20946984e-02 2.26645879e-02 -3.38968472e-04
      6.73410576e-03 2.68104244e-02 1.06006227e-02 7.26203725e-04
      2.56136265e-02 1.19517474e-02 -2.01577749e-02 1.35205890e-04
      7.92012084e-03 2.75512245e-02 -1.90676972e-02 -1.02010235e-04
      1.27311226e-03 2.03713141e-02 -1.03093190e-02 -1.15820178e-04
      -1.83591302e-02 9.17333644e-03 8.00680928e-03 -3.24020715e-04
      7.56194536e-03 -1.13151502e-02 1.21695846e-02 2.17848894e-04
      2.30674520e-02 -5.69137279e-03 -5.35540236e-03 3.01356602e-04
      1.94859933e-02 -1.19006177e-02 2.55640913e-02 1.23897262e-04
      -3.96130653e-03 2.67073046e-03 1.55701709e-03 -7.52260385e-05
      -2.98649184e-02 1.02440780e-02 -2.11071521e-02 -2.28167817e-04
      -2.78302077e-02 -5.58167580e-04 -1.59665067e-02 -2.64787028e-04
      -2.68581212e-02 -1.80521198e-02 -2.78973323e-03 -4.79827839e-04
      -7.16240192e-03 -2.00686380e-02 1.60999894e-02 -3.50466638e-04
      -1.17682563e-02 -5.68988966e-03 -1.12386476e-02 3.01864900e-04
      8.39128625e-03 1.33781731e-02 -4.33372008e-03 -2.31520142e-04
      -7.96485040e-03 1.07526714e-02 5.73435752e-03 2.92079960e-04
      1.49781043e-02 2.39528646e-03 -6.64332137e-03 -5.05346863e-04
      1.03722662e-02 4.56638914e-03 -1.15765654e-03 -3.91354435e-04
      -1.09815281e-02 3.28799989e-03 -1.44973099e-02 2.00289156e-04
      -4.33022418e-04 -9.73703898e-03 -2.90306583e-02 -2.24785923e-04
      -5.99805091e-04 -1.19203900e-03 -1.41848084e-02 -8.00288603e-07
      8.74552131e-03 -1.44459065e-02 -2.14232933e-02 -1.46871665e-04
      1.00563215e-02 3.13859037e-03 -5.34550520e-03 -1.07974389e-04
      -6.39398908e-03 -1.18839638e-02 -1.69295687e-02 2.11079721e-04
      -1.40649723e-02 -3.30339908e-03 -4.40405216e-03 3.07833921e-04
      -1.63242631e-02 -3.82371759e-03 -4.94992267e-03 3.81584541e-04
      -4.65580029e-03 -5.37760847e-04 -6.73726248e-03 1.49958170e-04
      1.10765807e-02 1.98428892e-03 -7.14215543e-03 -2.97088991e-04
      1.35172019e-02 -2.47497461e-03 -7.39121251e-03 -3.75689240e-04
      4.57877386e-03 -1.75400486e-03 -2.03478262e-02 -1.76234898e-04
      1.89743023e-02 4.97353263e-03 -1.71690466e-04 -3.55474127e-04
      8.11652187e-03 -7.09524052e-03 -1.54556865e-02 -1.11572212e-04
      -2.76551791e-03 -4.03440977e-03 -1.00600179e-02 1.62519456e-04
      -1.81140490e-02 -2.65218653e-02 -5.76223014e-03 -1.60662103e-02
      1.68724917e-02 -2.78504267e-02 -1.54498750e-02 -9.36138909e-03
      -2.99253166e-02</_>
    <_>
      4.39435132e-02 -1.11721726e-02 -9.74803977e-03 -5.23320341e-04
      -2.95189470e-02 -3.11346184e-02 3.56129892e-02 3.45837652e-05
      3.47918202e-03 -6.64893240e-02 4.22205664e-02 3.84999963e-04
      6.29336387e-03 -4.38007340e-02 2.86325105e-02 2.47087766e-04
      1.21394778e-03 -5.01909247e-03 -1.40978210e-03 4.18153904e-05
      4.36727749e-03 3.21455933e-02 -3.82658876e-02 2.26520588e-05
      5.12472019e-02 5.14948219e-02 -4.76600640e-02 6.88244356e-04
      2.09054034e-02 -1.15282759e-02 1.12503897e-02 1.51735338e-04
      1.04470234e-02 -2.07075384e-02 1.73587557e-02 -1.55126290e-05
      3.13661597e-03 -3.12255975e-02 2.22354010e-02 -1.48526291e-04
      1.62977427e-02 -1.77156106e-02 2.15718132e-02 -3.43782267e-05
      -1.71384625e-02 -5.18125761e-03 6.04861137e-03 -2.61570681e-02
      -3.21241980e-03 1.45743098e-02 2.26950720e-02 -1.15294859e-03
      -5.02403313e-03 -3.73112340e-03 -1.56157166e-02 4.39582014e-04
      -8.29114299e-03 9.21702664e-03 -6.19471492e-03 -1.50135136e-04
      -4.91961185e-03 -3.07292305e-02 1.96966361e-02 2.14042157e-04
      -1.73755176e-02 -2.99013592e-02 2.77385470e-02 6.71746093e-05
      -3.66187003e-03 1.53702023e-02 -1.85072646e-02 -1.16299503e-04
      -1.34083452e-02 2.25513652e-02 -1.66263115e-02 -3.42646643e-04
      -2.76669022e-02 2.70563252e-02 -5.15198056e-03 -5.11999766e-04
      -1.59895921e-03 1.74956955e-02 -1.97250117e-02 1.43606216e-04
      -4.44760686e-03 -8.90510995e-03 5.80046733e-04 -1.32842863e-04
      1.91946732e-04 -1.80170797e-02 9.42488667e-03 -1.74217334e-04
      1.91697273e-02 2.58922670e-02 -5.44367963e-03 3.48281930e-04
      2.36896165e-02 2.77322400e-02 -4.41949442e-03 4.65334044e-04
      1.78774353e-02 3.13871950e-02 -1.65725984e-02 5.13398263e-04
      1.75285116e-02 2.39525102e-02 1.60425378e-04 -5.91359683e-04
      1.89105459e-02 3.85186379e-03 -1.12733822e-02 -5.68532909e-04
      -7.10176583e-03 9.60715988e-04 4.67114523e-03 -1.38203075e-04
      1.02134552e-02 -2.18609907e-02 -1.88377108e-02 -4.75258537e-04
      -9.78400744e-03 2.70033558e-03 4.88867750e-03 6.35599601e-04
      -2.21575741e-02 7.89781567e-03 -2.05452973e-03 7.68512662e-04
      1.58661343e-02 -7.96473306e-03 6.00771047e-03 -2.56481173e-04
      -2.92491298e-02 -1.07087074e-02 -1.20122209e-02 3.06328526e-04
      -1.65507514e-02 1.73931904e-02 2.04323772e-02 2.70533463e-04
      -7.81866070e-03 -2.07905439e-04 4.81537310e-03 -2.73628102e-05
      -8.09426140e-03 2.22816132e-02 2.53963433e-02 -1.13231552e-04
      1.75191928e-02 2.10986808e-02 1.11087058e-02 -5.49608085e-04
      3.86971608e-03 2.20821109e-02 9.79125407e-03 -4.38853429e-04
      9.17847175e-03 1.30179035e-03 4.07768617e-04 -3.96756339e-04
      -1.75023470e-02 6.13964070e-03 1.18966745e-02 3.18380567e-04
      -1.64273269e-02 -7.11897295e-03 -2.84967385e-03 2.66296876e-04
      8.15008488e-03 1.74744613e-03 1.00570600e-02 -5.81896202e-05
      -4.04635817e-02 -1.40191959e-02 -1.54550364e-02 7.47981714e-04
      -1.37432180e-02 -2.93675549e-02 -2.35279817e-02 1.36030110e-04
      3.69258378e-05 -1.56519059e-02 -1.31843453e-02 -1.25909122e-04
      -3.25880237e-02 1.73604991e-02 9.24474210e-04 -4.02353853e-02
      -9.62763559e-03 4.61984165e-02 1.81306731e-02 -9.46564972e-02
      9.44086164e-03</_>
    <_>
      -1.09386742e-02 3.88793787e-03 1.82988297e-03 -2.59338703e-05
      -2.74319015e-02 3.25514819e-03 9.10302158e-03 -9.34952841e-05
      -1.88782979e-02 9.35764425e-03 -2.67816964e-03 -7.93047730e-05
      -7.05615571e-03 -1.93080201e-03 7.06793042e-04 5.34673636e-05
      1.95876462e-03 1.08517287e-02 -1.29304454e-02 1.00867961e-04
      1.87716465e-02 8.44329502e-03 -1.10952584e-02 3.23433924e-04
      -1.86969209e-02 -1.18864467e-02 1.39863687e-02 -7.38782110e-05
      -8.61126650e-03 -6.45286404e-03 1.10297156e-02 2.37257136e-05
      -1.68674241e-03 -2.03164207e-04 9.15991422e-03 9.22220570e-05
      4.69281059e-03 2.49807374e-03 1.22211566e-02 1.26467858e-04
      1.67654373e-03 -3.65328812e-03 1.57453883e-02 5.20749381e-05
      2.57629505e-03 -1.31758186e-03 -8.11910350e-03 -1.79758202e-02
      3.40420054e-04 2.93103559e-03 2.29136203e-03 -3.24683817e-04
      3.15496814e-03 -1.41497143e-02 1.00786788e-02 -1.43122487e-03
      5.77992294e-03 3.11752968e-03 -1.40136601e-02 1.24351689e-04
      -4.09666402e-03 1.21370405e-02 -1.26641486e-02 -1.29976897e-05
      -5.77977067e-03 4.54203878e-03 -5.50099649e-03 4.44865072e-05
      -7.73709314e-03 4.10134904e-03 -4.02936386e-03 4.03482445e-05
      -3.67766107e-03 -2.12071999e-03 -1.96287525e-03 1.30672037e-04
      -1.73336908e-03 1.05959410e-03 -6.89736428e-03 9.68001477e-05
      -1.16427140e-02 1.30557735e-03 2.15565227e-03 5.24999159e-05
      -7.35986279e-03 -2.37744907e-03 8.16022046e-03 6.99889933e-05
      -1.03658158e-02 8.16560537e-03 -9.55176947e-04 1.08541280e-04
      -9.88336839e-03 1.15848042e-03 4.84127179e-03 3.09458446e-05
      -1.24325948e-02 -1.05723236e-02 9.97238886e-03 -1.20047291e-04
      -4.15338716e-03 -2.05681194e-03 1.00322859e-02 8.41025976e-05
      6.19913568e-04 7.36778788e-03 -7.63767911e-03 -2.32512903e-04
      1.06170978e-02 1.19157946e-02 -5.38322143e-03 -5.48189215e-04
      1.03099621e-04 1.56205648e-03 -4.13275883e-03 -3.03295150e-04
      8.18033237e-03 4.89847989e-05 -3.93969240e-03 -4.94035485e-04
      5.63397398e-03 -1.34147250e-03 -1.73123041e-03 -4.13939066e-04
      -3.60855204e-03 7.72579154e-03 3.85761075e-03 -4.90729435e-05
      8.84952303e-03 6.61122613e-03 8.45598709e-03 -2.71630910e-04
      -4.15924285e-03 -1.46705396e-02 -1.61232799e-02 -2.26761578e-04
      8.02364759e-03 -1.95862632e-02 -2.01965887e-02 -3.85680323e-04
      2.02043797e-03 -1.92668103e-02 -2.26268321e-02 -2.23213137e-04
      7.97865260e-03 -2.43363343e-02 -3.03455368e-02 -2.36694730e-04
      1.06075266e-02 -1.09030725e-02 -2.21144725e-02 -2.62226036e-04
      -1.38361333e-03 8.25177785e-03 -3.72827472e-03 -2.21211041e-04
      4.64305887e-03 4.08812892e-03 -2.31713452e-03 -3.47844558e-04
      1.05134654e-03 3.93356616e-03 8.35847575e-04 -2.50588375e-04
      -3.44838249e-03 5.26071340e-03 3.58595070e-03 -1.19698125e-04
      3.63742257e-03 -1.05462978e-02 -1.04842260e-02 -3.47307941e-04
      2.70134513e-03 -2.05116645e-02 -2.06501409e-02 -3.99523211e-04
      -7.94926367e-04 -2.00305153e-02 -2.31416486e-02 -2.16625369e-04
      4.08840459e-03 -2.61656493e-02 -3.15841436e-02 -1.74164685e-04
      -1.46982668e-03 2.19699834e-03 6.05413783e-03 -3.01496629e-02
      2.36000563e-03 -1.86577179e-02 -2.26347111e-02 -2.40564626e-02
      1.93696152e-02</_>
    <_>
      -4.35517877e-02 9.54549760e-03 4.40298533e-03 4.32131987e-04
      -7.26375729e-03 2.34307745e-03 1.00443391e-02 -5.76510938e-05
      -7.37286825e-03 9.14385729e-03 3.62859620e-03 -1.00329475e-04
      -5.91049250e-03 8.74793902e-03 1.57190766e-03 -9.57676166e-05
      -1.20000786e-03 1.41601020e-03 5.18573308e-03 -3.93678492e-05
      1.55388890e-02 -1.37145771e-02 1.64289363e-02 1.51269662e-04
      -2.90686730e-02 -6.26386702e-03 6.60386775e-03 -3.45085136e-04
      -1.94193050e-02 7.07470626e-03 -8.70000571e-03 -1.80921867e-04
      -6.53595664e-03 1.08448099e-02 -9.39940847e-03 -3.61961138e-05
      8.10296461e-03 8.90579633e-03 -7.90666905e-04 6.10253701e-05
      1.69374384e-02 -1.12543693e-02 2.02539042e-02 -3.61068464e-06
      1.52657658e-03 -7.11177289e-03 4.54242760e-03 -5.81933791e-03
      8.21769796e-03 -1.16952434e-02 -1.39861535e-02 -1.99050573e-03
      6.12359820e-03 -2.03208551e-02 1.98868383e-03 -1.35043520e-03
      -2.19648681e-03 -1.03172846e-03 8.90915934e-03 -1.30055232e-05
      -2.82665528e-03 1.30169103e-02 -2.08681356e-03 -1.28510379e-04
      -5.59043279e-03 1.71257692e-04 9.08845104e-03 -8.95921839e-05
      3.52573721e-03 -7.78611284e-03 1.19504146e-02 5.89282790e-05
      -3.87835479e-03 -1.12335356e-02 1.77509487e-02 2.85322240e-05
      4.77907900e-03 -6.67963689e-03 7.88453221e-03 9.61469414e-05
      1.34602434e-03 -1.63073074e-02 1.86492801e-02 -1.36839910e-04
      -2.92437617e-03 6.75219018e-03 -5.10044349e-03 -4.28366329e-05
      -8.02120951e-04 3.58014577e-03 -2.09041522e-03 -2.54066290e-05
      1.09539591e-02 -1.62235238e-02 1.94457024e-02 -9.06868881e-05
      -2.73671490e-03 -1.89595465e-02 1.23417573e-02 -2.44323863e-04
      -4.28558281e-03 -1.77107826e-02 1.41178146e-02 -2.52061320e-04
      -4.69487277e-04 -1.73975306e-03 -2.38790968e-03 1.87984973e-04
      4.58584493e-03 1.93191785e-02 1.14575662e-02 -2.25869851e-04
      2.91938242e-03 1.11055458e-02 5.87951345e-03 -8.70195290e-05
      5.09953452e-03 1.42138060e-02 8.94789863e-03 -7.80964328e-05
      4.26742597e-04 1.40982326e-02 6.43010717e-03 2.64183298e-04
      -9.14202724e-03 3.53458989e-03 -9.66406055e-03 1.77600610e-04
      -4.62861033e-03 -1.02330949e-02 -1.86831262e-02 -1.29212567e-04
      1.49284932e-03 -2.64958781e-03 -9.60586406e-03 2.34980416e-06
      3.94969340e-03 -5.66092692e-03 -1.10682854e-02 -2.60999750e-05
      7.34665198e-03 -8.49595573e-03 -1.36789028e-02 -4.35898946e-05
      7.44264806e-03 -9.42429807e-03 -1.46887405e-02 1.98731504e-06
      2.59287492e-03 -1.01935829e-03 -4.85914573e-03 6.62248058e-05
      -3.63190752e-03 -8.11043009e-03 -5.74979419e-03 3.23096174e-04
      8.98930361e-04 9.66793450e-04 -2.82725203e-03 1.21212783e-04
      7.65247317e-03 8.00625701e-03 2.39301240e-03 -1.30380024e-04
      -2.57668085e-03 -1.80593692e-04 -6.96470356e-03 1.15415067e-04
      -3.22499848e-03 -1.16179595e-02 -1.96183212e-02 -1.44470439e-04
      1.39977559e-02 -1.13745369e-02 -1.45871984e-02 -2.53680570e-04
      1.41621623e-02 -1.06794406e-02 -1.58931725e-02 -1.90109218e-04
      6.54496066e-03 -1.42476447e-02 -1.91594735e-02 4.80197923e-05
      9.03341267e-03 -4.37163952e-04 3.50764696e-03 -2.24872287e-02
      -2.59897183e-03 -2.26545203e-02 -2.03938931e-02 -1.79467276e-02
      2.00688094e-02</_></support_vectors>
  <uncompressed_sv_total>123</uncompressed_sv_total>
  <uncompressed_support_vectors>
    <_>
      1.07535027e+02 1.87088226e+02 9.36775436e+01 1.51741660e+00
      1.53729649e+01 1.61681175e+01 1.16552986e+02 -2.41561127e+00
      2.76031799e+01 2.72624016e+00 1.17741035e+02 -2.26065540e+00
      4.73684196e+01 7.57288933e-01 1.07948868e+02 -2.10721540e+00
      6.67550201e+01 1.74176443e+00 9.85292587e+01 -1.94245374e+00
      8.68610382e+01 8.82241535e+00 8.61597290e+01 -1.75375509e+00
      1.18439987e+02 8.36804199e+00 8.66479645e+01 -1.38621342e+00
      1.38583862e+02 3.44566441e+00 9.70418091e+01 -1.19021749e+00
      1.58538437e+02 0. 1.09026009e+02 -1.03135955e+00 1.77735703e+02
      2.46118903e+00 1.18114166e+02 -8.80634606e-01 1.89700867e+02
      1.45020828e+01 1.17665619e+02 -7.36570418e-01 8.25066299e+01
      1.01325256e+02 2.14885731e+01 2.77106643e+00 1.04468002e+02
      1.05641800e+02 1.22508450e+01 1.41250730e+00 1.23135178e+02
      1.00530106e+02 2.17506847e+01 3.26980352e-01 3.39644089e+01
      3.50624771e+01 9.01237564e+01 -2.43545008e+00 4.65354042e+01
      3.06702003e+01 8.41979675e+01 -2.29844713e+00 6.14918594e+01
      3.10867100e+01 7.47370300e+01 -2.15219474e+00 7.40249939e+01
      3.86974640e+01 6.18149261e+01 -2.05019617e+00 6.14539948e+01
      4.30897369e+01 6.50649719e+01 -2.25417137e+00 4.64975395e+01
      4.26732292e+01 7.56852570e+01 -2.40450120e+00 1.31086716e+02
      3.85081406e+01 6.20003929e+01 -1.09226322e+00 1.44036346e+02
      3.11624393e+01 7.49244690e+01 -9.83774900e-01 1.57516098e+02
      3.13896255e+01 8.29812622e+01 -8.46579194e-01 1.68951157e+02
      3.58576279e+01 8.79692078e+01 -7.15185761e-01 1.58954941e+02
      4.35819778e+01 7.53605194e+01 -7.24785566e-01 1.43998489e+02
      4.31654663e+01 6.52462234e+01 -8.82188141e-01 7.22453613e+01
      1.34532379e+02 5.09668121e+01 2.20723963e+00 8.22415771e+01
      1.26808029e+02 3.89665108e+01 2.11863184e+00 9.33358612e+01
      1.22226433e+02 3.01219997e+01 1.88121760e+00 1.02006813e+02
      1.24839073e+02 3.12994537e+01 1.58773363e+00 1.12911774e+02
      1.21734192e+02 3.00386124e+01 1.21814835e+00 1.24346840e+02
      1.26202194e+02 3.92711487e+01 9.81991470e-01 1.34115860e+02
      1.31957596e+02 4.97275124e+01 8.82736325e-01 1.25217720e+02
      1.42824692e+02 5.42493668e+01 1.13946104e+00 1.14123436e+02
      1.47406281e+02 5.50942917e+01 1.35891104e+00 1.04884514e+02
      1.49223785e+02 5.57291336e+01 1.52865875e+00 9.43582001e+01
      1.49375244e+02 5.64269981e+01 1.71625209e+00 8.27338104e+01
      1.46383942e+02 5.64288139e+01 1.92937064e+00 7.66754990e+01
      1.35100342e+02 4.89462242e+01 2.12746859e+00 9.34873123e+01
      1.32752747e+02 4.02394371e+01 1.79763043e+00 1.02347595e+02
      1.33888672e+02 4.03450089e+01 1.57548892e+00 1.11586517e+02
      1.32071182e+02 3.95756340e+01 1.34008920e+00 1.29496399e+02
      1.32866333e+02 4.76765289e+01 9.69797432e-01 1.14161301e+02
      1.35403259e+02 4.34432297e+01 1.29991949e+00 1.03634987e+02
      1.35554718e+02 4.20249519e+01 1.54466438e+00 9.45853806e+01
      1.35895493e+02 4.30913734e+01 1.75638723e+00 1.02218880e+02
      1.06581856e+02 9.53994370e+01 1.53281336e+01 5.72752762e+01
      1.22769585e+01 1.95821056e+01 2.10548115e+00 2.57006721e+01</_>
    <_>
      1.11974373e+02 1.82539047e+02 9.17911377e+01 1.46413815e+00
      1.24148979e+01 1.78614330e+01 1.15976662e+02 -2.45622754e+00
      2.77533035e+01 6.52783346e+00 1.12800079e+02 -2.29163027e+00
      4.80176201e+01 4.44533443e+00 1.02344795e+02 -2.12873197e+00
      6.99639587e+01 7.00840998e+00 9.02178955e+01 -1.93621731e+00
      8.89066849e+01 1.43372049e+01 7.80728149e+01 -1.74193239e+00
      1.23227875e+02 1.18942728e+01 8.21126709e+01 -1.31185901e+00
      1.40248291e+02 5.20624733e+00 9.40976028e+01 -1.15455985e+00
      1.60432526e+02 0. 1.08262848e+02 -1.00290394e+00 1.79215057e+02
      1.08129752e+00 1.18595230e+02 -8.64038050e-01 1.91990387e+02
      1.16940327e+01 1.19975403e+02 -7.25173116e-01 8.63836594e+01
      9.87985611e+01 1.75193195e+01 2.69737005e+00 1.08450142e+02
      1.06047256e+02 1.60440845e+01 1.17082095e+00 1.26992393e+02
      9.77573090e+01 2.56246548e+01 2.55971402e-01 3.47216644e+01
      3.44813766e+01 8.81962357e+01 -2.44202876e+00 4.86583900e+01
      2.94353218e+01 8.17952042e+01 -2.28446770e+00 6.27152596e+01
      2.90748901e+01 7.36710663e+01 -2.13648319e+00 7.54505386e+01
      3.81257515e+01 5.94973564e+01 -2.03715324e+00 6.14337196e+01
      4.00480576e+01 6.54655914e+01 -2.24305320e+00 4.73768539e+01
      4.04084892e+01 7.47844391e+01 -2.39369106e+00 1.33239883e+02
      3.66439743e+01 6.28272324e+01 -1.05410123e+00 1.45494598e+02
      2.69523430e+01 7.75299454e+01 -9.78352487e-01 1.59511414e+02
      2.50300369e+01 8.75897522e+01 -8.57557893e-01 1.72126556e+02
      2.93952751e+01 9.33690262e+01 -7.24398255e-01 1.61353622e+02
      3.59231071e+01 8.10065689e+01 -7.52182007e-01 1.47336807e+02
      3.78454132e+01 6.99373169e+01 -8.69312763e-01 6.67601089e+01
      1.25871048e+02 4.95321960e+01 2.36820078e+00 8.06567917e+01
      1.19263115e+02 3.53251343e+01 2.22676849e+00 9.62354813e+01
      1.17300758e+02 2.67064095e+01 1.79613400e+00 1.08810570e+02
      1.20104126e+02 2.95820713e+01 1.34551954e+00 1.19663597e+02
      1.16700043e+02 3.08479500e+01 9.69110727e-01 1.33760513e+02
      1.17901482e+02 4.12935867e+01 7.00947046e-01 1.46375656e+02
      1.22266724e+02 5.39636993e+01 6.11881137e-01 1.35963150e+02
      1.42851425e+02 6.16479073e+01 9.91262019e-01 1.22146576e+02
      1.52583099e+02 6.44756927e+01 1.25631332e+00 1.11253502e+02
      1.54425308e+02 6.38010292e+01 1.42845547e+00 9.87184601e+01
      1.53183823e+02 6.20122528e+01 1.62701130e+00 8.12975540e+01
      1.44253098e+02 5.69586029e+01 1.94660234e+00 7.30076065e+01
      1.25710854e+02 4.51503639e+01 2.27393866e+00 9.64357224e+01
      1.25110130e+02 3.43284760e+01 1.73958898e+00 1.08970764e+02
      1.26351624e+02 3.57289963e+01 1.38021529e+00 1.19823792e+02
      1.22947540e+02 3.62491570e+01 1.06316125e+00 1.40128159e+02
      1.22426910e+02 4.90828590e+01 6.87738836e-01 1.21826195e+02
      1.40088104e+02 5.26149940e+01 1.18859386e+00 1.09371246e+02
      1.41970367e+02 5.12051201e+01 1.43033719e+00 9.83980789e+01
      1.40688828e+02 4.95655365e+01 1.64763021e+00 9.63753815e+01
      9.68428268e+01 8.76330948e+01 2.78175201e+01 7.34488373e+01
      1.10477486e+01 2.49982014e+01 1.56238756e+01 2.12507687e+01</_>
    <_>
      1.02645500e+02 2.20059814e+02 1.10174156e+02 1.51961792e+00
      5.93512774e+00 2.05198994e+01 1.27697182e+02 -2.36485672e+00
      1.88175755e+01 6.90131140e+00 1.29419754e+02 -2.21952343e+00
      4.03036575e+01 4.64688301e+00 1.19670906e+02 -2.06445122e+00
      6.03634682e+01 1.07200365e+01 1.05855453e+02 -1.92430186e+00
      7.88589859e+01 2.01518288e+01 9.16924591e+01 -1.77006161e+00
      1.06970322e+02 1.77133656e+01 9.28523712e+01 -1.46331286e+00
      1.26570045e+02 7.22337246e+00 1.06972023e+02 -1.29081297e+00
      1.47918106e+02 0. 1.21236435e+02 -1.13744760e+00 1.71152512e+02
      1.01219237e+00 1.31841034e+02 -9.73550439e-01 1.88083740e+02
      1.38026228e+01 1.32492340e+02 -8.12902868e-01 7.30618820e+01
      1.09822868e+02 2.39484444e+01 -3.13294744e+00 9.63883133e+01
      1.14147690e+02 4.16436291e+00 1.72050571e+00 1.17782379e+02
      1.08580627e+02 2.08234425e+01 -6.96545765e-02 2.47527027e+01
      4.15458946e+01 9.95544815e+01 -2.38299417e+00 3.78191872e+01
      3.45525665e+01 9.59182663e+01 -2.23583603e+00 5.27720261e+01
      3.57947998e+01 8.64164276e+01 -2.10820270e+00 6.79089050e+01
      4.36622963e+01 7.24672394e+01 -1.98402476e+00 5.31400948e+01
      4.90453186e+01 7.51241531e+01 -2.19439197e+00 3.65769501e+01
      4.95054054e+01 8.55295258e+01 -2.35543370e+00 1.24223602e+02
      4.20979996e+01 7.31802902e+01 -1.18976462e+00 1.38854385e+02
      3.17460308e+01 8.87657852e+01 -1.07990909e+00 1.53761215e+02
      3.13319530e+01 9.70264511e+01 -9.46026742e-01 1.68806076e+02
      3.58868179e+01 1.03208313e+02 -8.01474988e-01 1.57441910e+02
      4.44904518e+01 8.91487808e+01 -8.25916529e-01 1.40878769e+02
      4.49505424e+01 7.84846649e+01 -9.77672219e-01 6.07775459e+01
      1.44973541e+02 5.03369370e+01 2.37429214e+00 7.21877136e+01
      1.38026230e+02 3.74153900e+01 2.29616213e+00 8.53002090e+01
      1.32689209e+02 2.55058823e+01 2.04775500e+00 9.53301163e+01
      1.35725784e+02 2.57506981e+01 1.63605714e+00 1.06832298e+02
      1.32091095e+02 2.41492214e+01 1.15189493e+00 1.23533470e+02
      1.36599960e+02 3.75432053e+01 7.86264718e-01 1.40280655e+02
      1.42765121e+02 5.42585793e+01 6.47656083e-01 1.25971931e+02
      1.64711288e+02 6.18779526e+01 1.08370388e+00 1.09730850e+02
      1.76765579e+02 6.79373627e+01 1.38243222e+00 9.81826553e+01
      1.78743958e+02 6.87240677e+01 1.55372405e+00 8.81987610e+01
      1.77363693e+02 6.79077911e+01 1.70090783e+00 7.29698639e+01
      1.66183578e+02 6.10830193e+01 1.97529256e+00 6.74488144e+01
      1.46445831e+02 4.69036179e+01 2.25266075e+00 8.72785797e+01
      1.44237411e+02 3.55646248e+01 1.84794092e+00 9.72164688e+01
      1.43961349e+02 3.39320793e+01 1.56469476e+00 1.07108353e+02
      1.42028992e+02 3.35548706e+01 1.26508951e+00 1.32045090e+02
      1.44651489e+02 4.92559738e+01 7.79453695e-01 1.09224754e+02
      1.58546127e+02 5.00303650e+01 1.32414484e+00 9.76765594e+01
      1.60524506e+02 5.04990005e+01 1.55758524e+00 8.76926651e+01
      1.59144241e+02 4.99901962e+01 1.75826442e+00 1.10619492e+02
      1.09522003e+02 9.84877396e+01 2.61987362e+01 7.12682648e+01
      1.36635895e+01 2.81682110e+01 1.65695362e+01 2.86034546e+01</_>
    <_>
      1.04545456e+02 2.04545456e+02 1.02317612e+02 1.54117537e+00
      1.66666660e+01 1.81818180e+01 1.19459389e+02 -2.36067867e+00
      2.87878780e+01 4.54545450e+00 1.21819031e+02 -2.21056604e+00
      4.84848480e+01 1.51515150e+00 1.13860886e+02 -2.05527425e+00
      6.66666641e+01 6.06060600e+00 1.02328827e+02 -1.91830230e+00
      8.48484879e+01 1.51515150e+01 8.87010880e+01 -1.75981688e+00
      1.16666664e+02 1.36363640e+01 8.99220428e+01 -1.40149260e+00
      1.34848480e+02 4.54545450e+00 1.03255661e+02 -1.24208534e+00
      1.54545456e+02 0. 1.15203835e+02 -1.09244394e+00 1.74242432e+02
      4.54545450e+00 1.21819031e+02 -9.31026518e-01 1.86363632e+02
      1.96969700e+01 1.18397728e+02 -7.71824360e-01 8.18181839e+01
      1.09090912e+02 2.08436623e+01 2.80834842e+00 1.01515152e+02
      1.13636360e+02 1.13636360e+01 1.57079637e+00 1.21212120e+02
      1.09090912e+02 2.08436623e+01 3.33244294e-01 3.78787880e+01
      3.78787880e+01 9.05326767e+01 -2.35027742e+00 4.84848480e+01
      3.03030300e+01 8.93971481e+01 -2.20582294e+00 6.21212120e+01
      3.18181820e+01 8.07200470e+01 -2.08062959e+00 7.42424240e+01
      4.39393921e+01 6.43939362e+01 -2.00813413e+00 6.21212120e+01
      4.69696960e+01 6.78992462e+01 -2.18974876e+00 4.69696960e+01
      4.54545441e+01 7.87623825e+01 -2.33578920e+00 1.27272728e+02
      4.54545441e+01 6.23839607e+01 -1.14517391e+00 1.37878784e+02
      3.18181820e+01 7.92852859e+01 -1.09432888e+00 1.51515152e+02
      3.03030300e+01 8.76335373e+01 -9.63611424e-01 1.63636368e+02
      3.93939400e+01 8.83899689e+01 -7.91458666e-01 1.54545456e+02
      4.54545441e+01 7.77207718e+01 -8.19867253e-01 1.40909088e+02
      4.69696960e+01 6.78992462e+01 -9.51843858e-01 6.51515121e+01
      1.43939392e+02 5.53030319e+01 2.28833771e+00 7.87878799e+01
      1.31818176e+02 3.72754974e+01 2.22649193e+00 9.09090881e+01
      1.24242424e+02 2.43958206e+01 2.02055597e+00 1.01515152e+02
      1.27272728e+02 25. 1.57079637e+00 1.12121216e+02 1.24242424e+02
      2.43958206e+01 1.12103677e+00 1.24242424e+02 1.33333328e+02
      3.84875336e+01 9.39105690e-01 1.36363632e+02 1.45454544e+02
      5.54895172e+01 8.91791046e-01 1.24242424e+02 1.53030304e+02
      5.56134911e+01 1.14980578e+00 1.12121216e+02 1.57575760e+02
      5.63108673e+01 1.38131618e+00 1.01515152e+02 1.57575760e+02
      5.53030319e+01 1.57079637e+00 9.09090881e+01 1.57575760e+02
      5.63108673e+01 1.76027644e+00 7.87878799e+01 1.53030304e+02
      5.56134911e+01 1.99178696e+00 7.27272720e+01 1.43939392e+02
      5.06443787e+01 2.17539501e+00 9.09090881e+01 1.39393936e+02
      3.86066437e+01 1.84909594e+00 1.01515152e+02 1.39393936e+02
      3.71212120e+01 1.57079637e+00 1.12121216e+02 1.39393936e+02
      3.86066437e+01 1.29249668e+00 1.28787872e+02 1.43939392e+02
      4.97987213e+01 9.91232336e-01 1.12121216e+02 1.40909088e+02
      4.00656586e+01 1.30288589e+00 1.01515152e+02 1.40909088e+02
      3.86363640e+01 1.57079637e+00 9.09090881e+01 1.40909088e+02
      4.00656586e+01 1.83870673e+00 1.09510979e+02 1.09510979e+02
      1.00149109e+02 1.51515150e+01 6.36363640e+01 1.54515743e+01
      2.12121220e+01 1.51515150e+00 2.44310837e+01</_>
    <_>
      9.90850220e+01 2.22628876e+02 1.11505013e+02 1.62927008e+00
      2.07542953e+01 1.84333858e+01 1.25801140e+02 -2.31102180e+00
      3.42334290e+01 4.32939053e+00 1.28604782e+02 -2.15908766e+00
      5.44967651e+01 0. 1.22485062e+02 -2.00119352e+00 7.40906067e+01
      3.25820136e+00 1.12557022e+02 -1.85454285e+00 9.46663666e+01
      1.27203751e+01 9.91986160e+01 -1.68125474e+00 1.26802055e+02
      1.24972105e+01 1.01065872e+02 -1.35945618e+00 1.47199280e+02
      6.65030146e+00 1.12627541e+02 -1.19249761e+00 1.67060928e+02
      6.87346554e+00 1.21182449e+02 -1.03890419e+00 1.85985275e+02
      1.77192593e+01 1.23375931e+02 -8.61189067e-01 1.90448563e+02
      3.64650764e+01 1.13143555e+02 -7.22874939e-01 8.52488251e+01
      1.02120064e+02 2.23330441e+01 -2.71728063e+00 1.07342110e+02
      1.11716133e+02 1.78643119e+00 2.26798847e-01 1.27873245e+02
      1.04351707e+02 2.33348103e+01 -3.02998960e-01 4.05266685e+01
      3.70006714e+01 9.87788467e+01 -2.29000878e+00 5.32024117e+01
      3.20017853e+01 9.50586853e+01 -2.15463185e+00 6.68600769e+01
      3.32068748e+01 8.71876373e+01 -2.03123879e+00 7.84646301e+01
      4.03481369e+01 7.59777756e+01 -1.93603003e+00 6.59227829e+01
      4.38295021e+01 7.82854462e+01 -2.10231805e+00 5.22651176e+01
      4.26244125e+01 8.69659805e+01 -2.23102927e+00 1.33095291e+02
      4.51684875e+01 7.16323853e+01 -1.17686796e+00 1.47422455e+02
      3.87859840e+01 8.37220078e+01 -1.04774892e+00 1.61080109e+02
      3.99910736e+01 9.03598785e+01 -9.09709811e-01 1.71301056e+02
      4.54809189e+01 9.30080261e+01 -7.86416173e-01 1.61660339e+02
      5.07476006e+01 8.25284424e+01 -8.24031830e-01 1.46485153e+02
      4.94086151e+01 7.41876678e+01 -9.87132072e-01 7.06092377e+01
      1.46708328e+02 4.97712822e+01 2.35048747e+00 8.09194412e+01
      1.33854050e+02 3.34250603e+01 2.40153193e+00 9.51127014e+01
      1.28989059e+02 2.05525150e+01 2.10637426e+00 1.05601425e+02
      1.31443878e+02 2.01294346e+01 1.57079637e+00 1.16491852e+02
      1.29346130e+02 2.10652122e+01 1.02746987e+00 1.27962509e+02
      1.38004913e+02 3.48195229e+01 8.73432100e-01 1.34345016e+02
      1.52332062e+02 5.00863228e+01 9.59559321e-01 1.25820129e+02
      1.62285202e+02 5.48344307e+01 1.19316173e+00 1.16045525e+02
      1.69069397e+02 5.86916962e+01 1.39189506e+00 1.03771477e+02
      1.69515732e+02 5.82300568e+01 1.60222769e+00 9.48002701e+01
      1.67194824e+02 5.69146919e+01 1.76173246e+00 8.00267792e+01
      1.61303284e+02 5.61511078e+01 2.04368639e+00 7.81968307e+01
      1.47377823e+02 4.52943611e+01 2.22060394e+00 9.58268280e+01
      1.38228073e+02 2.86336632e+01 1.91916776e+00 1.04931938e+02
      1.39031464e+02 2.77251110e+01 1.59494627e+00 1.15554565e+02
      1.39968750e+02 3.03337250e+01 1.23648250e+00 1.26891319e+02
      1.50145050e+02 4.42840424e+01 1.06927776e+00 1.15866997e+02
      1.53760315e+02 4.36696091e+01 1.33350217e+00 1.04976570e+02
      1.55858063e+02 4.45480118e+01 1.58482349e+00 9.44878387e+01
      1.53403259e+02 4.35313759e+01 1.82895505e+00 1.13061562e+02
      1.13757332e+02 1.05688065e+02 2.37964916e+01 5.63869095e+01
      1.07721653e+01 2.74637413e+01 1.68266602e+01 3.36533203e+01</_>
    <_>
      1.04954842e+02 1.87649506e+02 9.39310150e+01 1.52322555e+00
      1.21552353e+01 2.01122780e+01 1.15048836e+02 -2.44617534e+00
      2.42128391e+01 5.66268015e+00 1.16578194e+02 -2.28403258e+00
      4.28118134e+01 3.90529662e-01 1.09802162e+02 -2.12383485e+00
      6.31681709e+01 1.31803763e+00 9.97510605e+01 -1.95425618e+00
      8.21576767e+01 8.54283619e+00 8.72296448e+01 -1.78251505e+00
      1.15010986e+02 9.07981491e+00 8.59803238e+01 -1.40107405e+00
      1.35123260e+02 2.19672942e+00 9.79555206e+01 -1.20940089e+00
      1.55381989e+02 0. 1.08703339e+02 -1.04142892e+00 1.75884796e+02
      5.61386395e+00 1.16042290e+02 -8.63561749e-01 1.88821091e+02
      1.92824020e+01 1.15582298e+02 -7.00930059e-01 7.86917267e+01
      9.77788620e+01 2.21521931e+01 2.96213341e+00 1.00659019e+02
      1.00219673e+02 6.39720535e+00 1.54408514e+00 1.20917747e+02
      9.80229416e+01 2.08564777e+01 2.02674374e-01 3.29021225e+01
      3.35367355e+01 9.05677490e+01 -2.41320467e+00 4.53014412e+01
      3.00219669e+01 8.43585739e+01 -2.28391027e+00 5.93605080e+01
      2.95826206e+01 7.62793198e+01 -2.14024973e+00 6.89773026e+01
      3.71003189e+01 6.48890991e+01 -2.07785821e+00 5.81401024e+01
      4.05662689e+01 6.80428085e+01 -2.24256802e+00 4.40810356e+01
      4.10056152e+01 7.72762909e+01 -2.38903189e+00 1.29948746e+02
      3.67586021e+01 6.42220459e+01 -1.09423089e+00 1.40688309e+02
      3.01684151e+01 7.52873230e+01 -1.00752330e+00 1.54747375e+02
      2.97290707e+01 8.39780807e+01 -8.68317544e-01 1.67341965e+02
      3.24627762e+01 9.07453690e+01 -7.42591679e-01 1.56651215e+02
      4.06150856e+01 7.73663788e+01 -7.58401811e-01 1.42592148e+02
      4.10544319e+01 6.75089035e+01 -8.97354066e-01 7.05394211e+01
      1.37124725e+02 5.26480293e+01 2.17590117e+00 8.11325378e+01
      1.25848183e+02 3.74184494e+01 2.11445999e+00 9.18721008e+01
      1.19257996e+02 2.68530521e+01 1.89743328e+00 1.01342445e+02
      1.22089333e+02 2.82774906e+01 1.54058099e+00 1.10617523e+02
      1.18672195e+02 2.68328114e+01 1.18370223e+00 1.24969490e+02
      1.27605568e+02 4.17190475e+01 9.43677604e-01 1.33121796e+02
      1.38296310e+02 5.51604385e+01 9.37738240e-01 1.24090797e+02
      1.49524048e+02 6.04937630e+01 1.16998398e+00 1.11691483e+02
      1.53038803e+02 6.02645760e+01 1.38380635e+00 1.02318771e+02
      1.53331711e+02 5.95351067e+01 1.54004312e+00 9.28972397e+01
      1.52062485e+02 5.87303658e+01 1.70040929e+00 8.18647766e+01
      1.49279968e+02 5.84988098e+01 1.89478993e+00 7.67390747e+01
      1.35367340e+02 4.78519173e+01 2.09013224e+00 9.23114471e+01
      1.33317062e+02 4.03299065e+01 1.77495742e+00 1.01684158e+02
      1.33024170e+02 3.92176552e+01 1.54029524e+00 1.11056870e+02
      1.32731262e+02 4.03164330e+01 1.30555320e+00 1.26775688e+02
      1.35367340e+02 4.91611748e+01 1.00661838e+00 1.11056870e+02
      1.32731262e+02 4.03164330e+01 1.30555320e+00 1.01732979e+02
      1.34586288e+02 4.07805367e+01 1.54026687e+00 9.23114471e+01
      1.33317062e+02 4.03299065e+01 1.77495742e+00 1.11228401e+02
      1.10213600e+02 9.96941833e+01 1.34444122e+01 5.62637215e+01
      1.10512390e+01 2.34432182e+01 1.56288123e+00 2.98588028e+01</_>
    <_>
      1.00775192e+02 1.87596893e+02 9.38016510e+01 1.56253207e+00
      1.24031010e+01 2.17054272e+01 1.13448761e+02 -2.45297861e+00
      2.32558136e+01 6.20155048e+00 1.16459808e+02 -2.29025245e+00
      4.49612389e+01 0. 1.08753914e+02 -2.10143614e+00 6.51162796e+01
      3.10077524e+00 9.71748047e+01 -1.93797016e+00 8.52713165e+01
      1.08527136e+01 8.42432709e+01 -1.74653459e+00 1.13178291e+02
      1.08527136e+01 8.39860840e+01 -1.41323471e+00 1.34883728e+02
      3.10077524e+00 9.71748047e+01 -1.20362246e+00 1.56589142e+02
      1.55038762e+00 1.08222160e+02 -1.02054918e+00 1.76744186e+02
      7.75193787e+00 1.15298187e+02 -8.42478931e-01 1.87596893e+02
      2.32558136e+01 1.12469910e+02 -6.77970231e-01 7.75193787e+01
      9.76744156e+01 2.28123093e+01 2.97085738e+00 9.76744156e+01
      9.92248077e+01 5.90369987e+00 1.97568810e+00 1.19379845e+02
      9.76744156e+01 1.97636414e+01 1.97395563e-01 3.25581398e+01
      3.25581398e+01 9.10976410e+01 -2.40435004e+00 4.49612389e+01
      2.94573650e+01 8.46701889e+01 -2.27842951e+00 5.89147301e+01
      2.94573650e+01 7.63398666e+01 -2.13908315e+00 7.13178329e+01
      3.87596893e+01 6.20639343e+01 -2.05120206e+00 5.89147301e+01
      4.18604660e+01 6.62235107e+01 -2.24005294e+00 4.34108543e+01
      4.03100777e+01 7.78674393e+01 -2.38435602e+00 1.27131783e+02
      3.87596893e+01 6.13628464e+01 -1.11279833e+00 1.39534882e+02
      3.10077515e+01 7.42002640e+01 -1.00887477e+00 1.53488373e+02
      3.10077515e+01 8.24844055e+01 -8.65228176e-01 1.65891479e+02
      3.56589165e+01 8.78742981e+01 -7.22979367e-01 1.53488373e+02
      4.18604660e+01 7.45557556e+01 -7.70693362e-01 1.39534882e+02
      4.34108543e+01 6.40462112e+01 -9.05506909e-01 6.51162796e+01
      1.36434113e+02 5.50878716e+01 2.25652575e+00 7.75193787e+01
      1.24031006e+02 3.76747360e+01 2.21018219e+00 8.83720932e+01
      1.16279068e+02 2.53098106e+01 2.04814172e+00 9.92248077e+01
      1.20930229e+02 2.71428547e+01 1.59935999e+00 1.10077522e+02
      1.17829460e+02 2.60585060e+01 1.17371690e+00 1.22480621e+02
      1.25581398e+02 3.89298592e+01 9.55176413e-01 1.31782944e+02
      1.37984497e+02 5.44294243e+01 9.47235584e-01 1.22480621e+02
      1.45736435e+02 5.65944557e+01 1.16230738e+00 1.10077522e+02
      1.47286819e+02 5.44294243e+01 1.38457346e+00 9.92248077e+01
      1.48837204e+02 5.50442200e+01 1.58487988e+00 8.83720932e+01
      1.47286819e+02 5.47376862e+01 1.78485703e+00 7.75193787e+01
      1.45736435e+02 5.65944557e+01 1.97928524e+00 7.13178329e+01
      1.34883728e+02 5.01065521e+01 2.18025494e+00 8.83720932e+01
      1.30232559e+02 3.82446404e+01 1.87972713e+00 9.92248077e+01
      1.30232559e+02 3.64423561e+01 1.59206975e+00 1.08527130e+02
      1.30232559e+02 3.74186630e+01 1.34089196e+00 1.25581398e+02
      1.34883728e+02 4.83984222e+01 1.01389480e+00 1.10077522e+02
      1.30232559e+02 3.78021240e+01 1.30094719e+00 9.92248077e+01
      1.31782944e+02 3.79924049e+01 1.59120166e+00 8.99224777e+01
      1.30232559e+02 3.78021240e+01 1.84064543e+00 1.07860634e+02
      1.08858849e+02 9.85441742e+01 1.38670883e+01 6.04849892e+01
      1.08527136e+01 2.17054272e+01 1.55038762e+00 2.80787144e+01</_>
    <_>
      100. 1.88732391e+02 9.47438278e+01 1.48148239e+00 7.04225349e+00
      1.26760559e+01 1.17536034e+02 -2.37314200e+00 1.97183094e+01 0.
      1.18594559e+02 -2.22142315e+00 3.94366188e+01 0. 1.07799400e+02
      -2.07535672e+00 5.77464790e+01 4.22535229e+00 9.62704620e+01
      -1.92956698e+00 7.74647903e+01 1.26760559e+01 8.28954315e+01
      -1.74153149e+00 100. 1.26760559e+01 8.21260834e+01 -1.46771467e+00
      1.21126762e+02 5.63380289e+00 9.35321579e+01 -1.24904573e+00
      1.40845078e+02 1.40845072e+00 1.05219849e+02 -1.08320117e+00
      1.60563385e+02 0. 1.16909889e+02 -9.39342856e-01 1.76056335e+02
      9.85915470e+00 1.19511002e+02 -7.85398185e-01 7.18309860e+01
      9.43661957e+01 1.97183094e+01 3.14159274e+00 9.15492935e+01
      9.85915527e+01 4.22535229e+00 1.57079637e+00 1.14084511e+02
      9.57746506e+01 2.25791817e+01 6.24188110e-02 2.81690140e+01
      2.95774651e+01 9.06346512e+01 -2.34520602e+00 4.08450699e+01
      2.67605629e+01 8.45070419e+01 -2.21429753e+00 5.35211258e+01
      2.67605629e+01 7.75671539e+01 -2.08318567e+00 6.47887344e+01
      3.38028183e+01 6.62121658e+01 -1.98686087e+00 5.35211258e+01
      3.66197166e+01 6.91433105e+01 -2.15314937e+00 4.08450699e+01
      3.66197166e+01 7.68477325e+01 -2.29135036e+00 1.18309860e+02
      3.52112694e+01 6.49263687e+01 -1.14596415e+00 1.29577469e+02
      2.81690140e+01 7.63427048e+01 -1.04936194e+00 1.43661972e+02
      2.81690140e+01 8.42484283e+01 -9.03888106e-01 1.54929581e+02
      3.09859161e+01 8.96332550e+01 -7.85398185e-01 1.43661972e+02
      3.80281677e+01 7.67444077e+01 -8.24339509e-01 1.29577469e+02
      3.80281677e+01 6.79714279e+01 -9.77046669e-01 6.47887344e+01
      1.30985916e+02 4.53556099e+01 2.20187569e+00 7.18309860e+01
      1.21126762e+02 3.32406311e+01 2.20582294e+00 8.45070419e+01
      1.16901405e+02 2.36099358e+01 1.87368119e+00 9.29577484e+01
      1.19718307e+02 2.53912067e+01 1.51529777e+00 1.02816902e+02
      1.16901405e+02 2.51951313e+01 1.10714877e+00 1.18309860e+02
      1.23943665e+02 3.98867683e+01 8.35356534e-01 1.28169022e+02
      1.40845078e+02 5.91716957e+01 9.03490186e-01 1.16901405e+02
      1.52112671e+02 6.30665169e+01 1.15710711e+00 1.02816902e+02
      1.59154922e+02 6.57612228e+01 1.39860547e+00 9.29577484e+01
      1.57746475e+02 6.33959274e+01 1.54857779e+00 8.30985947e+01
      1.56338028e+02 6.25453606e+01 1.70632398e+00 7.18309860e+01
      1.47887329e+02 5.70379066e+01 1.92378676e+00 7.04225388e+01
      1.32394363e+02 4.35026627e+01 2.07789493e+00 8.45070419e+01
      1.26760567e+02 3.31509933e+01 1.78485703e+00 9.29577484e+01
      1.28169022e+02 3.38321457e+01 1.52915370e+00 1.02816902e+02
      1.26760567e+02 3.42980156e+01 1.23605955e+00 1.22535210e+02
      1.38028168e+02 5.35396576e+01 9.53604937e-01 1.02816902e+02
      1.42253525e+02 4.91950684e+01 1.33970571e+00 9.29577484e+01
      1.43661972e+02 4.93158913e+01 1.54223263e+00 8.30985947e+01
      1.40845078e+02 4.72408714e+01 1.75064981e+00 1.13071487e+02
      1.07817795e+02 9.73564453e+01 2.27105846e+01 5.81743011e+01
      9.85915470e+00 2.67605629e+01 1.54929581e+01 2.84841518e+01</_>
    <_>
      1.05528984e+02 2.04208908e+02 1.02341660e+02 1.50269866e+00
      1.42337866e+01 2.13889427e+01 1.16733765e+02 -2.37809896e+00
      2.58274345e+01 7.65257311e+00 1.19213814e+02 -2.22703981e+00
      4.66424332e+01 4.13238955e+00 1.10880539e+02 -2.05813503e+00
      6.46642456e+01 8.14999008e+00 9.98834991e+01 -1.91707993e+00
      8.28008423e+01 1.66443462e+01 8.69019165e+01 -1.75320959e+00
      1.11115364e+02 1.44251003e+01 8.85730057e+01 -1.42862439e+00
      1.30285065e+02 4.97417259e+00 1.02178497e+02 -1.25514436e+00
      1.49569550e+02 0. 1.14134872e+02 -1.10752356e+00 1.69083603e+02
      3.97933817e+00 1.20836220e+02 -9.47657287e-01 1.82896500e+02
      1.85574894e+01 1.18709198e+02 -7.80725837e-01 8.06963806e+01
      1.09278748e+02 1.92552052e+01 2.75979471e+00 1.00210449e+02
      1.13258080e+02 1.12743244e+01 1.42433965e+00 1.19494926e+02
      1.08283913e+02 2.18229618e+01 2.87090391e-01 3.71149788e+01
      4.02142715e+01 8.72153549e+01 -2.35262704e+00 4.73311653e+01
      3.09929218e+01 8.76457138e+01 -2.19513106e+00 6.07996941e+01
      3.21408081e+01 7.95056076e+01 -2.06576443e+00 7.15898209e+01
      4.53032341e+01 6.28812141e+01 -2.01416898e+00 5.97283325e+01
      4.85938416e+01 6.61187134e+01 -2.19861412e+00 4.62598038e+01
      4.74459534e+01 7.56531601e+01 -2.33419847e+00 1.25349152e+02
      4.54180222e+01 6.26955757e+01 -1.12939453e+00 1.35412277e+02
      3.02276649e+01 8.07711868e+01 -1.09708548e+00 1.48842545e+02
      2.98832989e+01 8.79983749e+01 -9.62652922e-01 1.61010147e+02
      3.85307045e+01 8.91122894e+01 -7.94354975e-01 1.52209686e+02
      4.47292900e+01 7.85470963e+01 -8.18988860e-01 1.37325424e+02
      4.66041718e+01 6.76952133e+01 -9.61158514e-01 6.81461639e+01
      1.43944901e+02 5.17294579e+01 2.19942951e+00 7.97398148e+01
      1.30208527e+02 3.38264999e+01 2.16099501e+00 9.00325241e+01
      1.23971687e+02 2.34729900e+01 1.94282711e+00 9.90625610e+01
      1.26726608e+02 2.46271782e+01 1.55059707e+00 1.09431793e+02
      1.23474266e+02 2.39740067e+01 1.10036790e+00 1.23053375e+02
      1.30591156e+02 3.75654869e+01 8.60733807e-01 1.35335754e+02
      1.43715317e+02 5.55296516e+01 8.47072363e-01 1.23589058e+02
      1.51482681e+02 5.53570747e+01 1.10173917e+00 1.13219818e+02
      1.54735031e+02 5.46327438e+01 1.29923093e+00 1.01281807e+02
      1.55041138e+02 5.30063362e+01 1.51952219e+00 9.07977829e+01
      1.53816727e+02 5.22923508e+01 1.71988523e+00 8.02754898e+01
      1.51100052e+02 5.22979927e+01 1.92806840e+00 7.56074219e+01
      1.43753586e+02 4.75574074e+01 2.07457352e+00 9.19074020e+01
      1.38855942e+02 3.73496590e+01 1.75000846e+00 1.00860916e+02
      1.38626358e+02 3.65939903e+01 1.50801873e+00 1.11306679e+02
      1.38358521e+02 3.84279060e+01 1.23282933e+00 1.27874496e+02
      1.43906631e+02 5.10535088e+01 9.59302902e-01 1.11306679e+02
      1.38358521e+02 3.84279060e+01 1.23282933e+00 1.00860916e+02
      1.38626358e+02 3.65939903e+01 1.50801873e+00 9.19074020e+01
      1.38855942e+02 3.73496590e+01 1.75000846e+00 1.08272705e+02
      1.08272705e+02 9.89497833e+01 1.49274225e+01 5.97283478e+01
      1.52230434e+01 2.08983917e+01 0. 2.25892887e+01</_>
    <_>
      1.04218781e+02 1.80156876e+02 9.00816727e+01 1.56232393e+00
      1.72143307e+01 1.27623491e+01 1.15824577e+02 -2.41070938e+00
      3.27750702e+01 2.50159001e+00 1.12540840e+02 -2.24983239e+00
      5.27029877e+01 0. 1.03392220e+02 -2.08388948e+00 7.25037079e+01
      2.07759166e+00 9.32854080e+01 -1.90900481e+00 9.06084366e+01
      1.02183590e+01 8.08868484e+01 -1.73030043e+00 1.22747513e+02
      8.05596733e+00 8.42606888e+01 -1.33979213e+00 1.42717834e+02
      4.02798367e+00 9.45843811e+01 -1.14274049e+00 1.61119354e+02
      1.48399401e+00 1.05707550e+02 -9.93807375e-01 1.79393677e+02
      3.51918602e+00 1.15148163e+02 -8.50667357e-01 1.89696838e+02
      1.75535297e+01 1.12682816e+02 -6.99218750e-01 8.35700684e+01
      9.86220093e+01 2.16431618e+01 2.73580050e+00 1.06381172e+02
      1.02310791e+02 1.25773401e+01 1.33603811e+00 1.27835487e+02
      9.98516006e+01 2.62658386e+01 3.81255776e-01 3.94742432e+01
      3.62942543e+01 8.35843964e+01 -2.44256783e+00 5.32965851e+01
      3.36230659e+01 7.55190964e+01 -2.29720545e+00 6.70341339e+01
      3.40046654e+01 6.68639679e+01 -2.14683914e+00 7.90756836e+01
      4.04494400e+01 5.52939186e+01 -2.02741385e+00 6.67797318e+01
      4.31630287e+01 5.95497627e+01 -2.23430610e+00 5.30421867e+01
