<?xml version="1.0"?>
<opencv_storage>
<opencv_ml_svm>
  <format>3</format>
  <svmType>C_SVC</svmType>
  <kernel>
    <type>LINEAR</type></kernel>
  <C>2.7300000000000000e+00</C>
  <term_criteria><epsilon>1.1920928955078125e-07</epsilon>
    <iterations>1000</iterations></term_criteria>
  <var_count>193</var_count>
  <class_count>5</class_count>
  <class_labels type_id="opencv-matrix">
    <rows>5</rows>
    <cols>1</cols>
    <dt>i</dt>
    <data>
      0 1 2 3 4</data></class_labels>
  <sv_total>10</sv_total>
  <support_vectors>
    <_>
      -2.69171572e-03 -5.84487617e-03 -3.15870461e-03 6.43960957e-05
      -8.27647687e-04 1.15790069e-02 -7.53382035e-03 -1.08099433e-04
      -1.62116461e-03 7.11836573e-03 -5.32339420e-03 -8.35699902e-05
      1.59577560e-03 6.31888455e-04 -2.54149386e-03 -2.59104636e-05
      6.54106308e-03 3.35216243e-03 -7.12890364e-03 1.65121073e-05
      1.38224699e-02 6.55993214e-03 -1.10637276e-02 1.14885319e-04
      -1.97403766e-02 1.08154137e-02 -1.74928401e-02 -2.28801480e-04
      -1.33160977e-02 6.29937369e-03 -1.43084824e-02 -1.22111174e-04
      -4.44396399e-03 -3.10373493e-04 -6.00592047e-03 -4.70235391e-05
      4.76110959e-03 2.09945277e-03 -3.15553695e-03 3.68700203e-05
      6.73905760e-03 1.15393624e-02 -7.65389483e-03 1.06414926e-04
      1.21161435e-03 -5.15349023e-03 3.21449875e-03 8.26461148e-03
      2.87391688e-03 -5.43434732e-03 2.53096712e-03 -2.02659029e-03
      5.95938927e-03 -5.76171000e-03 4.39989846e-03 1.96406600e-05
      -3.49554321e-04 1.13428896e-03 -8.29357130e-04 -4.32002234e-05
      -1.29842851e-03 1.00517645e-03 -8.35243787e-04 -5.52989804e-05
      8.76968377e-04 -3.96911008e-03 1.87210774e-03 -3.77745801e-06
      -1.82989141e-04 -2.38613877e-03 7.01869372e-04 -3.29642062e-05
      -6.83107821e-04 2.28189732e-04 -7.49219151e-04 -5.44558534e-05
      -9.88912419e-04 6.66958149e-05 7.78142348e-05 -4.59549083e-05
      5.07299090e-03 -5.58354240e-03 3.25575960e-03 5.74959631e-06
      9.19503364e-05 -5.23716025e-03 5.36353677e-04 -5.45273288e-05
      4.12016455e-03 -4.89774812e-03 2.15662573e-03 -1.15443281e-05
      6.97287079e-03 -1.90216524e-03 1.76523242e-03 2.71980280e-05
      6.19793357e-03 -3.69700254e-03 2.59532291e-03 1.30530043e-05
      2.12420337e-03 -2.93306354e-03 -4.92101884e-04 -2.09746831e-05
      1.26990220e-02 1.98323876e-02 1.29440019e-03 -5.16913133e-04
      4.53113904e-03 6.23921771e-03 3.75580508e-03 -3.34123790e-04
      5.90556720e-03 -6.65822113e-03 -1.13113003e-03 5.24121569e-05
      2.05175881e-03 -6.67719450e-03 -3.92224453e-03 1.68222410e-04
      -4.37513832e-03 -7.41276983e-03 -7.53633212e-03 -3.19354149e-06
      -4.33469284e-03 1.83169253e-03 -4.52344120e-03 2.31978687e-04
      -5.29937074e-03 1.80214234e-02 1.68490573e-03 4.40598524e-04
      -3.06281610e-03 1.02910362e-02 5.62623423e-03 2.92361103e-04
      -1.93174696e-03 -1.24601682e-03 -8.59029824e-05 1.26067986e-04
      4.18061810e-03 -5.61272819e-03 -2.68131820e-03 -2.97518800e-05
      6.32989779e-03 -1.52351148e-03 7.91891129e-04 -9.30474780e-05
      7.36314710e-03 5.74526098e-03 3.93180735e-03 -2.19069916e-04
      1.43238967e-02 1.55209685e-02 -7.38664356e-04 -5.13118342e-04
      4.20822296e-03 2.09416053e-03 5.41824987e-03 -8.89893927e-05
      1.65256893e-03 -2.07511592e-03 7.23091885e-04 9.56178119e-05
      -2.09964672e-03 1.08450640e-03 9.94603033e-04 2.20151196e-04
      -5.55427512e-03 1.54202087e-02 1.48604601e-03 4.45146899e-04
      -1.86028692e-03 -7.77509343e-03 -6.74746837e-03 1.02423706e-04
      3.44181410e-03 -9.97961313e-03 -7.00912019e-03 -1.59006686e-05
      4.00014780e-03 -7.73421815e-03 -4.30543302e-03 -6.31449666e-06
      2.19700076e-02 2.08754353e-02 2.06814539e-02 -9.11738351e-03
      -1.83786172e-02 1.24913035e-03 -6.73187897e-04 -7.78097939e-03
      3.44296964e-03</_>
    <_>
      4.36258465e-02 1.20111206e-03 -2.68884003e-02 2.01525341e-04
      4.67314981e-02 -2.14353707e-02 -2.58586537e-02 7.81541108e-04
      1.13669895e-02 1.96496937e-02 -3.02522536e-02 2.70460907e-04
      -3.78709193e-03 -5.21766655e-02 4.01285626e-02 4.51094442e-04
      -3.12530696e-02 3.72746661e-02 -3.19765322e-02 -2.30366335e-04
      5.09422459e-02 3.86407855e-03 -1.81905162e-02 8.46494164e-04
      -8.00427645e-02 1.59081742e-02 -1.19575430e-02 -4.33913199e-04
      -1.14248670e-03 7.23992214e-02 -5.77516332e-02 6.40530081e-04
      1.84343569e-02 -6.58959849e-03 2.56661829e-02 4.82490083e-04
      1.26037200e-03 -9.56607983e-03 1.86609123e-02 3.32858413e-04
      -9.35987756e-03 -6.93793967e-03 5.81300491e-03 3.21576023e-04
      -2.81948633e-02 9.88020748e-03 2.49190461e-02 3.23947743e-02
      -1.66119803e-02 -3.31487954e-02 3.06824408e-03 5.99054471e-02
      5.05281705e-03 5.65661909e-03 -1.13954730e-02 2.02731066e-03
      -6.36387467e-02 2.21137442e-02 2.63054334e-02 -2.46866432e-04
      9.11624264e-03 5.24119586e-02 -5.22111095e-02 2.13295774e-04
      -2.53964923e-02 -2.12919731e-02 2.86144745e-02 2.72646517e-04
      8.34049359e-02 -1.56228896e-02 -1.00615006e-02 1.21201354e-03
      2.34594997e-02 -4.39761914e-02 3.02676857e-02 5.41512039e-04
      1.33300023e-02 -3.65186832e-03 3.41131323e-04 2.35908767e-04
      -1.95149854e-02 -5.25597520e-02 3.57441306e-02 -2.97773513e-04
      -6.86125830e-03 -4.13310193e-02 2.59865597e-02 -2.83072994e-04
      4.42836434e-02 3.60651501e-02 3.07129638e-04 1.01372635e-03
      9.15767550e-02 7.21921101e-02 3.02232131e-02 2.03267694e-03
      -2.57780775e-02 -1.44556735e-03 -3.48149733e-05 7.18273339e-04
      -2.28215773e-02 -3.60358022e-02 1.58520732e-02 2.29452809e-04
      -1.26298405e-02 1.57933813e-02 2.52375305e-02 5.11320133e-04
      1.25857424e-02 -8.53332411e-03 3.92515445e-03 7.59447576e-04
      3.65265757e-02 4.10435945e-02 4.21167053e-02 9.24046210e-04
      3.56212957e-03 1.85785554e-02 6.09703966e-05 1.21646747e-03
      -4.45653088e-02 1.89993065e-02 1.75802670e-02 -3.42896587e-04
      -5.72285205e-02 -4.95665660e-03 -1.91572290e-02 1.39805512e-03
      -2.59513938e-04 3.55899483e-02 3.95830013e-02 6.99181634e-04
      -1.21222306e-02 -4.46268264e-03 -2.45776847e-02 5.31840604e-04
      -1.24423075e-02 -4.32580523e-03 -2.55142469e-02 6.36384357e-04
      1.92234498e-02 3.54682212e-03 -1.90406479e-02 6.37380945e-05
      2.22444721e-02 1.18747735e-02 -1.11430511e-02 4.05058527e-05
      -4.83818389e-02 -2.81452443e-02 -1.48542840e-02 2.00765347e-03
      1.96534535e-03 -3.07036173e-02 -2.45031677e-02 1.22394168e-03
      1.38026495e-02 -1.05223544e-02 -2.32832693e-02 1.26429775e-03
      1.81810334e-02 6.24536956e-03 -1.53911952e-02 5.00408642e-05
      -3.70253902e-03 3.50206217e-04 -3.67843453e-03 -2.47959193e-04
      -3.83608346e-03 -1.58159435e-02 -7.62111181e-03 5.95065540e-05
      -5.63038420e-03 2.92034820e-02 1.51524935e-02 3.31325253e-04
      4.73031253e-02 4.10614796e-02 2.42474880e-02 -1.36864756e-03
      -2.26791315e-02 -9.19948798e-03 -1.13028158e-02 1.99334091e-03
      -1.50741730e-02 -1.50288576e-02 -3.28390044e-03 -1.02513668e-03
      -1.77148194e-03 -4.06241380e-02 -2.67444514e-02 7.65074268e-02
      1.34677696e-03</_>
    <_>
      5.44766225e-02 1.25766834e-02 7.48378597e-03 -6.30658353e-04
      -6.64319703e-03 2.84671932e-02 -1.98133741e-04 -2.64696515e-04
      -1.05397170e-02 -1.70050394e-02 3.14003229e-02 -7.38269637e-06
      -7.68757379e-03 -1.95958577e-02 3.10005229e-02 1.06468815e-05
      -9.34144575e-03 1.26127247e-02 8.68909352e-04 -1.74535744e-04
      -1.60500892e-02 5.05095795e-02 -3.93580236e-02 -3.39348917e-04
      -3.07793543e-02 5.08576892e-02 -4.78469990e-02 -4.33993293e-04
      -1.86863802e-02 2.85625495e-02 -2.93760207e-02 -2.02613475e-04
      -2.43852641e-02 -5.12713520e-03 -5.15779760e-03 -3.40045750e-04
      -6.20817579e-03 -5.44365915e-03 2.55077169e-03 -1.44341248e-04
      1.56718250e-02 1.91642046e-02 2.23175506e-03 1.73644512e-04
      -2.12593935e-02 -2.63384115e-02 5.23280352e-02 -3.27417487e-03
      -1.22718466e-02 -2.18027625e-02 4.80459817e-02 -3.14582735e-02
      -6.15728321e-03 -2.94942688e-02 1.40024675e-02 -1.24244508e-03
      -1.18283723e-02 1.96558125e-02 7.71739380e-03 -2.54445069e-04
      -7.86095951e-03 1.08128483e-03 1.36166010e-02 -7.62272830e-05
      -9.69918910e-03 -7.36163091e-03 1.85758397e-02 -7.08049920e-05
      -8.21499154e-03 1.69888213e-02 -2.40305206e-03 -3.84925166e-04
      -3.43815819e-03 -1.55960601e-02 2.72126514e-02 -8.21930080e-05
      4.96040471e-03 1.30260773e-02 3.10101989e-03 -1.63326826e-04
      9.42716002e-03 1.98295526e-02 -1.06557626e-02 2.52930418e-04
      2.43171472e-02 -4.77840798e-03 1.76585373e-02 1.46701772e-04
      1.54543798e-02 1.22623565e-02 1.95439532e-03 1.59109724e-04
      3.26053686e-02 2.10564192e-02 1.27158687e-02 3.68638808e-04
      2.19605640e-02 1.40377239e-03 2.03011893e-02 2.11225662e-04
      2.21324954e-02 -8.56426917e-03 2.39088126e-02 2.14847198e-04
      -7.37850508e-03 -3.18818390e-02 -1.02286516e-02 7.91707425e-04
      2.85608787e-02 2.10535042e-02 -2.45663431e-03 -9.32104769e-04
      1.63427368e-02 2.00116374e-02 1.33351665e-02 -1.03172811e-03
      -5.84218558e-03 2.38355179e-03 -2.13835598e-03 5.72612567e-04
      -1.49880173e-02 4.83874511e-03 -5.25550311e-03 8.80490232e-04
      -3.16317156e-02 -1.76696063e-04 -2.57084314e-02 7.59071729e-04
      -1.04983998e-02 -1.78128183e-02 -1.73311848e-02 -1.62624754e-04
      -1.81585830e-02 -9.97484941e-03 -2.46980693e-02 3.34975863e-04
      8.62274971e-03 -5.73549792e-03 -1.11730136e-02 -1.92163043e-06
      2.92435065e-02 -1.27651663e-02 -1.83760840e-02 -6.02743588e-04
      3.20609435e-02 3.67496442e-03 -8.59872159e-03 -7.98872090e-04
      2.86865942e-02 -1.69809386e-02 -3.06898970e-02 -3.29557573e-04
      8.29537865e-03 1.21859903e-03 -8.26240052e-04 4.83992808e-05
      1.45981340e-02 3.52412574e-02 2.73053441e-02 -6.36936049e-04
      -2.64953333e-03 1.63641889e-02 1.12879705e-02 1.87265920e-04
      -1.64988008e-03 1.33329779e-02 7.67884916e-03 1.85943733e-04
      -1.14747761e-02 -1.32716727e-02 -1.66944247e-02 -2.27102209e-05
      -7.40099419e-03 5.90888225e-03 -4.21104487e-03 6.10429968e-04
      1.81165207e-02 3.39330896e-03 -2.18741386e-03 -4.29184292e-04
      2.58783530e-02 7.82194920e-03 -4.36911546e-03 -9.97149618e-04
      -2.67679207e-02 -4.81528714e-02 -4.56777960e-02 1.79850794e-02
      -4.24194569e-03 -9.23410058e-03 -3.66202146e-02 5.93921281e-02
      2.27768514e-02</_>
    <_>
      3.94458836e-03 2.82656238e-03 1.75066513e-03 -2.23573606e-05
      2.96886865e-04 3.52707040e-03 -4.64395096e-04 -1.73053450e-05
      1.62030966e-03 6.95395283e-03 -4.44343546e-03 -2.73046771e-05
      3.15005775e-03 1.83039054e-03 -1.09390705e-03 1.22351557e-05
      4.44347179e-03 1.14744261e-03 -7.62490148e-04 3.23249114e-05
      1.44198081e-02 -6.60357811e-03 5.82895009e-03 1.71136824e-04
      1.05349740e-04 2.44121673e-03 -9.96432966e-04 -6.40055168e-06
      1.09300169e-03 3.42748011e-03 -1.71419710e-03 9.97138432e-06
      3.44034703e-03 8.10475368e-03 -4.59796283e-03 5.41095069e-05
      2.94393953e-03 1.16156852e-02 -6.81923609e-03 7.20851167e-05
      2.97129387e-03 1.62639525e-02 -8.78799055e-03 1.11182148e-04
      1.14317341e-02 -1.09239835e-02 -8.34399462e-03 3.00391996e-03
      2.84525147e-03 -2.08624229e-02 -2.25224663e-02 -1.36682938e-03
      -1.87480904e-03 -1.92420650e-02 -1.82422344e-03 -1.09463185e-03
      6.14291150e-03 -1.47869764e-02 8.39219056e-03 1.73320950e-04
      5.24052419e-03 -5.48504060e-03 3.20811640e-03 9.10174786e-05
      4.74212645e-03 -1.00827655e-02 8.32097791e-03 1.16326963e-04
      9.94351925e-04 -1.37879821e-02 1.43684149e-02 8.43502712e-05
      4.25939262e-03 -1.97771620e-02 1.63238943e-02 2.02616488e-04
      3.94824939e-03 -1.85707007e-02 1.35270245e-02 1.98264708e-04
      4.47402149e-03 -1.62732080e-02 1.74516868e-02 -6.10197058e-05
      9.02575674e-04 -9.38345492e-03 9.16232727e-03 -7.04900740e-05
      -5.93937468e-04 -7.39805587e-03 5.82453981e-03 -7.56729423e-05
      4.84350882e-03 -1.07733468e-02 1.12440670e-02 -6.36315672e-05
      -4.11313772e-03 -1.80559922e-02 1.06660705e-02 -2.14811327e-04
      8.08051205e-04 -1.78764444e-02 1.55382399e-02 -1.59248055e-04
      6.09951653e-03 -1.61378027e-03 -5.01232222e-03 -3.27725065e-05
      -6.21546817e-04 2.45104986e-03 5.27733797e-03 1.52582516e-05
      1.23103301e-03 4.13811393e-03 6.69625634e-03 1.84136676e-04
      3.72689799e-03 5.25099784e-03 3.88996443e-03 -4.25407889e-05
      9.62892431e-04 -5.46748110e-04 1.05452538e-03 -1.90574836e-04
      4.60460258e-04 -4.31600027e-03 -2.05258955e-03 -6.11119540e-05
      -1.29225000e-03 -1.69243396e-03 -3.21650924e-03 3.52717325e-05
      1.44659053e-03 -3.97527963e-03 -4.04832745e-03 8.97004247e-06
      1.84957520e-03 -8.68696719e-03 -9.31235217e-03 -1.65365764e-05
      5.76598663e-03 -8.39238614e-03 -9.83036682e-03 -1.04034705e-04
      1.40134944e-03 -7.77851325e-03 -8.74610897e-03 1.33798558e-05
      5.16575121e-04 -7.03688478e-03 -6.45929016e-03 5.96399004e-05
      6.57743076e-03 -7.75302341e-03 -9.45749972e-03 5.00853239e-05
      1.54349569e-03 -1.95010379e-03 -1.29464141e-03 1.53985689e-04
      3.81858414e-03 -6.38939673e-04 -2.06186320e-03 -4.70285268e-05
      3.69460176e-04 -3.15271923e-03 -2.96001462e-03 -8.05485615e-05
      -6.76255295e-05 -5.48519241e-03 -5.36290277e-03 -4.32848719e-05
      2.81535182e-03 -7.78297381e-03 -7.97512103e-03 -8.38720371e-05
      4.86273551e-03 -6.52565761e-03 -7.91179016e-03 -1.01624013e-04
      1.09441928e-03 -9.56462976e-03 -9.85136162e-03 7.99098343e-05
      1.09357443e-02 1.28077148e-02 1.71420593e-02 -8.64829589e-03
      -6.12499751e-03 -1.04703726e-02 -9.38825868e-03 -4.83104587e-03
      1.54967979e-02</_>
    <_>
      9.59745515e-03 3.92966298e-03 2.30327458e-03 -1.05534986e-04
      3.65850073e-03 -1.18434674e-03 -6.69049856e-04 4.15859577e-05
      1.88519224e-03 -6.10905990e-04 7.02444930e-04 2.84143334e-05
      -1.04364683e-03 -6.74070208e-04 2.72566895e-03 5.17499984e-06
      -3.41001851e-03 2.17566616e-04 2.83896318e-03 -2.71746940e-05
      -8.46275128e-03 9.00755986e-04 2.60365172e-03 -9.61098922e-05
      1.14111183e-02 1.74568628e-03 2.43106624e-03 1.35362672e-04
      5.77809662e-03 7.82077957e-04 3.35839135e-03 5.68594769e-05
      1.56976539e-03 -8.83746077e-04 3.52097349e-03 3.27830935e-06
      -1.46821386e-03 -3.16430465e-03 3.46317422e-03 -3.35356635e-05
      -4.27044835e-03 -4.67972178e-03 1.78385642e-03 -6.25139583e-05
      1.39417651e-03 -1.08363703e-04 -7.86364486e-04 1.18588461e-04
      9.73540067e-04 4.00540419e-03 6.64405699e-04 4.27779928e-03
      6.32756390e-04 -2.04086289e-04 1.61504652e-03 -7.23469348e-05
      2.36524676e-04 -8.77269136e-04 1.79716933e-03 2.03865548e-05
      1.46947999e-03 -2.36090412e-03 2.43200106e-03 4.46652157e-05
      7.54948996e-04 -1.13255007e-03 2.16894597e-03 2.94692200e-05
      2.14263098e-03 1.41277106e-03 -4.11670830e-04 3.04737387e-05
      1.85024482e-03 -1.80438976e-04 7.91455212e-04 3.10997457e-05
      6.94657560e-04 -1.04195846e-03 1.88378349e-03 2.39048550e-05
      -3.75349401e-03 1.54756024e-04 2.83725618e-04 -5.44785980e-05
      -1.21415616e-03 -2.19452754e-03 3.11105489e-03 -3.40657862e-05
      -1.18393265e-03 -3.00058094e-03 3.38795898e-03 -3.95085081e-05
      -1.57016935e-03 -9.17561934e-04 1.18993083e-03 -2.54435690e-05
      -2.87027261e-03 -1.78867858e-03 1.09005824e-03 -4.85356359e-05
      -2.24824366e-03 -1.14331779e-03 1.46908266e-03 -3.97789590e-05
      -7.35579850e-03 -1.08334143e-02 -2.58120592e-04 3.03363195e-04
      -2.64247507e-03 -2.74380273e-03 -3.95921175e-04 1.73503751e-04
      -1.89927872e-03 4.90407785e-03 3.26015847e-03 1.90190531e-05
      5.41427697e-04 2.32213130e-03 2.07665813e-04 -4.30163709e-05
      4.00623679e-03 3.18498001e-03 3.98584409e-03 -1.03173050e-04
      6.48274692e-03 -4.73406538e-03 2.57467432e-03 -2.58347456e-04
      1.11666387e-02 -1.35739502e-02 2.58949399e-03 -3.78519326e-04
      7.38185924e-03 -6.71127951e-03 -1.50609482e-03 -2.45195086e-04
      5.00625418e-03 -1.94359710e-03 -1.90900383e-03 -1.42360805e-04
      1.86238985e-03 5.47399919e-04 -1.30337535e-03 -5.32574159e-05
      4.03669197e-04 -1.16915116e-03 -3.31912981e-03 -5.14848693e-07
      -4.02491540e-03 -5.45497006e-03 -3.73671902e-03 1.64982324e-04
      -1.03643332e-02 -9.82034579e-03 1.50923536e-03 3.56538047e-04
      -1.20627217e-03 -8.79588909e-03 -9.58535541e-03 2.21713897e-04
      9.37911158e-04 -7.74522591e-03 -9.74097755e-03 -6.02997497e-05
      4.22351528e-03 -9.02962219e-03 -7.37453904e-03 -3.36103112e-04
      1.40101854e-02 -1.35766566e-02 3.66942608e-03 -4.53531538e-04
      4.41912515e-03 1.16512058e-02 1.11852819e-02 -2.73190217e-05
      1.85248686e-03 1.27830282e-02 1.08770048e-02 -7.07937434e-05
      -7.43528362e-05 1.26327015e-02 9.69445240e-03 -1.20963283e-04
      -1.52067505e-02 -1.14780078e-02 -1.05857467e-02 1.13998624e-02
      2.15003937e-02 1.16935361e-03 -2.61921203e-03 2.03765929e-02
      -2.30199681e-03</_>
    <_>
      5.21713588e-03 5.55481436e-03 3.19015747e-03 -6.19345519e-05
      -2.84903108e-05 -5.81528991e-03 5.46923000e-03 5.75733720e-05
      -1.25506194e-03 -5.06829424e-03 6.66355109e-03 3.60069535e-05
      -2.88845808e-03 -1.13764592e-03 4.71999357e-03 -4.68627286e-06
      -5.46035217e-03 2.56694201e-03 2.05488387e-03 -5.23883537e-05
      -1.05578238e-02 8.23154300e-03 -3.55908088e-03 -1.28225089e-04
      9.88643244e-03 7.74640590e-03 -3.23226349e-03 1.21921410e-04
      5.13385888e-03 3.24640935e-03 1.41836668e-03 5.40008768e-05
      3.13125760e-03 9.26209439e-04 3.37416702e-03 1.94587537e-05
      2.39984272e-03 3.16206424e-05 3.91540956e-03 4.30847285e-06
      -8.42059031e-04 6.49644178e-04 1.07522856e-03 -1.59287265e-05
      1.44363544e-03 -4.17200848e-03 -7.74828441e-05 3.11144628e-04
      1.39756023e-03 2.20229547e-03 -8.20902409e-04 -9.44694213e-04
      6.28003443e-04 -3.75187234e-03 2.50528986e-03 -2.80289358e-04
      1.94514811e-03 5.25688374e-05 1.49205487e-04 3.93797563e-05
      1.15711335e-03 1.91412764e-04 1.07107358e-03 3.13927776e-05
      -2.37795711e-03 2.20545707e-03 1.40046608e-03 -1.98112411e-05
      -1.36946654e-03 -4.59251081e-04 3.28625808e-03 6.55975055e-06
      -1.32465980e-03 -2.88850162e-03 5.16663212e-03 3.27354974e-05
      8.00097943e-04 -3.28843715e-03 3.66047071e-03 6.25787870e-05
      -2.25180949e-04 2.20619747e-03 5.76054037e-04 2.69553141e-07
      1.43694563e-03 3.33204772e-03 3.71282891e-04 2.49601107e-05
      -1.28186157e-03 2.97576468e-03 -7.22074299e-04 -5.94392122e-06
      -2.77365837e-03 2.53252196e-03 -1.57589943e-03 -1.96709061e-05
      -2.74099573e-03 -5.07755904e-04 8.43340706e-04 -5.09407218e-05
      1.04838073e-04 -2.98127154e-04 2.80407816e-03 -1.75652967e-05
      -4.70794505e-03 -1.18694967e-02 -4.20730049e-03 2.98633036e-04
      -3.50760442e-04 -2.54663453e-03 -2.92413263e-03 1.39305877e-04
      1.44143961e-03 3.38658062e-03 -7.63603894e-04 -7.36106231e-05
      2.24988395e-03 2.38644681e-03 -7.15599861e-04 -1.36220362e-04
      5.39138447e-03 3.31008947e-03 3.78361181e-03 -2.28417804e-04
      6.24609133e-03 -3.24592483e-03 2.53040576e-03 -2.49158940e-04
      8.19249637e-03 -1.12149436e-02 6.73987204e-04 -3.12592951e-04
      6.76114159e-03 -3.81082320e-03 -6.85315521e-04 -1.92002393e-04
      5.33980923e-03 9.35503049e-04 -2.46706419e-04 -1.10217028e-04
      3.69338319e-03 1.74534379e-03 -9.77833406e-04 -7.91099010e-05
      2.09658779e-03 1.77542461e-04 -3.11689498e-03 -3.79312551e-05
      -1.46468403e-03 -5.60511230e-03 -6.02464331e-03 1.21619421e-04
      -6.18909346e-03 -7.73549732e-03 -1.38804619e-03 2.67188676e-04
      1.39538955e-03 -2.47370778e-03 -5.43524092e-03 4.79686460e-05
      2.19124532e-03 -1.81270856e-03 -4.73896367e-03 -8.37371117e-05
      4.21141088e-03 -2.33177352e-03 -2.63047172e-03 -2.34534993e-04
      1.12843430e-02 -9.17610899e-03 3.32029816e-03 -3.51374474e-04
      5.99155342e-03 8.05023778e-03 7.00261910e-03 -9.56118602e-05
      3.47010372e-03 7.61400815e-03 4.78097517e-03 -1.03495964e-04
      2.78221606e-03 7.12333852e-03 2.87269428e-03 -1.38321746e-04
      -1.56729762e-02 -1.30101712e-02 -9.03356541e-03 8.33574124e-03
      1.62401069e-02 -3.39244539e-03 -2.87928944e-03 9.06011648e-03
      2.33435142e-03</_>
    <_>
      4.07806411e-03 2.04801699e-03 1.10185693e-03 -3.37257734e-05
      -2.74623220e-04 8.97221707e-06 1.08081568e-03 3.54797112e-06
      -1.14029928e-04 5.67108509e-04 5.78363659e-04 3.32905898e-07
      -8.23973445e-04 7.17395669e-05 1.33486884e-03 -3.42227031e-06
      -1.14975462e-03 -1.22155470e-03 2.58030393e-03 -4.55103873e-06
      -9.43299441e-04 -2.29740026e-03 3.49484012e-03 -6.89664876e-06
      2.38949154e-03 -1.70699321e-03 3.07968631e-03 1.84655473e-05
      1.75241579e-03 -8.72468518e-04 2.26728152e-03 5.71976307e-06
      1.54575065e-03 1.15642324e-03 4.37291543e-04 9.02700322e-06
      8.29820754e-04 1.76579435e-03 -3.21916683e-04 6.68243410e-06
      1.16468349e-03 7.66023644e-04 6.95364375e-04 3.55330076e-06
      -7.04316844e-05 1.24243111e-03 3.64417647e-04 2.23135995e-03
      9.29989677e-04 9.50737507e-04 -2.70887557e-03 -1.87905956e-04
      2.29717535e-03 -1.26740706e-04 1.38096581e-03 -8.34445018e-05
      1.32452499e-03 -1.89100101e-03 1.52413989e-03 2.85887727e-05
      1.89215760e-03 -6.54593925e-04 5.21375681e-04 2.45008905e-05
      8.97246122e-04 -3.32104304e-04 9.54838353e-04 1.35542150e-05
      -2.43602717e-05 -2.42895592e-04 1.35069794e-03 3.02630383e-08
      1.85569472e-04 -2.77923141e-03 3.34588950e-03 2.52951686e-05
      1.04981696e-03 -3.22235841e-03 2.85499240e-03 4.00837016e-05
      7.27235689e-04 -1.18207349e-03 2.15819315e-03 -8.14177110e-06
      4.05085921e-05 -6.13118522e-04 1.21857668e-03 -1.49417938e-05
      -1.30199781e-03 -1.01160188e-03 5.58008614e-04 -3.09910974e-05
      2.56974272e-05 -2.16566306e-03 1.97397731e-03 -2.83646987e-05
      -1.67257572e-03 -3.73149826e-03 2.08450318e-03 -6.15852914e-05
      -1.05720537e-04 -3.06941965e-03 3.06587014e-03 -3.93141854e-05
      -7.33115850e-03 -9.33625642e-03 1.24745665e-03 2.56616884e-04
      -3.87815083e-03 -3.54580418e-03 4.71727195e-04 1.82486474e-04
      -9.33957344e-04 -7.79457565e-04 -1.08662876e-03 6.18239865e-05
      1.64326059e-03 -1.00696355e-03 -2.02620053e-03 -7.53076238e-05
      3.73983849e-03 -2.06566020e-03 -1.27044297e-03 -1.51412140e-04
      6.02780934e-03 -5.94143430e-03 -2.33497223e-04 -2.48378929e-04
      9.22943745e-03 -1.04231397e-02 1.13259256e-03 -2.86691647e-04
      7.60533661e-03 -3.18835443e-03 2.65264302e-04 -1.53523710e-04
      5.15510794e-03 6.89366600e-04 7.81031093e-04 -8.16124739e-05
      3.38289421e-03 1.76383974e-03 7.99705449e-04 -5.73891666e-05
      7.00642486e-05 9.76501673e-04 1.41096083e-04 2.92857840e-06
      -3.57208843e-03 -3.08917416e-03 -1.14235305e-03 1.06945925e-04
      -7.44644040e-03 -7.98208360e-03 1.08585635e-03 2.58735963e-04
      -7.21594144e-04 -4.03399812e-03 -4.10582172e-03 1.06760119e-04
      1.90283137e-03 -3.23402812e-03 -4.21978673e-03 -4.71957865e-05
      3.73212947e-03 -4.41143662e-03 -3.73593764e-03 -1.69712759e-04
      9.71096102e-03 -9.58031602e-03 9.56032192e-04 -3.03748267e-04
      5.36055164e-03 1.23527227e-03 1.59313018e-03 -1.05689243e-04
      2.87490292e-03 2.42006150e-03 1.44835818e-03 -6.01172796e-05
      1.57907649e-04 1.77656813e-03 8.91253178e-04 -4.94754886e-06
      -1.00186095e-02 -9.09433886e-03 -6.93590241e-03 5.25150914e-03
      1.71180908e-02 -2.68551381e-03 4.88364662e-04 5.67394448e-03
      -4.69742483e-03</_>
    <_>
      7.23932981e-02 2.55288370e-02 2.29259748e-02 -1.04439550e-03
      -3.96587662e-02 5.36414003e-03 2.88547594e-02 -2.06118348e-04
      -4.11985368e-02 -2.02526376e-02 4.89353389e-02 -1.54682231e-04
      -2.65813712e-02 2.31933966e-02 1.59070792e-03 -2.68567033e-04
      -1.10225929e-02 -5.92424395e-03 1.73127241e-02 2.16443495e-05
      -6.14976361e-02 6.14945218e-02 -4.41075601e-02 -6.84959290e-04
      9.97752100e-02 7.02629685e-02 -3.81617025e-02 1.35702745e-03
      3.73159721e-02 7.60936039e-03 2.51463149e-02 4.43271536e-04
      1.88675541e-02 5.14368117e-02 -1.39876762e-02 4.32424975e-04
      2.43071187e-03 -4.22907248e-03 3.03838626e-02 6.22854277e-05
      1.07363416e-02 4.81103128e-03 3.32619809e-02 2.13211475e-04
      -3.02683376e-02 -1.10164464e-01 2.96304766e-02 7.76253417e-02
      3.39403525e-02 -1.77973900e-02 5.68668731e-02 -1.11510828e-01
      -1.05201956e-02 -4.59154733e-02 1.53374132e-02 -2.78335414e-03
      1.75386351e-02 -2.59317607e-02 3.07384809e-03 5.91804739e-04
      1.93459895e-02 -2.37247143e-02 7.86478911e-03 5.93944453e-04
      -2.13335771e-02 2.40291841e-02 -8.04983824e-03 -1.03565726e-04
      -2.93737594e-02 1.78058464e-02 1.36585755e-03 -1.96733599e-04
      -2.88489484e-03 -2.76525319e-02 2.52158716e-02 4.95323970e-04
      1.86569039e-02 1.63496658e-02 -2.55187638e-02 2.76911131e-04
      -6.29855320e-03 3.51921357e-02 -1.75569989e-02 2.77624844e-04
      2.59125289e-02 2.34723110e-02 8.47082585e-03 5.12472936e-04
      7.34870182e-03 1.20589044e-02 1.46826142e-02 2.40178284e-04
      -4.67667393e-02 1.30338427e-02 -2.03660391e-02 -1.75138935e-04
      3.08205932e-02 5.67780249e-03 3.81808579e-02 4.31709224e-04
      3.59547660e-02 3.20048979e-03 3.73714231e-02 5.89267933e-04
      -3.34759662e-03 -5.90754896e-02 -5.81923835e-02 5.78318432e-04
      2.45643705e-02 1.22772381e-02 -2.28851996e-02 -9.60865349e-04
      -2.39067599e-02 1.49836242e-02 1.75106730e-02 4.51215019e-04
      -4.41153497e-02 -1.34414984e-02 -2.25309320e-02 1.62054633e-03
      -4.97053862e-02 3.87287252e-02 1.67695452e-02 1.35304884e-03
      -4.99144793e-02 2.84619294e-02 -4.25594114e-03 1.13471376e-03
      -3.51056433e-03 -5.58252297e-02 -3.08275875e-02 -9.07514535e-04
      -1.67988054e-02 -3.38462032e-02 -3.14580239e-02 -4.07119223e-04
      3.37633528e-02 2.87124254e-02 3.14388871e-02 -7.26545521e-04
      1.71110872e-02 1.19230924e-02 4.07840125e-03 -6.14413817e-04
      2.01997235e-02 1.64233595e-02 2.18568346e-03 -7.95661181e-04
      4.27579414e-03 6.07628426e-05 -1.54395597e-02 -2.89888267e-04
      6.84791431e-02 9.75599512e-03 -5.90419881e-02 -1.66968314e-03
      -3.39955352e-02 4.03907187e-02 3.94379497e-02 1.58551687e-04
      -1.41051020e-02 1.64643992e-02 1.05401492e-02 1.11672780e-04
      -6.83149043e-03 -4.39739553e-03 -8.06211866e-03 -1.28841144e-04
      7.58094853e-03 -8.18211362e-02 -4.79457676e-02 -1.49131287e-03
      7.80375628e-03 7.34210666e-03 4.53959266e-03 -3.84851795e-04
      -1.30499741e-02 1.17006321e-02 2.28437223e-03 1.22094745e-04
      3.35966586e-03 2.21686643e-02 1.00993728e-02 -7.06868130e-04
      -7.18090460e-02 -3.24982144e-02 -7.44759813e-02 -1.94387026e-02
      1.45794544e-02 -4.16373741e-03 -9.92170256e-03 -1.87604893e-02
      6.81974888e-02</_>
    <_>
      -7.66725000e-03 -6.76460098e-03 -6.80114550e-04 1.08721877e-04
      -1.22381486e-02 1.12979803e-02 -2.17458489e-03 -1.35972237e-04
      -3.88973672e-03 2.68032812e-02 -2.19666846e-02 -1.64341676e-04
      -1.26983169e-02 7.96023197e-03 -3.79078649e-03 -1.35684080e-04
      1.38077047e-03 -4.55942034e-04 -2.95456545e-03 6.29543183e-06
      1.08208153e-02 -3.54847945e-02 2.98870821e-02 1.75352689e-04
      1.66766299e-03 -1.03165833e-02 7.24178227e-03 3.41697923e-05
      -4.42576641e-03 -6.46957941e-03 2.08806223e-03 -4.95157401e-05
      8.03802162e-03 9.75308940e-03 -7.02282507e-03 1.35676019e-04
      -2.04382860e-03 2.67136842e-02 -2.44090296e-02 1.54535141e-04
      1.37076247e-02 2.50666216e-02 -8.89349077e-03 2.79519969e-04
      3.51940319e-02 2.23995876e-02 -2.23501641e-02 3.98062915e-02
      8.60439520e-03 -3.30604278e-02 4.96767275e-03 -1.66561697e-02
      -6.81856833e-03 -1.75936595e-02 5.41240769e-03 -8.92137934e-04
      -1.66377686e-02 5.17014007e-04 9.86152235e-03 -1.42079953e-04
      -1.98024721e-03 1.93479285e-02 -1.57243423e-02 -1.79500406e-04
      2.62004882e-03 6.89417263e-03 -8.94702319e-03 -4.29608845e-05
      -3.13176997e-02 1.49979452e-02 -3.00384476e-03 -5.89132018e-04
      -2.11671703e-02 -4.77973279e-03 1.49217863e-02 -2.57557491e-04
      -1.92791969e-02 -1.09104384e-02 2.01529432e-02 -1.13419264e-04
      3.24258767e-02 2.80627690e-04 9.38194990e-03 4.80707589e-04
      5.07345237e-03 7.28478795e-03 -7.06790574e-03 1.18090051e-04
      9.12741176e-04 -7.38920178e-03 3.10453633e-03 -3.21068510e-05
      3.63978446e-02 -3.99035681e-03 2.63330024e-02 2.71591562e-04
      4.97047650e-03 -2.52509173e-02 1.82974935e-02 -1.59986739e-04
      9.11851134e-03 -1.59923956e-02 1.47835240e-02 -3.21941479e-06
      4.43259161e-03 2.15968825e-02 2.37653870e-02 -4.24108992e-04
      -5.09925187e-03 1.56792179e-02 3.60729471e-02 9.58982564e-05
      -4.33425512e-03 -1.92124315e-03 1.49258245e-02 1.13304181e-03
      1.75860915e-02 -3.59169813e-03 1.59511430e-04 -3.69060697e-04
      2.30639465e-02 -3.07543259e-02 -1.07000796e-02 -1.86408008e-03
      -2.87667289e-03 -3.16376872e-02 -1.27301570e-02 -7.17564719e-04
      -1.29233245e-02 5.97529672e-03 -3.72528774e-03 2.52259837e-04
      7.97090773e-03 1.97352446e-03 7.23353168e-03 1.78376329e-04
      2.84401774e-02 -4.92038298e-03 4.63558408e-03 -3.28686030e-04
      2.57975012e-02 4.78534261e-03 9.27104242e-03 -5.04882017e-04
      7.48523185e-03 3.71869490e-03 8.33914895e-03 -2.40467780e-04
      9.36350320e-03 1.26894964e-02 1.63203962e-02 -4.52623324e-04
      1.74012929e-02 1.43624544e-02 1.14849908e-02 -4.84480814e-04
      -3.63427587e-03 2.06432324e-02 2.97734793e-02 2.97006249e-04
      1.31239155e-02 2.32140180e-02 2.71605756e-02 -2.01477087e-04
      8.15521274e-03 9.31156054e-03 1.68810375e-02 -2.64888629e-04
      -1.51736811e-02 -1.91037916e-03 -1.14764785e-02 1.65519261e-04
      2.76952386e-02 -5.11894412e-02 -3.85455452e-02 -9.24825144e-04
      1.89036131e-02 -2.97557097e-02 -2.52594464e-02 -3.84186191e-04
      -1.72333769e-03 -3.87924537e-02 -2.82349102e-02 4.68571467e-04
      2.37572249e-02 2.80841608e-02 3.92024741e-02 -4.59193438e-02
      -1.92292761e-02 -1.72096621e-02 -2.43211561e-03 -4.93446365e-02
      -1.32434815e-02</_>
    <_>
      -1.64354150e-03 -1.70539115e-02 -8.84129759e-03 -5.02080775e-06
      -2.98280997e-04 6.12214161e-03 -9.63570178e-03 -1.00141158e-04
      1.97837173e-04 1.09421676e-02 -1.56241907e-02 -1.04381281e-04
      -5.73167345e-03 -1.45121274e-04 -4.86508152e-03 -7.72336061e-05
      -4.23488393e-03 -1.62920039e-02 8.69709812e-03 -8.99154998e-07
      -2.38927943e-03 -2.96632443e-02 2.18775515e-02 2.46453947e-05
      1.45820610e-03 -3.00372373e-02 2.17409767e-02 -2.06488676e-05
      2.97160307e-03 -1.93529464e-02 1.12111885e-02 -1.30790595e-05
      4.74440726e-03 3.85046005e-03 -8.42687860e-03 9.30497699e-05
      -2.04350613e-03 1.73200294e-02 -2.11201459e-02 1.30904795e-04
      -1.04222924e-03 2.60539213e-03 -7.18841562e-03 7.95145315e-05
      2.36998349e-02 1.15600834e-02 -2.31574867e-02 1.78367142e-02
      5.15401037e-03 -6.85894815e-03 -5.20412344e-03 1.65038963e-03
      -1.07353344e-03 3.54648102e-04 -2.50612968e-04 4.62587603e-04
      -5.97165432e-03 1.40095901e-04 -1.91978051e-03 -1.12611560e-04
      -4.56248876e-03 3.94949550e-03 -7.45854806e-03 -1.21079538e-04
      -2.86280015e-03 -1.63898757e-03 -4.91331471e-03 -5.91533826e-05
      -5.43305092e-03 -1.02651622e-02 3.80477821e-03 -5.52523124e-05
      -5.84597420e-03 -1.10371625e-02 5.37985098e-03 -3.60894737e-05
      -5.63361170e-03 -9.42128152e-03 4.45159758e-03 -3.18638486e-05
      1.11172646e-02 -1.35507016e-02 9.48868878e-03 1.31786204e-04
      8.39705579e-03 2.07892759e-03 -4.76870267e-03 1.63695993e-04
      3.44341784e-03 -9.81392339e-04 -3.57569777e-03 8.68580610e-05
      1.16018793e-02 -6.54374808e-03 7.33555341e-03 1.07776825e-04
      1.10824549e-04 -1.41853988e-02 4.48557222e-03 -5.18375236e-05
      6.26075221e-03 -1.63491331e-02 1.02521367e-02 9.27409292e-06
      -4.15945286e-03 9.51100886e-03 1.05083613e-02 -2.81900051e-04
      -6.59460248e-03 2.33137305e-03 1.40773440e-02 -4.38134120e-05
      7.50996624e-05 4.12975904e-04 1.02517428e-02 -4.59433431e-05
      8.63431767e-03 -3.87707056e-04 8.74591246e-03 -3.41479055e-04
      1.11262137e-02 -7.49031175e-03 6.10039616e-03 -4.88607970e-04
      1.04278699e-02 -1.13121346e-02 5.91576425e-03 -3.40194529e-04
      1.23843569e-02 1.37295679e-03 1.30152842e-02 1.82394833e-05
      1.33519508e-02 1.56331656e-03 1.41942771e-02 -3.56898890e-05
      9.09819454e-03 -4.23772354e-03 6.54243538e-03 -1.54232403e-04
      8.61925073e-03 -2.71538040e-03 5.85425738e-03 -2.89746386e-04
      -4.88938240e-04 7.83850264e-04 8.27672239e-03 -2.10904560e-04
      -4.77302587e-03 3.03792348e-03 9.11793672e-03 -2.37624772e-04
      -4.94401809e-03 2.72951089e-03 6.79794885e-03 -1.76395275e-04
      -4.12529684e-04 -1.05032255e-03 8.16539396e-03 8.86239468e-06
      6.94682077e-03 1.27601216e-03 9.91243124e-03 -2.07943463e-04
      5.24861692e-03 -5.53141907e-03 4.97055892e-03 -1.97140689e-04
      9.45783872e-03 -2.11550784e-03 8.35888553e-03 3.97807571e-06
      1.11144753e-02 -2.00582426e-02 -7.93421548e-03 -3.19492014e-04
      7.41339056e-03 -1.21621722e-02 -3.37809790e-03 -3.28408554e-04
      -1.47324288e-03 -1.39654689e-02 -6.23208471e-03 -1.74700806e-04
      7.79258600e-03 9.56197083e-03 1.86131056e-02 -7.48909265e-03
      1.36391083e-02 -1.31736537e-02 7.64672353e-04 -6.59017079e-03
      -9.77222342e-03</_></support_vectors>
  <uncompressed_sv_total>118</uncompressed_sv_total>
  <uncompressed_support_vectors>
    <_>
      9.68149261e+01 1.97383682e+02 9.87003632e+01 1.58393526e+00
      9.55522728e+00 1.32976904e+01 1.23021996e+02 -2.37437201e+00
      2.16926403e+01 1.31953132e+00 1.23778999e+02 -2.23620820e+00
      4.08599701e+01 4.43635523e-01 1.13712234e+02 -2.09841704e+00
      6.07211914e+01 2.92344451e+00 1.02808739e+02 -1.94302249e+00
      8.04800339e+01 7.89443731e+00 9.24934845e+01 -1.76259625e+00
      1.10476624e+02 6.63178253e+00 9.28867416e+01 -1.43728173e+00
      1.31441254e+02 2.50255942e+00 1.01799988e+02 -1.23724341e+00
      1.51507217e+02 0. 1.12210342e+02 -1.07486379e+00 1.71300186e+02
      4.14059830e+00 1.19567940e+02 -9.12072778e-01 1.86668182e+02
      1.47537251e+01 1.22015808e+02 -7.58630633e-01 7.43715134e+01
      9.58139038e+01 2.39139938e+01 -3.02095461e+00 9.57570267e+01
      1.01683540e+02 3.80719948e+00 2.23760462e+00 1.17654419e+02
      9.50972595e+01 1.98705482e+01 -1.81901634e-01 2.71755199e+01
      2.98259583e+01 9.88658295e+01 -2.37100220e+00 3.98703232e+01
      2.45250816e+01 9.43014679e+01 -2.23649454e+00 5.32248878e+01
      2.34103069e+01 8.76477966e+01 -2.10845590e+00 6.71368408e+01
      2.89728127e+01 7.62901382e+01 -1.98888445e+00 5.37481499e+01
      3.09179840e+01 8.10026016e+01 -2.15038586e+00 4.12239799e+01
      3.20668869e+01 8.76076355e+01 -2.27752137e+00 1.24536461e+02
      2.88363094e+01 7.46864319e+01 -1.20915568e+00 1.39722443e+02
      2.36378117e+01 8.58170242e+01 -1.06457329e+00 1.53008759e+02
      2.41838245e+01 9.25479965e+01 -9.35800850e-01 1.65259918e+02
      2.96780796e+01 9.62901001e+01 -7.99098253e-01 1.52701630e+02
      3.16573772e+01 8.64504471e+01 -8.87362838e-01 1.39415314e+02
      3.11113644e+01 7.92029648e+01 -1.02219927e+00 5.95495377e+01
      1.32635651e+02 5.13733635e+01 2.41980481e+00 7.47696533e+01
      1.26606758e+02 3.63880997e+01 2.26721573e+00 8.81924667e+01
      1.23831192e+02 2.70255070e+01 1.94661307e+00 9.64281616e+01
      1.25833237e+02 2.71935577e+01 1.63274550e+00 1.06495277e+02
      1.23751564e+02 2.64248734e+01 1.24795675e+00 1.21374130e+02
      1.26026619e+02 3.58933182e+01 8.65710676e-01 1.38573547e+02
      1.32556030e+02 5.27630806e+01 6.96863770e-01 1.22523033e+02
      1.38550797e+02 4.67402267e+01 1.02127779e+00 1.08303947e+02
      1.40461838e+02 4.29955101e+01 1.33146441e+00 9.82709579e+01
      1.41713120e+02 4.30215683e+01 1.56709456e+00 8.91366196e+01
      1.41337738e+02 4.35800858e+01 1.77822530e+00 7.59526825e+01
      1.38300537e+02 4.53857994e+01 2.08086467e+00 6.54305573e+01
      1.31213745e+02 4.61056557e+01 2.35863686e+00 8.79535904e+01
      1.29643951e+02 3.25763779e+01 1.88790905e+00 9.70538025e+01
      1.30849731e+02 3.21752853e+01 1.60368156e+00 1.07120918e+02
      1.28768051e+02 3.13965702e+01 1.27975595e+00 1.32794907e+02
      1.31486755e+02 4.77329025e+01 7.57421672e-01 1.07086792e+02
      1.29598450e+02 3.21833916e+01 1.28817570e+00 9.78842010e+01
      1.30883865e+02 3.21928177e+01 1.57786334e+00 8.88181076e+01
      1.28847687e+02 3.15554390e+01 1.86974585e+00 1.06282806e+02
      1.07786407e+02 1.02224762e+02 1.42260656e+01 7.32543716e+01
      7.47986078e+00 1.17534676e+01 8.31095636e-01 3.11522312e+01</_>
    <_>
      1.04159966e+02 1.87359222e+02 9.37802658e+01 1.52446055e+00
      1.62721214e+01 1.74672489e+01 1.13083717e+02 -2.40205503e+00
      3.06136513e+01 6.25143623e+00 1.11501884e+02 -2.24035454e+00
      4.95518265e+01 3.30958390e+00 1.03408134e+02 -2.07839131e+00
      6.98230286e+01 6.66513443e+00 9.20386124e+01 -1.90273368e+00
      9.00942307e+01 1.00206852e+01 8.42219162e+01 -1.68648624e+00
      1.10227531e+02 1.02045507e+01 8.41218338e+01 -1.44671249e+00
      1.30131012e+02 5.10227537e+00 9.36212387e+01 -1.24104965e+00
      1.50034470e+02 0. 1.06290886e+02 -1.07871485e+00 1.69156509e+02
      1.28706050e+00 1.15518280e+02 -9.26976860e-01 1.83360153e+02
      1.12617788e+01 1.17355453e+02 -7.78612494e-01 7.74994278e+01
      8.57733841e+01 2.36758099e+01 -2.80111551e+00 9.98391190e+01
      8.79797745e+01 5.69988537e+00 -1.56676412e+00 1.22960236e+02
      8.37968292e+01 2.51658306e+01 -4.03572679e-01 3.67731552e+01
      2.61089401e+01 9.24132767e+01 -2.32154369e+00 4.82647667e+01
      2.24316254e+01 8.79421387e+01 -2.19715238e+00 6.09055405e+01
      2.08227997e+01 8.25963058e+01 -2.06132650e+00 7.28108444e+01
      2.66605377e+01 7.22553940e+01 -1.95384252e+00 6.12732697e+01
      2.92806244e+01 7.50518646e+01 -2.11011291e+00 4.85865326e+01
      2.98322220e+01 8.18593979e+01 -2.24698424e+00 1.26775452e+02
      2.53734779e+01 7.34338684e+01 -1.19488132e+00 1.39232361e+02
      1.95357380e+01 8.39699554e+01 -1.08217537e+00 1.52976334e+02
      1.89381752e+01 9.17185287e+01 -9.52556789e-01 1.64789703e+02
      2.26614571e+01 9.62556152e+01 -8.29817116e-01 1.52286835e+02
      2.74419670e+01 8.45020676e+01 -9.00855303e-01 1.39554123e+02
      2.69363365e+01 7.76773682e+01 -1.03377664e+00 5.89289818e+01
      1.21535278e+02 4.94742088e+01 2.54354024e+00 7.33164825e+01
      1.11376694e+02 3.18656311e+01 2.55278993e+00 9.00482635e+01
      1.06412315e+02 1.60478363e+01 2.22518206e+00 1.00758446e+02
      1.09124336e+02 1.54734449e+01 1.50985992e+00 1.13307289e+02
      1.05401054e+02 1.78718605e+01 7.15321660e-01 1.31509995e+02
      1.09905769e+02 3.56060257e+01 4.73173887e-01 1.45667664e+02
      1.18823257e+02 5.22930717e+01 5.01591623e-01 1.32291428e+02
      1.27878647e+02 4.71616211e+01 8.11245561e-01 1.14456444e+02
      1.31831757e+02 4.08647194e+01 1.20438969e+00 1.01769707e+02
      1.32383362e+02 3.87530174e+01 1.52036405e+00 9.00942307e+01
      1.31831757e+02 3.93713341e+01 1.82030559e+00 7.40519409e+01
      1.28292343e+02 4.31489830e+01 2.21067548e+00 6.42151260e+01
      1.21305450e+02 4.50623856e+01 2.48166776e+00 9.05079269e+01
      1.16984604e+02 2.50951214e+01 1.95079255e+00 1.01172142e+02
      1.18639397e+02 2.49965858e+01 1.51652193e+00 1.13812920e+02
      1.17030571e+02 2.72245655e+01 1.03081119e+00 1.39324295e+02
      1.19099060e+02 4.69791718e+01 5.71719587e-01 1.13858887e+02
      1.18087799e+02 2.81595116e+01 1.04871440e+00 1.01218109e+02
      1.19696625e+02 2.60547543e+01 1.51696146e+00 9.05998611e+01
      1.19099060e+02 2.70386353e+01 1.91862321e+00 9.80446014e+01
      9.79646225e+01 9.22844315e+01 1.89301395e+01 8.04322128e+01
      8.53169918e+00 1.69316330e+01 1.05822706e+00 2.74731712e+01</_>
    <_>
      1.01465134e+02 1.75893723e+02 8.80546875e+01 1.62028944e+00
      2.69974613e+01 1.40261774e+01 1.08062431e+02 -2.38828468e+00
      4.12189865e+01 4.33678436e+00 1.05660416e+02 -2.22864509e+00
      5.95038109e+01 0. 9.93980637e+01 -2.05553961e+00 7.82965393e+01
      3.43817163e+00 8.88782272e+01 -1.88566577e+00 9.69329910e+01
      1.03145142e+01 7.81395340e+01 -1.68479419e+00 1.26860718e+02
      1.51201410e+01 7.58048935e+01 -1.28955865e+00 1.44246918e+02
      1.16038284e+01 8.54679794e+01 -1.10449100e+00 1.61437775e+02
      1.23852310e+01 9.38228989e+01 -9.36290085e-01 1.75776520e+02
      1.90662231e+01 9.81746140e+01 -7.77659476e-01 1.84645432e+02
      3.23891373e+01 9.64358978e+01 -6.13962054e-01 8.75561600e+01
      8.39617081e+01 1.86949768e+01 -2.92677736e+00 1.06270760e+02
      8.91189651e+01 1.25527048e+00 1.20473981e+00 1.24438370e+02
      8.73608093e+01 1.86261387e+01 -3.14691477e-02 4.75874176e+01
      3.47724152e+01 7.88588867e+01 -2.40157795e+00 5.91131096e+01
      2.75444431e+01 7.63552322e+01 -2.22903466e+00 7.28657913e+01
      2.81695652e+01 6.82598038e+01 -2.07464266e+00 8.52900925e+01
      3.90701294e+01 5.30138817e+01 -1.96847868e+00 7.22797394e+01
      4.10627060e+01 5.76469460e+01 -2.19179440e+00 5.85270576e+01
      4.04375839e+01 6.70364914e+01 -2.35392785e+00 1.28150024e+02
      4.36022644e+01 4.96488571e+01 -1.10433328e+00 1.40613403e+02
      3.46942749e+01 6.36106758e+01 -9.92077947e-01 1.54287949e+02
      3.70384827e+01 7.02898636e+01 -8.09965670e-01 1.64211761e+02
      4.61027527e+01 7.18356323e+01 -6.21798515e-01 1.53701889e+02
      4.99316254e+01 6.11366920e+01 -6.71048164e-01 1.39988281e+02
      4.84469604e+01 5.22265701e+01 -8.57666671e-01 7.04825134e+01
      1.18499710e+02 4.67152710e+01 2.42870283e+00 8.62277756e+01
      1.13186172e+02 3.19520645e+01 2.23092794e+00 9.84176559e+01
      1.10294983e+02 2.35426064e+01 1.89071012e+00 1.05176796e+02
      1.13186172e+02 2.52475357e+01 1.59633255e+00 1.12131279e+02
      1.11779648e+02 2.46539097e+01 1.31198037e+00 1.22250443e+02
      1.16546204e+02 3.29823227e+01 1.04937279e+00 1.34831024e+02
      1.24008598e+02 4.62817841e+01 8.93352687e-01 1.22602074e+02
      1.27759331e+02 4.32044144e+01 1.17190099e+00 1.12209419e+02
      1.29009567e+02 4.15566139e+01 1.41646719e+00 1.05333076e+02
      1.28697006e+02 4.07530746e+01 1.58278036e+00 9.76362534e+01
      1.27485840e+02 4.03773155e+01 1.77492869e+00 8.57198639e+01
      1.24360229e+02 4.15933456e+01 2.07520342e+00 7.65383835e+01
      1.17913658e+02 4.18987617e+01 2.34465528e+00 9.72455521e+01
      1.17132256e+02 3.04192829e+01 1.85659409e+00 1.04942375e+02
      1.18343430e+02 3.04092712e+01 1.59970856e+00 1.11857788e+02
      1.17796448e+02 3.04538136e+01 1.37126219e+00 1.29751907e+02
      1.22055092e+02 4.16657867e+01 9.58994865e-01 1.12678261e+02
      1.18695061e+02 3.15034466e+01 1.35138750e+00 1.04903305e+02
      1.19202972e+02 3.12695866e+01 1.60016286e+00 9.81050949e+01
      1.17171326e+02 3.02259998e+01 1.82894242e+00 8.32619247e+01
      8.68011780e+01 7.89723206e+01 1.25280552e+01 5.93759308e+01
      1.29064560e+01 1.11855946e+01 8.60430360e-01 2.92672844e+01</_>
    <_>
      9.91379318e+01 1.91379303e+02 9.57517624e+01 1.53477585e+00
      1.03448277e+01 1.89655170e+01 1.14762070e+02 -2.40933585e+00
      2.32758617e+01 6.89655161e+00 1.14577362e+02 -2.25493765e+00
      4.31034470e+01 3.44827580e+00 1.06178062e+02 -2.08893538e+00
      6.29310341e+01 7.75862074e+00 9.38349304e+01 -1.92741644e+00
      8.36206894e+01 1.46551723e+01 8.19283066e+01 -1.71864569e+00
      1.06896553e+02 1.29310341e+01 8.35139771e+01 -1.43619835e+00
      1.25862068e+02 4.31034470e+00 9.62317657e+01 -1.25187862e+00
      1.46551727e+02 0. 1.08367249e+02 -1.08224285e+00 1.66379303e+02
      2.58620691e+00 1.16898582e+02 -9.21395600e-01 1.81034485e+02
      1.46551723e+01 1.17687408e+02 -7.59497225e-01 7.84482727e+01
      9.05172424e+01 1.80005283e+01 -2.85013580e+00 9.56896515e+01
      9.56896515e+01 1.42108547e-14 0. 1.13793106e+02 9.05172424e+01
      1.88278713e+01 -2.78299659e-01 3.27586212e+01 3.10344830e+01
      9.02253113e+01 -2.34268188e+00 4.31034470e+01 2.41379318e+01
      8.87972870e+01 -2.20458889e+00 5.77586212e+01 2.32758617e+01
      8.17466888e+01 -2.05330968e+00 7.06896515e+01 3.36206894e+01
      6.69145432e+01 -1.95369506e+00 5.77586212e+01 3.70689659e+01
      6.98222656e+01 -2.14510107e+00 4.31034470e+01 3.79310341e+01
      7.81112518e+01 -2.30935383e+00 1.21551727e+02 3.18965511e+01
      6.88360825e+01 -1.18563879e+00 1.33620697e+02 2.06896553e+01
      8.40461960e+01 -1.10256159e+00 1.48275864e+02 2.06896553e+01
      9.15986328e+01 -9.59299326e-01 1.59482758e+02 2.75862064e+01
      9.33147354e+01 -8.18066299e-01 1.49137924e+02 3.44827576e+01
      8.12588577e+01 -8.52964342e-01 1.35344833e+02 3.53448257e+01
      7.22082443e+01 -9.89416122e-01 6.20689659e+01 1.29310349e+02
      4.75468369e+01 2.35619450e+00 7.32758636e+01 1.23275864e+02
      3.55440140e+01 2.25311279e+00 8.70689621e+01 1.19827583e+02
      2.56311531e+01 1.91382027e+00 9.65517273e+01 1.23275864e+02
      2.75996742e+01 1.53955650e+00 1.06034485e+02 1.19827583e+02
      2.62612858e+01 1.16590452e+00 1.21551727e+02 1.23275864e+02
      3.78132973e+01 8.17645073e-01 1.36206894e+02 1.28448273e+02
      5.21034927e+01 6.79908872e-01 1.21551727e+02 1.38793106e+02
      5.02668266e+01 1.03037679e+00 1.06896553e+02 1.44827591e+02
      5.03997116e+01 1.34656155e+00 9.65517273e+01 1.45689651e+02
      5.00074310e+01 1.55355668e+00 8.62068939e+01 1.44827591e+02
      5.00445709e+01 1.76143527e+00 7.32758636e+01 1.38793106e+02
      4.85827675e+01 2.05031562e+00 6.72413788e+01 1.28448273e+02
      4.33869972e+01 2.28588796e+00 8.79310379e+01 1.28448273e+02
      3.36648674e+01 1.80335331e+00 9.65517273e+01 1.30172409e+02
      3.44935341e+01 1.54580152e+00 1.06896553e+02 1.29310349e+02
      3.54393196e+01 1.24904573e+00 1.30172409e+02 1.28448273e+02
      4.75624619e+01 7.59762764e-01 1.06034485e+02 1.34482758e+02
      4.01487274e+01 1.31019390e+00 9.65517273e+01 1.35344833e+02
      3.96645432e+01 1.54906058e+00 8.70689621e+01 1.33620697e+02
      3.88983231e+01 1.79427290e+00 1.03512909e+02 1.02553604e+02
      9.33266830e+01 1.72413788e+01 6.81089020e+01 1.38200169e+01
      1.55172415e+01 5.17241383e+00 3.36648674e+01</_>
    <_>
      1.04474968e+02 1.95945953e+02 9.80706177e+01 1.52616799e+00
      1.75675678e+01 1.62826767e+01 1.16124313e+02 -2.36132050e+00
      3.10589275e+01 4.89587927e+00 1.15887756e+02 -2.20900226e+00
      5.01329193e+01 2.74700928e+00 1.07539116e+02 -2.05402207e+00
      6.98936615e+01 7.62073565e+00 9.52676773e+01 -1.89342928e+00
      8.96100998e+01 1.34913607e+01 8.51303406e+01 -1.69432831e+00
      1.09680992e+02 1.13867970e+01 8.71146774e+01 -1.46058846e+00
      1.28932205e+02 5.25033236e+00 9.71020203e+01 -1.26932013e+00
      1.48139130e+02 1.10766508e-01 1.09017426e+02 -1.11446440e+00
      1.68121399e+02 0. 1.19271355e+02 -9.63912487e-01 1.82631805e+02
      1.06335840e+01 1.20165382e+02 -8.13690066e-01 8.10810776e+01
      9.30217133e+01 1.96525440e+01 -2.88690829e+00 1.01927338e+02
      9.59459457e+01 2.72931004e+00 -8.37076247e-01 1.23083740e+02
      9.18918915e+01 2.37749043e+01 -2.58651674e-01 3.77935295e+01
      3.31634903e+01 8.99017563e+01 -2.33650374e+00 5.01107674e+01
      2.57199821e+01 8.78600464e+01 -2.17603803e+00 6.41116562e+01
      2.53433762e+01 8.10567551e+01 -2.03083825e+00 7.67168808e+01
      3.38945503e+01 6.82114334e+01 -1.92069113e+00 6.35799751e+01
      3.73061600e+01 7.08106766e+01 -2.11266446e+00 4.95347824e+01
      3.86796646e+01 7.79262924e+01 -2.27690959e+00 1.24700928e+02
      3.30305710e+01 6.94459229e+01 -1.20868409e+00 1.37062469e+02
      2.45901642e+01 8.21661987e+01 -1.10419464e+00 1.51019058e+02
      2.52104568e+01 8.88097153e+01 -9.60203171e-01 1.62804611e+02
      2.97297306e+01 9.26771088e+01 -8.27666998e-01 1.51528580e+02
      3.62206459e+01 8.03634262e+01 -8.76358032e-01 1.37527695e+02
      3.65972519e+01 7.18876495e+01 -1.02318919e+00 6.43553391e+01
      1.32233047e+02 4.95117340e+01 2.37739396e+00 7.96632690e+01
      1.24922462e+02 3.38219223e+01 2.21960306e+00 9.38413849e+01
      1.20558266e+02 2.34363346e+01 1.84111071e+00 1.01727959e+02
      1.22906509e+02 2.49866505e+01 1.50558460e+00 1.10832962e+02
      1.20314575e+02 2.47860928e+01 1.12293792e+00 1.25653519e+02
      1.23969872e+02 3.64532166e+01 7.93992698e-01 1.41382370e+02
      1.29663269e+02 5.20435791e+01 6.54696405e-01 1.25897209e+02
      1.40961456e+02 5.01350327e+01 1.03030109e+00 1.11763405e+02
      1.44328751e+02 4.78006363e+01 1.32430017e+00 1.02747009e+02
      1.44926895e+02 4.70284920e+01 1.51447475e+00 9.47718201e+01
      1.44572449e+02 4.69030571e+01 1.68463528e+00 7.99069595e+01
      1.41914047e+02 4.83587036e+01 2.00155640e+00 7.03810349e+01
      1.31501999e+02 4.48039474e+01 2.29602194e+00 9.34426193e+01
      1.29530350e+02 3.22518921e+01 1.77869940e+00 1.02414711e+02
      1.29929108e+02 3.20398827e+01 1.49847901e+00 1.10478508e+02
      1.28289764e+02 3.20441551e+01 1.24095678e+00 1.35356674e+02
      1.30394333e+02 4.78977966e+01 7.43524134e-01 1.11431107e+02
      1.29330963e+02 3.33425407e+01 1.22404051e+00 1.03367302e+02
      1.30970322e+02 3.31587372e+01 1.47209156e+00 9.44395218e+01
      1.29574661e+02 3.21045761e+01 1.74802673e+00 1.02203842e+02
      1.02568550e+02 9.47200394e+01 1.54913044e+01 7.10251312e+01
      1.10219736e+01 1.69933300e+01 1.41121912e+00 3.21807480e+01</_>
    <_>
      9.97521210e+01 1.63210083e+02 8.16093292e+01 1.58104789e+00
      1.85085735e+01 9.95662022e+00 1.08952499e+02 -2.42394876e+00
      3.42284660e+01 1.54926670e+00 1.03983704e+02 -2.26292753e+00
      5.27163811e+01 0. 9.46104813e+01 -2.10133028e+00 7.20512314e+01
      4.29663277e+00 8.24073944e+01 -1.92441809e+00 9.03325729e+01
      1.24561043e+01 6.99053955e+01 -1.71804249e+00 1.13592232e+02
      1.48936167e+01 6.79669418e+01 -1.37828839e+00 1.30262344e+02
      7.47779369e+00 7.98459320e+01 -1.19002569e+00 1.47862015e+02
      2.02437520e+00 9.25626602e+01 -1.03477824e+00 1.67300140e+02
      1.46663916e+00 1.04271652e+02 -8.76578033e-01 1.82668869e+02
      9.56413937e+00 1.09210999e+02 -7.20351338e-01 8.59326553e+01
      8.22970428e+01 1.46723909e+01 3.09441137e+00 1.02375542e+02
      8.55608368e+01 4.34062624e+00 1.14653194e+00 1.18983681e+02
      8.10576324e+01 1.84031029e+01 -2.97497828e-02 4.15203476e+01
      2.40446186e+01 8.24759064e+01 -2.36912322e+00 5.32947731e+01
      1.84672585e+01 7.88866043e+01 -2.21369505e+00 6.68870087e+01
      1.87564545e+01 7.13144455e+01 -2.06301141e+00 7.73600464e+01
      2.86924191e+01 5.77868195e+01 -1.98446560e+00 6.46767197e+01
      3.13365002e+01 6.17786217e+01 -2.19112349e+00 5.20760155e+01
      3.00970879e+01 7.07569885e+01 -2.32625723e+00 1.25924393e+02
      2.87543888e+01 5.86096191e+01 -1.12377834e+00 1.35839706e+02
      1.92522202e+01 7.16275482e+01 -1.05624676e+00 1.50423462e+02
      1.85911999e+01 8.03383179e+01 -9.01657164e-01 1.60979141e+02
      2.46436691e+01 8.30156631e+01 -7.56186247e-01 1.51146454e+02
      3.02623425e+01 7.20566254e+01 -7.93101251e-01 1.37533569e+02
      3.09440193e+01 6.27013626e+01 -9.40704167e-01 6.11443901e+01
      1.06052467e+02 4.64061623e+01 2.58674455e+00 7.58107834e+01
      1.01507950e+02 3.17816334e+01 2.46487236e+00 9.23982620e+01
      9.79756241e+01 1.83051796e+01 2.03469634e+00 1.02065689e+02
      1.00123940e+02 1.85777054e+01 1.49121022e+00 1.11836395e+02
      9.74178925e+01 1.94050617e+01 9.52526808e-01 1.27329063e+02
      9.96901474e+01 3.22818375e+01 5.94657958e-01 1.41809540e+02
      1.03883492e+02 4.68560104e+01 4.95494038e-01 1.27948769e+02
      1.16215660e+02 4.41187859e+01 9.01868641e-01 1.13241066e+02
      1.22701920e+02 4.30004120e+01 1.27213848e+00 1.02540794e+02
      1.23445572e+02 4.18860397e+01 1.52417493e+00 9.18611832e+01
      1.23218346e+02 4.25186653e+01 1.77752936e+00 7.54802704e+01
      1.17041931e+02 4.34304924e+01 2.18723083e+00 6.69696350e+01
      1.06176407e+02 4.16412697e+01 2.51044393e+00 9.12208252e+01
      1.07663704e+02 2.76913624e+01 1.91590273e+00 1.01879776e+02
      1.08861809e+02 2.72873249e+01 1.52346528e+00 1.12600700e+02
      1.07147285e+02 2.82257671e+01 1.13120699e+00 1.36913864e+02
      1.05721962e+02 4.36020813e+01 5.86097360e-01 1.12559387e+02
      1.09089027e+02 2.99777699e+01 1.16002333e+00 1.02809334e+02
      1.10824211e+02 2.93034306e+01 1.49494350e+00 9.21503830e+01
      1.09626114e+02 2.92640724e+01 1.86330104e+00 8.15255966e+01
      8.43231354e+01 7.64948044e+01 1.82451916e+01 7.57701874e+01
      1.16935148e+01 1.55374966e+01 2.17143106e+00 2.04160728e+01</_>
    <_>
      9.85800400e+01 1.78486679e+02 8.92797089e+01 1.54225135e+00
      1.63651695e+01 1.70654221e+01 1.07500885e+02 -2.40547347e+00
      2.86325626e+01 5.25189638e+00 1.07690453e+02 -2.24703240e+00
      4.59832726e+01 0. 1.02319298e+02 -2.08190179e+00 6.42935867e+01
      3.03442907e+00 9.18656464e+01 -1.92355323e+00 8.34727325e+01
      8.54567814e+00 8.16691208e+01 -1.72519004e+00 1.07540688e+02
      8.16961670e+00 8.18865128e+01 -1.42978394e+00 1.25708359e+02
      2.07482338e+00 9.20817108e+01 -1.24265516e+00 1.44770798e+02
      1.16708815e-01 1.01582657e+02 -1.07037473e+00 1.62251190e+02
      3.16410565e+00 1.08603073e+02 -9.15067911e-01 1.75698639e+02
      1.37457047e+01 1.09757370e+02 -7.58535683e-01 7.88821869e+01
      8.66498108e+01 1.73447113e+01 -2.99150133e+00 9.72314072e+01
      9.21740265e+01 3.16666222e+00 1.18230534e+00 1.14556183e+02
      8.52622681e+01 1.89472408e+01 -2.11690843e-01 3.97847366e+01
      2.83213387e+01 8.29170303e+01 -2.31631756e+00 5.04700775e+01
      2.15133247e+01 8.16286392e+01 -2.16296268e+00 6.29190178e+01
      2.13188095e+01 7.55658951e+01 -2.02439022e+00 7.46677017e+01
      2.94365559e+01 6.35081100e+01 -1.91388893e+00 6.22576675e+01
      3.21208572e+01 6.63601990e+01 -2.10476446e+00 4.98216934e+01
      3.31453018e+01 7.26799316e+01 -2.25984621e+00 1.19483887e+02
      2.87363033e+01 6.48929672e+01 -1.20103288e+00 1.30143295e+02
      2.02684307e+01 7.69488449e+01 -1.11151993e+00 1.43422165e+02
      2.00609474e+01 8.38572617e+01 -9.70205367e-01 1.54314987e+02
      2.65318031e+01 8.56134033e+01 -8.21982205e-01 1.43590744e+02
      3.08500290e+01 7.53101730e+01 -8.87302101e-01 1.31141800e+02
      3.10445442e+01 6.79691467e+01 -1.02797186e+00 6.35933342e+01
      1.17603577e+02 4.30878601e+01 2.42317319e+00 7.59255676e+01
      1.09939697e+02 2.88548794e+01 2.34173489e+00 8.83356018e+01
      1.07255394e+02 1.95874271e+01 1.97460151e+00 9.75037308e+01
      1.09602539e+02 2.04123363e+01 1.49862885e+00 1.07411011e+02
      1.06127213e+02 2.03604851e+01 9.77759302e-01 1.19898849e+02
      1.08422485e+02 3.06181507e+01 6.76923692e-01 1.31634567e+02
      1.15710304e+02 4.43627129e+01 6.39262617e-01 1.20080399e+02
      1.20041496e+02 3.90750160e+01 9.07846689e-01 1.08500290e+02
      1.22712830e+02 3.57164917e+01 1.21419287e+00 9.85541077e+01
      1.23698372e+02 3.45472260e+01 1.49772382e+00 8.85819855e+01
      1.23024055e+02 3.45924568e+01 1.78785920e+00 7.60941467e+01
      1.20728783e+02 3.72672424e+01 2.13529706e+00 6.93898697e+01
      1.16682877e+02 3.82456017e+01 2.34144902e+00 8.76094131e+01
      1.13907799e+02 2.60628853e+01 1.89986324e+00 9.75945053e+01
      1.15412048e+02 2.62153206e+01 1.51115453e+00 1.07527718e+02
      1.13596573e+02 2.69301701e+01 1.12976193e+00 1.26629059e+02
      1.14128250e+02 3.94391327e+01 6.82803035e-01 1.07514748e+02
      1.12766647e+02 2.61763630e+01 1.11667538e+00 9.84114609e+01
      1.14569153e+02 2.54373550e+01 1.47711337e+00 8.84263763e+01
      1.13064903e+02 2.50062180e+01 1.87983739e+00 9.20174255e+01
      9.24022064e+01 8.55737000e+01 1.28855410e+01 6.31314545e+01
      1.07903986e+01 1.07903986e+01 1.17384052e+00 2.37684593e+01</_>
    <_>
      9.96741791e+01 1.90069077e+02 9.51165466e+01 1.61232483e+00
      2.24423294e+01 1.76202259e+01 1.12175270e+02 -2.37993884e+00
      3.69868355e+01 4.01407528e+00 1.12805649e+02 -2.20274401e+00
      5.74742622e+01 0. 1.05646950e+02 -2.02285814e+00 7.85611877e+01
      1.48572922e+00 9.68477097e+01 -1.83255160e+00 9.86836929e+01
      8.41913223e+00 8.67561264e+01 -1.62776136e+00 1.19692429e+02
      1.22507496e+01 8.43289948e+01 -1.37906861e+00 1.40179855e+02
      8.23667431e+00 9.41820831e+01 -1.17217314e+00 1.59754990e+02
      8.10634708e+00 1.03476082e+02 -9.97430742e-01 1.76749649e+02
      1.49354877e+01 1.08458977e+02 -8.30871582e-01 1.84803864e+02
      3.16434250e+01 1.02998787e+02 -6.62963092e-01 8.43477097e+01
      8.62244263e+01 2.11933575e+01 -2.71287847e+00 1.05278252e+02
      9.24019318e+01 3.10968804e+00 -1.00953150e+00 1.24931580e+02
      8.99257126e+01 2.19123611e+01 -2.35313639e-01 4.47803993e+01
      2.85416393e+01 8.87905884e+01 -2.29523230e+00 5.59885330e+01
      2.10869274e+01 8.79619293e+01 -2.14305973e+00 6.92818985e+01
      2.15300407e+01 8.11309357e+01 -2.00786018e+00 8.06985550e+01
      3.13045750e+01 6.77277069e+01 -1.91609848e+00 6.81089554e+01
      3.32334175e+01 7.12785568e+01 -2.09236908e+00 5.48155861e+01
      3.27903023e+01 7.90981522e+01 -2.23578453e+00 1.29102051e+02
      3.52665176e+01 6.49722443e+01 -1.16782725e+00 1.41900177e+02
      2.70819759e+01 7.79915695e+01 -1.05780613e+00 1.55141403e+02
      2.90890141e+01 8.36836243e+01 -9.07608688e-01 1.65020203e+02
      3.80294533e+01 8.37805710e+01 -7.48321056e-01 1.54750427e+02
      4.08184547e+01 7.45210571e+01 -8.14710557e-01 1.41483124e+02
      3.95933800e+01 6.71349640e+01 -9.71648395e-01 6.21660385e+01
      1.17581131e+02 4.71914864e+01 2.64348030e+00 7.56418610e+01
      1.12550499e+02 3.30114899e+01 2.58228183e+00 9.06034164e+01
      1.09917892e+02 1.97743874e+01 2.28950238e+00 1.00638603e+02
      1.14166557e+02 1.93634052e+01 1.72554374e+00 1.10100349e+02
      1.12133453e+02 1.82846355e+01 1.20868874e+00 1.24019287e+02
      1.17294411e+02 3.01911678e+01 8.29061210e-01 1.38746246e+02
      1.21699463e+02 4.40982399e+01 6.49352789e-01 1.22742081e+02
      1.32125641e+02 4.17287102e+01 1.09485710e+00 1.09344452e+02
      1.34810379e+02 4.01852112e+01 1.42793608e+00 9.91789398e+01
      1.34471527e+02 3.96866035e+01 1.68301296e+00 8.82575226e+01
      1.33324646e+02 4.12581253e+01 1.95241725e+00 7.51466217e+01
      1.27407791e+02 4.31153984e+01 2.29224253e+00 6.76397781e+01
      1.17763588e+02 4.25606499e+01 2.57822180e+00 9.03688278e+01
      1.16955559e+02 2.56165333e+01 2.11461854e+00 9.96741791e+01
      1.19614235e+02 2.48948860e+01 1.73009264e+00 1.09891830e+02
      1.18389160e+02 2.41813011e+01 1.30856216e+00 1.32490555e+02
      1.21490944e+02 3.91570091e+01 7.41845012e-01 1.09813629e+02
      1.20735046e+02 2.64355602e+01 1.33442676e+00 9.95959854e+01
      1.21960121e+02 2.72250729e+01 1.71926022e+00 9.02906265e+01
      1.19301445e+02 2.76882191e+01 2.07318592e+00 8.76982956e+01
      9.07209549e+01 8.51088333e+01 1.61295280e+01 7.04331207e+01
      1.17359552e+01 1.48655434e+01 2.34719110e+00 2.73838959e+01</_>
    <_>
      9.50922394e+01 1.98846069e+02 9.95676117e+01 1.62469161e+00
      1.92463856e+01 1.41605530e+01 1.17748344e+02 -2.33185291e+00
      3.15407085e+01 2.92043591e+00 1.18583519e+02 -2.19094110e+00
      4.92770157e+01 0. 1.11822250e+02 -2.04618096e+00 6.74549484e+01
      2.36484075e+00 1.02515144e+02 -1.89854538e+00 8.62169647e+01
      8.27694321e+00 9.22515945e+01 -1.72576451e+00 1.16845932e+02
      8.16297436e+00 9.27201843e+01 -1.39309347e+00 1.34724701e+02
      3.50452304e+00 1.01856339e+02 -1.22765946e+00 1.53187546e+02
      2.39333296e+00 1.10432755e+02 -1.07298875e+00 1.70354019e+02
      6.42495918e+00 1.16337410e+02 -9.26266611e-01 1.81665359e+02
      1.78502750e+01 1.15104721e+02 -7.87629843e-01 8.08177185e+01
      8.48208542e+01 2.44720383e+01 -2.50222468e+00 1.00377518e+02
      9.16731949e+01 7.75023603e+00 -1.58090627e+00 1.20065529e+02
      8.62882004e+01 2.36021767e+01 -5.90178907e-01 4.02592773e+01
      2.46313839e+01 9.60074005e+01 -2.24849200e+00 5.03169746e+01
      1.93318615e+01 9.44907684e+01 -2.13013077e+00 6.26255417e+01
      1.85910683e+01 8.92465210e+01 -2.00852776e+00 7.34952621e+01
      2.47311058e+01 7.94088058e+01 -1.91719925e+00 6.27822495e+01
      2.73523750e+01 8.13233185e+01 -2.05246353e+00 5.04736786e+01
      2.80931683e+01 8.70986176e+01 -2.18200469e+00 1.27587433e+02
      2.65403519e+01 7.77689362e+01 -1.21442699e+00 1.38656601e+02
      1.95740433e+01 8.85164261e+01 -1.12456763e+00 1.50751480e+02
      2.14402733e+01 9.27952499e+01 -9.97973740e-01 1.60680954e+02
      2.83780899e+01 9.31367035e+01 -8.67636681e-01 1.50039169e+02
      3.01303520e+01 8.52055206e+01 -9.49701369e-01 1.38742081e+02
      2.92043591e+01 7.99780960e+01 -1.07161307e+00 6.49334030e+01
      1.18512718e+02 4.03269386e+01 2.64847684e+00 7.77405777e+01
      1.11688866e+02 2.58154049e+01 2.64647388e+00 9.12030792e+01
      1.07543274e+02 1.23106651e+01 2.42129302e+00 9.96794662e+01
      1.10862595e+02 1.14658785e+01 1.63856292e+00 1.08583229e+02
      1.08967873e+02 1.25362644e+01 8.65436435e-01 1.21333427e+02
      1.13512360e+02 2.51869278e+01 5.93650043e-01 1.33941162e+02
      1.19794861e+02 3.91953545e+01 5.46559393e-01 1.20706604e+02
      1.31832748e+02 3.82162514e+01 1.01231551e+00 1.07315338e+02
      1.35109344e+02 3.63395691e+01 1.38089693e+00 9.85540314e+01
      1.35266037e+02 3.58934288e+01 1.62380707e+00 8.89949417e+01
      1.34482513e+02 3.68852272e+01 1.88674545e+00 7.61735153e+01
      1.30807037e+02 3.96810837e+01 2.22930479e+00 7.10164566e+01
      1.19011322e+02 3.53607178e+01 2.55448389e+00 9.05620041e+01
      1.15364342e+02 1.87620316e+01 2.12625670e+00 9.91808548e+01
      1.16945648e+02 1.75689430e+01 1.64343250e+00 1.07942162e+02
      1.16788948e+02 1.89108257e+01 1.16377783e+00 1.27786880e+02
      1.20165253e+02 3.43106918e+01 6.49189472e-01 1.07443550e+02
      1.22872002e+02 2.44679699e+01 1.28117990e+00 9.86110153e+01
      1.23897713e+02 2.45441113e+01 1.64603245e+00 8.91231537e+01
      1.22245171e+02 2.54809818e+01 2.03169370e+00 9.52472687e+01
      9.70696487e+01 9.15684280e+01 1.55241327e+01 6.28751984e+01
      8.71922112e+00 1.91822872e+01 6.97537708e+00 2.72536697e+01</_>
    <_>
      1.00239647e+02 1.75556320e+02 8.78054962e+01 1.54584050e+00
      2.12256069e+01 1.45155773e+01 1.06156395e+02 -2.37991261e+00
      3.32762756e+01 3.97124267e+00 1.05920036e+02 -2.22877789e+00
      5.10783997e+01 0. 9.95550385e+01 -2.06212926e+00 6.94967499e+01
      2.25950027e+00 9.01590271e+01 -1.89302719e+00 8.66826401e+01
      7.53166723e+00 8.10474243e+01 -1.71149862e+00 1.06128036e+02
      9.85963726e+00 7.83362808e+01 -1.46747494e+00 1.24067101e+02
      3.83430338e+00 8.78836288e+01 -1.27023530e+00 1.42759323e+02
      1.98562133e+00 9.67440338e+01 -1.09037280e+00 1.60150635e+02
      4.17665195e+00 1.04143517e+02 -9.31897402e-01 1.74871613e+02
      1.54741526e+01 1.05497124e+02 -7.55104423e-01 7.97672043e+01
      8.03149643e+01 1.97461205e+01 -2.75400329e+00 9.70215683e+01
      8.45600815e+01 3.37799287e+00 -1.87972713e+00 1.14892159e+02
      7.95617905e+01 1.87406960e+01 -4.53844011e-01 3.80691528e+01
      2.49229717e+01 8.68810120e+01 -2.33278751e+00 4.87504272e+01
      1.94453945e+01 8.42595825e+01 -2.19576907e+00 6.01848679e+01
      1.81444702e+01 7.92623062e+01 -2.06883311e+00 7.11400223e+01
      2.40328655e+01 6.91920166e+01 -1.97023082e+00 6.06641579e+01
      2.64293041e+01 7.18420486e+01 -2.11808062e+00 4.92297173e+01
      2.77302284e+01 7.73888779e+01 -2.25341320e+00 1.24614861e+02
      2.65662441e+01 6.67282791e+01 -1.16132355e+00 1.34269089e+02
      2.10201988e+01 7.59509583e+01 -1.07367992e+00 1.46525162e+02
      2.28688812e+01 8.10135193e+01 -9.29323614e-01 1.56453262e+02
      2.86888046e+01 8.30822220e+01 -7.91225612e-01 1.45977402e+02
      3.10852451e+01 7.42378311e+01 -8.68972659e-01 1.34748367e+02
      2.93050327e+01 6.90360718e+01 -1.01030469e+00 7.09346085e+01
      1.35433075e+02 5.48284569e+01 2.08808374e+00 8.02464905e+01
      1.19548103e+02 3.64176445e+01 2.08154702e+00 9.12701111e+01
      1.08935295e+02 2.22164936e+01 1.88085151e+00 9.93495407e+01
      1.11537148e+02 2.37945766e+01 1.51609588e+00 1.07839783e+02
      1.07976723e+02 2.24465790e+01 1.11942637e+00 1.18521057e+02
      1.17973297e+02 3.64810524e+01 9.74985421e-01 1.24683327e+02
      1.33858261e+02 5.32239075e+01 1.04670370e+00 1.18931870e+02
      1.27285179e+02 4.46868553e+01 1.08453429e+00 1.10852448e+02
      1.24683327e+02 3.90631485e+01 1.23685122e+00 1.01540565e+02
      1.25094147e+02 3.74790154e+01 1.47749007e+00 9.22286911e+01
      1.25504967e+02 3.81730728e+01 1.72385478e+00 8.27798691e+01
      1.27969872e+02 4.29942856e+01 1.93385398e+00 7.73022919e+01
      1.32762756e+02 4.95381012e+01 2.00291443e+00 9.02430649e+01
      1.24340981e+02 3.73867149e+01 1.78112221e+00 9.85279007e+01
      1.23861694e+02 3.60867157e+01 1.55751443e+00 1.07839783e+02
      1.23450874e+02 3.69920197e+01 1.30292094e+00 1.19685036e+02
      1.31461823e+02 4.87483139e+01 1.11091757e+00 1.09688461e+02
      1.11194794e+02 2.61500492e+01 1.10949063e+00 1.00376587e+02
      1.11605614e+02 2.39409084e+01 1.47340429e+00 9.31872635e+01
      1.11126328e+02 2.38488922e+01 1.77607465e+00 1.09863304e+02
      1.15293625e+02 1.09868126e+02 1.54398794e+01 4.89119110e+01
      8.23460293e+00 8.79455948e+00 1.23947182e+01 3.85825386e+01</_>
    <_>
      1.03135979e+02 2.03562469e+02 1.02143288e+02 1.48657405e+00
      1.24435520e+01 3.70546913e+01 1.04546211e+02 -2.47397232e+00
      1.89412937e+01 2.08730564e+01 1.10733063e+02 -2.32230520e+00
      3.74811859e+01 1.14400406e+01 1.06853302e+02 -2.13414907e+00
      5.81284485e+01 9.35775185e+00 9.93385544e+01 -1.94612050e+00
      7.83492203e+01 1.39488211e+01 8.93128433e+01 -1.75312459e+00
      1.03813347e+02 9.08178616e+00 9.31617889e+01 -1.47112763e+00
      1.23331657e+02 2.08228803e+00 1.03772079e+02 -1.28969061e+00
      1.43978928e+02 0. 1.13151627e+02 -1.11865103e+00 1.63421982e+02
      5.46914196e+00 1.18407249e+02 -9.49968040e-01 1.76643250e+02
      1.79628696e+01 1.17328186e+02 -7.95755386e-01 7.59157028e+01
      9.71901627e+01 1.91851254e+01 -2.89994407e+00 9.37029572e+01
      1.02759659e+02 1.28982806e+00 2.28047752e+00 1.14049171e+02
      9.57099838e+01 2.04287815e+01 -3.01749349e-01 3.50476685e+01
      3.98394394e+01 8.58867188e+01 -2.33605456e+00 4.55092812e+01
      3.42197685e+01 8.34799194e+01 -2.19860935e+00 5.70496750e+01
      3.26894112e+01 7.86095352e+01 -2.06799078e+00 6.89914703e+01
      3.77822380e+01 6.89113388e+01 -1.95066047e+00 5.74510803e+01
      3.93125954e+01 7.26510239e+01 -2.10662603e+00 4.59106865e+01
      4.08429489e+01 7.79654770e+01 -2.24435639e+00 1.18564980e+02
      3.31159058e+01 7.27458801e+01 -1.23426795e+00 1.29754135e+02
      2.57902660e+01 8.37521515e+01 -1.13689268e+00 1.41344711e+02
      2.50878067e+01 8.98456650e+01 -1.02288234e+00 1.52408432e+02
      2.94029102e+01 9.26659775e+01 -8.96372497e-01 1.41846466e+02
      3.33667831e+01 8.31752167e+01 -9.65852559e-01 1.30205719e+02
      3.32413445e+01 7.72626495e+01 -1.09102929e+00 6.98444519e+01
      1.34119415e+02 4.06914749e+01 2.22305226e+00 7.95283508e+01
      1.29377823e+02 3.14169292e+01 2.06909156e+00 8.76567993e+01
      1.26392372e+02 2.55564766e+01 1.84363484e+00 9.44305038e+01
      1.28474655e+02 2.66936665e+01 1.57502568e+00 1.01731056e+02
      1.25539391e+02 2.48216095e+01 1.27701604e+00 1.14300049e+02
      1.27270447e+02 3.22494202e+01 9.11424756e-01 1.29503265e+02
      1.31334671e+02 4.57776947e+01 7.01790273e-01 1.14902161e+02
      1.37205215e+02 4.08575287e+01 1.04917502e+00 1.04290016e+02
      1.40341202e+02 3.97726898e+01 1.32321692e+00 9.60612106e+01
      1.41670853e+02 3.99184799e+01 1.53276432e+00 8.85097809e+01
      1.40466629e+02 3.91530914e+01 1.72551608e+00 8.01304550e+01
      1.39312592e+02 4.02036819e+01 1.93745494e+00 7.47616653e+01
      1.32990463e+02 3.69504166e+01 2.13572907e+00 8.80080261e+01
      1.32187653e+02 3.11008301e+01 1.78250945e+00 9.55594559e+01
      1.33391876e+02 3.16269627e+01 1.53866458e+00 1.02910187e+02
      1.31284500e+02 3.06666832e+01 1.29446316e+00 1.23657799e+02
      1.30858002e+02 4.11473770e+01 7.84751475e-01 1.02960358e+02
      1.32112396e+02 3.14773636e+01 1.30010545e+00 9.55594559e+01
      1.33391876e+02 3.16269627e+01 1.53866458e+00 8.88359222e+01
      1.32137482e+02 3.08881378e+01 1.75664318e+00 1.04473587e+02
      1.00496422e+02 9.62981033e+01 9.70807362e+00 5.39120865e+01
      8.29416752e+00 9.95300102e+00 0. 3.15614586e+01</_>
    <_>
      9.87169418e+01 2.14995193e+02 1.07503311e+02 1.56048489e+00
      8.97268009e+00 2.00226936e+01 1.24531761e+02 -2.36278605e+00
      2.24317017e+01 6.12725830e+00 1.26204155e+02 -2.20890284e+00
      4.13895416e+01 8.20459127e-01 1.20584320e+02 -2.05581021e+00
      6.20755882e+01 4.03246927e+00 1.09396606e+02 -1.90160477e+00
      8.27092590e+01 1.00724449e+01 9.85578308e+01 -1.72255015e+00
      1.06275642e+02 1.05088596e+01 9.73752365e+01 -1.48167026e+00
      1.27153702e+02 3.35166264e+00 1.08255707e+02 -1.29436839e+00
      1.49847260e+02 0. 1.19518311e+02 -1.11844909e+00 1.71441040e+02
      5.11477709e+00 1.26227943e+02 -9.46021318e-01 1.86244217e+02
      2.04765644e+01 1.24213364e+02 -7.76205897e-01 7.35794678e+01
      9.57144089e+01 2.67625732e+01 -2.68567538e+00 9.51907120e+01
      9.98865356e+01 7.98584986e+00 -1.87837565e+00 1.17901718e+02
      9.55922165e+01 2.35277500e+01 -5.30557871e-01 2.75639343e+01
      3.45116539e+01 1.01159195e+02 -2.33563232e+00 3.89630775e+01
      3.00078564e+01 9.71799316e+01 -2.21864462e+00 5.21951637e+01
      2.83669376e+01 9.12361145e+01 -2.09180546e+00 6.71729050e+01
      3.43021736e+01 7.92710037e+01 -1.96485901e+00 5.29981689e+01
      3.59256363e+01 8.43363724e+01 -2.12816691e+00 3.97660828e+01
      3.75665550e+01 9.07529068e+01 -2.26186490e+00 1.26577637e+02
      3.44592819e+01 7.85735931e+01 -1.19319844e+00 1.40822205e+02
      2.90652008e+01 8.95492630e+01 -1.06721008e+00 1.54944580e+02
      3.02697048e+01 9.61851273e+01 -9.32159126e-01 1.68037003e+02
      3.61700287e+01 1.00238739e+02 -7.91740060e-01 1.54787460e+02
      3.87536011e+01 8.94157562e+01 -8.76982927e-01 1.40665100e+02
      3.75490952e+01 8.21380997e+01 -1.01902294e+00 5.77812691e+01
      1.34083969e+02 4.78856888e+01 2.55298352e+00 7.30732269e+01
      1.23051407e+02 2.90499210e+01 2.57659173e+00 8.63751450e+01
      1.17639870e+02 1.51344919e+01 2.40719151e+00 9.66919785e+01
      1.20659859e+02 1.31941261e+01 1.64031279e+00 1.08073669e+02
      1.17098717e+02 1.42021914e+01 7.42362559e-01 1.23051407e+02
      1.23033951e+02 2.98114491e+01 5.48202395e-01 1.38884521e+02
      1.33699921e+02 4.88904495e+01 5.65620124e-01 1.23644936e+02
      1.41904510e+02 4.31478157e+01 9.23006713e-01 1.09435280e+02
      1.45413284e+02 3.97174149e+01 1.26843584e+00 9.71633072e+01
      1.46128998e+02 3.86339684e+01 1.58231866e+00 8.68115540e+01
      1.44994324e+02 3.90202179e+01 1.85115457e+00 7.27240982e+01
      1.41904510e+02 4.24625320e+01 2.19694781e+00 6.53399658e+01
      1.33280960e+02 4.13041992e+01 2.46744585e+00 8.71083145e+01
      1.28969193e+02 2.39015045e+01 2.02562499e+00 9.74426117e+01
      1.31046524e+02 2.35495052e+01 1.57783842e+00 1.08789383e+02
      1.29370697e+02 2.45651264e+01 1.09825015e+00 1.32303391e+02
      1.32635071e+02 4.28442726e+01 6.26998961e-01 1.08771927e+02
      1.30313339e+02 2.54004250e+01 1.11575460e+00 9.74426117e+01
      1.31046524e+02 2.35495052e+01 1.57783842e+00 8.61656647e+01
      1.28951736e+02 2.43149586e+01 2.06077480e+00 1.01793655e+02
      1.04056396e+02 9.81843033e+01 1.43605576e+01 7.45362091e+01
      8.48535061e+00 1.88563347e+01 0. 2.79207516e+01</_>
    <_>
      1.01110397e+02 1.79610550e+02 8.99732742e+01 1.63191533e+00
      2.34792404e+01 1.79433537e+01 1.09882675e+02 -2.42874885e+00
      3.87672997e+01 4.94045687e+00 1.08646835e+02 -2.24515557e+00
      5.92211151e+01 0. 1.01539749e+02 -2.05631137e+00 8.04473801e+01
      1.27132285e+00 9.23175888e+01 -1.85808730e+00 1.01577087e+02
      7.85323477e+00 8.21062012e+01 -1.63208425e+00 1.22787254e+02
      1.00096560e+01 8.14197311e+01 -1.37072611e+00 1.42372070e+02
      4.16800785e+00 9.28059769e+01 -1.17517149e+00 1.62729324e+02
      4.53813982e+00 1.02079903e+02 -9.88674581e-01 1.81187637e+02
      1.19568720e+01 1.07809036e+02 -8.06826472e-01 1.89732864e+02
      2.89346638e+01 1.03030571e+02 -6.32051885e-01 8.95236588e+01
      8.64338608e+01 1.74119110e+01 -2.94673467e+00 1.08062439e+02
      8.94271011e+01 1.50468838e+00 -2.54057527e-01 1.24911491e+02
      8.79626617e+01 1.83979435e+01 -1.00321420e-01 4.54135818e+01
      2.89668484e+01 8.62892380e+01 -2.35909581e+00 5.61795959e+01
      2.11940784e+01 8.51488342e+01 -2.20460176e+00 6.94882507e+01
      1.96652718e+01 7.93558502e+01 -2.05752683e+00 8.17186966e+01
      2.87415504e+01 6.59405746e+01 -1.95780599e+00 6.92790451e+01
      3.11715488e+01 6.95069733e+01 -2.13770318e+00 5.68554878e+01
      3.27164459e+01 7.57248535e+01 -2.28761721e+00 1.32137115e+02
      3.14290314e+01 6.37151566e+01 -1.15850878e+00 1.44673325e+02
      2.36884460e+01 7.62925415e+01 -1.04839289e+00 1.57917603e+02
      2.57000313e+01 8.21118622e+01 -8.95795226e-01 1.67492752e+02
      3.47280350e+01 8.21017303e+01 -7.35342860e-01 1.56823303e+02
      3.71902161e+01 7.27331924e+01 -8.08711648e-01 1.43579010e+02
      3.51786270e+01 6.59626465e+01 -9.75790441e-01 6.95365295e+01
      1.14402962e+02 4.44881477e+01 2.55574703e+00 8.46797562e+01
      1.09365952e+02 2.93833656e+01 2.41315365e+00 9.89217911e+01
      1.05197937e+02 1.72041245e+01 2.03381634e+00 1.07724495e+02
      1.08014160e+02 1.82432003e+01 1.50945055e+00 1.16607658e+02
      1.06404892e+02 1.93798695e+01 1.02852547e+00 1.29787582e+02
      1.11956871e+02 3.20636292e+01 7.62682855e-01 1.42903122e+02
      1.21049240e+02 4.78922005e+01 7.10721970e-01 1.27792084e+02
      1.24316063e+02 4.04949646e+01 1.02022183e+00 1.15400711e+02
      1.24090759e+02 3.53954849e+01 1.31969762e+00 1.05648537e+02
      1.24798843e+02 3.50066605e+01 1.59815216e+00 9.68136444e+01
      1.23752815e+02 3.53316650e+01 1.85162985e+00 8.35854492e+01
      1.20856133e+02 3.86536331e+01 2.20876026e+00 7.57322159e+01
      1.14515610e+02 3.95448380e+01 2.46662927e+00 9.78757629e+01
      1.14032829e+02 2.57525158e+01 1.91665769e+00 1.06694557e+02
      1.15963951e+02 2.61588230e+01 1.56741273e+00 1.15561638e+02
      1.15239784e+02 2.69650955e+01 1.23224854e+00 1.38509811e+02
      1.19198586e+02 4.33799095e+01 7.44465411e-01 1.15561638e+02
      1.15239784e+02 2.69650955e+01 1.23224854e+00 1.06694557e+02
      1.15963951e+02 2.61588230e+01 1.56741273e+00 9.78757629e+01
      1.14032829e+02 2.57525158e+01 1.91665769e+00 8.97552338e+01
      8.87763824e+01 8.26649628e+01 1.39969435e+01 6.91398010e+01
      1.15421753e+01 1.15421753e+01 0. 2.44846516e+01</_>
    <_>
      1.00039276e+02 1.71425766e+02 8.57180634e+01 1.58179367e+00
      1.76944218e+01 1.21563234e+01 1.11118752e+02 -2.41815734e+00
      3.22859383e+01 1.76747835e+00 1.08471062e+02 -2.25662136e+00
      5.16889229e+01 1.96386483e-02 9.88591537e+01 -2.09280062e+00
      7.04438324e+01 3.61351132e+00 8.75949936e+01 -1.92690361e+00
      8.93558502e+01 1.07423410e+01 7.58666458e+01 -1.72464621e+00
      1.14179108e+02 1.14100552e+01 7.54657211e+01 -1.39501607e+00
      1.32423416e+02 3.51531816e+00 8.80057144e+01 -1.20545697e+00
      1.51747833e+02 0. 9.96186523e+01 -1.03607368e+00 1.70463470e+02
      2.71013355e+00 1.08245743e+02 -8.73839676e-01 1.84269440e+02
      1.44933233e+01 1.09585739e+02 -7.07450271e-01 8.18931656e+01
      8.19128036e+01 1.94633408e+01 -2.94508767e+00 1.02376274e+02
      8.45443802e+01 1.81922698e+00 -6.97502613e-01 1.22584450e+02
      8.09897842e+01 2.21128063e+01 -2.15249255e-01 3.88452492e+01
      2.98114681e+01 8.35819092e+01 -2.40896964e+00 5.01374702e+01
      2.48821678e+01 7.92813644e+01 -2.26700950e+00 6.25098190e+01
      2.43322868e+01 7.24408798e+01 -2.13067436e+00 7.61194000e+01
      3.16967793e+01 5.94633064e+01 -2.00216603e+00 6.29418678e+01
      3.40534172e+01 6.41540833e+01 -2.20551181e+00 4.96857834e+01
      3.46425781e+01 7.23841934e+01 -2.35840082e+00 1.27494110e+02
      3.20699120e+01 5.98369751e+01 -1.11177218e+00 1.40435974e+02
      2.44108410e+01 7.29010468e+01 -9.98932779e-01 1.52847610e+02
      2.47446976e+01 8.00447845e+01 -8.65895689e-01 1.63727417e+02
      3.04595451e+01 8.36057816e+01 -7.21989870e-01 1.52356644e+02
      3.36213684e+01 7.31634216e+01 -7.92326033e-01 1.39945007e+02
      3.32875099e+01 6.53187637e+01 -9.31654811e-01 6.30597000e+01
      1.16398270e+02 4.87820511e+01 2.46128750e+00 7.68460312e+01
      1.07816185e+02 3.27276268e+01 2.40012455e+00 9.16732101e+01
      1.02729774e+02 1.93965664e+01 2.07135510e+00 1.03279655e+02
      1.04870384e+02 1.92948017e+01 1.45142806e+00 1.12922234e+02
      1.02670853e+02 2.07399025e+01 9.57316518e-01 1.26374702e+02
      1.06500389e+02 3.28163605e+01 6.86003208e-01 1.40946579e+02
      1.15593086e+02 4.98998985e+01 6.42005563e-01 1.27042419e+02
      1.21523956e+02 4.42897530e+01 9.41706657e-01 1.13020424e+02
      1.24803612e+02 4.09024506e+01 1.27205026e+00 1.02415550e+02
      1.25274940e+02 3.95880241e+01 1.53457487e+00 9.17714081e+01
      1.24862526e+02 4.02185097e+01 1.80185902e+00 7.74744720e+01
      1.21956009e+02 4.31991310e+01 2.14619017e+00 6.92458725e+01
      1.16123329e+02 4.39542122e+01 2.37752175e+00 9.20659866e+01
      1.11567162e+02 2.73484535e+01 1.90287924e+00 1.02749413e+02
      1.12863312e+02 2.72079029e+01 1.50578856e+00 1.13315002e+02
      1.11508247e+02 2.85920544e+01 1.12481201e+00 1.35604874e+02
      1.14945015e+02 4.53129692e+01 7.01175272e-01 1.12509819e+02
      1.13315002e+02 2.99126930e+01 1.17517197e+00 1.02827965e+02
      1.14630791e+02 2.89767723e+01 1.50704587e+00 9.12608032e+01
      1.13373917e+02 2.93195038e+01 1.90875137e+00 8.81288071e+01
      8.99089203e+01 8.28423538e+01 1.54490776e+01 7.25597229e+01
      8.89023685e+00 1.41537857e+01 1.76922321e+00 2.57906380e+01</_>
    <_>
      1.06187332e+02 1.87747620e+02 9.44461060e+01 1.46065378e+00
      1.23746634e+01 2.98116894e+01 1.05188942e+02 -2.48676872e+00
      2.35509911e+01 1.37441921e+01 1.07895859e+02 -2.30456328e+00
      4.34336014e+01 7.67913914e+00 1.00858170e+02 -2.11678815e+00
      6.44656372e+01 7.21447802e+00 9.21522980e+01 -1.91781008e+00
      8.73074112e+01 9.88016605e+00 8.44224777e+01 -1.67163241e+00
      1.01834190e+02 8.99975586e+00 8.50878754e+01 -1.49988818e+00
      1.23330887e+02 2.83687949e+00 9.51070557e+01 -1.27718449e+00
      1.43409149e+02 0. 1.05253830e+02 -1.10148561e+00 1.64636826e+02
      2.76351190e+00 1.14187538e+02 -9.23804224e-01 1.79236984e+02
      1.64587917e+01 1.13814949e+02 -7.48012543e-01 7.91391525e+01
      8.89459534e+01 1.73799171e+01 -2.85411191e+00 9.88016663e+01
      9.26143341e+01 3.24982357e+00 -3.97974908e-01 1.18635361e+02
      8.57422333e+01 2.42344894e+01 -3.42175424e-01 3.93983841e+01
      3.46539497e+01 8.17850266e+01 -2.33187604e+00 4.78356552e+01
      2.68525314e+01 8.24195862e+01 -2.19201159e+00 5.98434830e+01
      2.45047684e+01 7.81367569e+01 -2.04907155e+00 7.15822906e+01
      3.10833950e+01 6.73009338e+01 -1.93898761e+00 6.04793358e+01
      3.49963303e+01 6.86623459e+01 -2.11121583e+00 4.92785530e+01
      3.72951813e+01 7.32524948e+01 -2.25901580e+00 1.20763023e+02
      2.72927361e+01 7.11048584e+01 -1.21216655e+00 1.29958420e+02
      1.86353626e+01 8.26270142e+01 -1.14468324e+00 1.42871124e+02
      1.78527756e+01 8.94110718e+01 -1.01644456e+00 1.53802887e+02
      2.44803123e+01 9.04384689e+01 -8.74621212e-01 1.42699921e+02
      2.83932495e+01 8.05404282e+01 -9.49311376e-01 1.31352402e+02
      2.82709713e+01 7.46142883e+01 -1.07423544e+00 6.85253143e+01
      1.27659576e+02 4.34246941e+01 2.25006700e+00 8.00929337e+01
      1.18048424e+02 2.88323917e+01 2.14715385e+00 9.19540253e+01
      1.13279533e+02 1.97842979e+01 1.76673734e+00 1.00978233e+02
      1.15162628e+02 2.19081688e+01 1.33245087e+00 1.09660065e+02
      1.11396431e+02 2.23379116e+01 9.01783288e-01 1.22768402e+02
      1.13842018e+02 3.35516052e+01 6.37451172e-01 1.36879425e+02
      1.19466866e+02 4.83946915e+01 5.57233393e-01 1.24822693e+02
      1.21007584e+02 3.97268257e+01 7.51874149e-01 1.12007828e+02
      1.23404259e+02 3.36831169e+01 1.06898689e+00 1.03228172e+02
      1.25556374e+02 3.25403786e+01 1.34067392e+00 9.43507004e+01
      1.26094398e+02 3.22534332e+01 1.61592698e+00 8.22450485e+01
      1.26828072e+02 3.56353531e+01 1.96117938e+00 7.24627075e+01
      1.25800926e+02 3.95505028e+01 2.20211577e+00 9.25409622e+01
      1.22964050e+02 2.92728786e+01 1.68256068e+00 1.01516266e+02
      1.24040108e+02 3.07020321e+01 1.38371134e+00 1.11102959e+02
      1.21839081e+02 3.18756790e+01 1.07025564e+00 1.32795303e+02
      1.18904381e+02 4.46626396e+01 5.94912648e-01 1.10516022e+02
      1.12154564e+02 2.34643536e+01 8.93206835e-01 1.01785278e+02
      1.15113716e+02 2.20655327e+01 1.29637885e+00 9.28099747e+01
      1.14037659e+02 2.03851929e+01 1.71829224e+00 9.64823685e+01
      9.74598618e+01 9.23913498e+01 1.33345213e+01 6.48635941e+01
      1.05418644e+01 9.03957462e+00 8.93044090e+00 2.84021072e+01</_>
    <_>
      1.00872665e+02 1.73193192e+02 8.65965958e+01 1.57096338e+00
      2.25350761e+01 1.46376743e+01 1.06382004e+02 -2.39870167e+00
      3.51670609e+01 3.01817656e+00 1.06322525e+02 -2.23714495e+00
      5.29193382e+01 0. 9.89943390e+01 -2.07664609e+00 7.18962479e+01
      2.90246367e+00 8.85730209e+01 -1.90425229e+00 9.08538666e+01
      7.11633968e+00 8.01110306e+01 -1.69636810e+00 1.09859695e+02
      8.05168533e+00 7.90557404e+01 -1.45705450e+00 1.28942673e+02
      3.74138188e+00 8.74762802e+01 -1.24430501e+00 1.47996719e+02
      1.39819682e+00 9.73554382e+01 -1.06569886e+00 1.65662216e+02
      4.28137493e+00 1.04745438e+02 -9.04085100e-01 1.79239182e+02
      1.75979939e+01 1.04402359e+02 -7.22005725e-01 7.84822311e+01
      9.02270889e+01 2.26971359e+01 2.98094893e+00 9.74591370e+01
      9.31295471e+01 7.37771130e+00 2.05402637e+00 1.17824600e+02
      9.08056488e+01 1.74526196e+01 2.43571624e-01 3.73752480e+01
      3.12521095e+01 8.42423401e+01 -2.42480326e+00 4.86379623e+01
      2.35475636e+01 8.18850174e+01 -2.26279807e+00 6.17520866e+01
      2.37404175e+01 7.40435791e+01 -2.12767696e+00 7.14141083e+01
      3.56877670e+01 5.88248940e+01 -2.09558463e+00 6.02285347e+01
      3.81466675e+01 6.32496452e+01 -2.26897979e+00 4.71240540e+01
      3.72981033e+01 7.29438782e+01 -2.39948702e+00 1.27158768e+02
      3.58516960e+01 5.71423111e+01 -1.09307361e+00 1.37813995e+02
      2.48589745e+01 7.19383545e+01 -1.03175616e+00 1.51593460e+02
      2.44057655e+01 8.02423248e+01 -8.86774778e-01 1.61959412e+02
      3.30842285e+01 8.11997299e+01 -7.19517052e-01 1.52037033e+02
      3.88409424e+01 6.99779587e+01 -7.51093626e-01 1.38267197e+02
      3.86384468e+01 6.08050461e+01 -9.08723891e-01 6.36034889e+01
      1.20833130e+02 5.06182823e+01 2.39877367e+00 7.55315552e+01
      1.12482521e+02 3.62351532e+01 2.34584475e+00 8.67364120e+01
      1.08712212e+02 2.62553463e+01 2.14000440e+00 9.71794968e+01
      1.12145027e+02 2.58160572e+01 1.71491194e+00 1.07063301e+02
      1.09011139e+02 2.32498760e+01 1.30192530e+00 1.18817802e+02
      1.12463234e+02 3.14736710e+01 9.64650989e-01 1.31141220e+02
      1.21826332e+02 4.64375305e+01 8.61235380e-01 1.19926712e+02
      1.26252350e+02 4.39895973e+01 1.12317753e+00 1.08741142e+02
      1.28711243e+02 4.28407440e+01 1.38642311e+00 9.82402039e+01
      1.29212677e+02 4.26981964e+01 1.63282776e+00 8.77585449e+01
      1.28402679e+02 4.38190422e+01 1.87507927e+00 7.66597595e+01
      1.24960220e+02 4.53732719e+01 2.13406992e+00 6.88684235e+01
      1.19598862e+02 4.59820290e+01 2.34106874e+00 8.65917740e+01
      1.18547806e+02 3.50033836e+01 1.99149609e+00 9.70637894e+01
      1.20013496e+02 3.36349144e+01 1.68471444e+00 1.06918663e+02
      1.18846725e+02 3.28093033e+01 1.38590872e+00 1.26580200e+02
      1.19791718e+02 4.19767799e+01 9.12110388e-01 1.08249359e+02
      1.17554604e+02 3.18213844e+01 1.33731985e+00 9.83848419e+01
      1.19377083e+02 3.28758507e+01 1.64698339e+00 8.79128265e+01
      1.17911385e+02 3.38961411e+01 1.96358514e+00 9.39410553e+01
      9.33417435e+01 8.51450119e+01 1.35191889e+01 6.29853210e+01
      1.44419899e+01 1.25286016e+01 1.46636188e+00 2.16803474e+01</_>
    <_>
      1.00045647e+02 1.85797195e+02 9.31244583e+01 1.50113523e+00
      1.00684710e+01 1.42028036e+01 1.14736603e+02 -2.38577747e+00
      2.17541580e+01 2.15194011e+00 1.15721962e+02 -2.24022174e+00
      3.95696106e+01 2.72579074e+00 1.05102341e+02 -2.11032200e+00
      5.74502754e+01 7.53831100e+00 9.26852798e+01 -1.97103202e+00
      7.61786728e+01 1.23377895e+01 8.24153137e+01 -1.78333759e+00
      1.01584610e+02 1.02510595e+01 8.30358353e+01 -1.47405028e+00
      1.22712746e+02 5.68633842e+00 9.19545670e+01 -1.24823844e+00
      1.41284637e+02 3.13009441e-01 1.04160332e+02 -1.09488523e+00
      1.61630264e+02 0. 1.15165970e+02 -9.38461483e-01 1.77059021e+02
      1.07857838e+01 1.17106682e+02 -7.77050614e-01 7.48092575e+01
      8.86729736e+01 1.92246342e+01 -2.91998029e+00 9.18291473e+01
      9.26508026e+01 1.75220466e+00 -2.99969554e+00 1.09566353e+02
      8.81382446e+01 1.66956406e+01 -2.89137304e-01 3.31268349e+01
      2.48712101e+01 9.09964066e+01 -2.29717684e+00 4.32213898e+01
      1.96283016e+01 8.88981934e+01 -2.17279649e+00 5.50766220e+01
      1.85979786e+01 8.36770020e+01 -2.04873371e+00 6.70361938e+01
      2.43495274e+01 7.35029678e+01 -1.94003391e+00 5.52070427e+01
      2.70753174e+01 7.61836014e+01 -2.09841490e+00 4.33518105e+01
      2.81056404e+01 8.19717331e+01 -2.23008132e+00 1.18747963e+02
      2.35539608e+01 7.37761688e+01 -1.22243309e+00 1.30524948e+02
      1.74372349e+01 8.40270615e+01 -1.11533952e+00 1.43253998e+02
      1.80893383e+01 8.98083878e+01 -9.84485388e-01 1.54352783e+02
      2.30061951e+01 9.26296692e+01 -8.54946494e-01 1.43384415e+02
      2.65666771e+01 8.29579620e+01 -9.26603496e-01 1.31503098e+02
      2.59015331e+01 7.69935150e+01 -1.05553710e+00 6.00586891e+01
      1.21969353e+02 4.43587341e+01 2.42693901e+00 7.01141205e+01
      1.14183243e+02 3.16689262e+01 2.40455317e+00 8.27649155e+01
      1.09748940e+02 2.00137119e+01 2.14072418e+00 9.29768524e+01
      1.12135635e+02 1.92459908e+01 1.60129535e+00 1.03110535e+02
      1.09435928e+02 1.90951443e+01 1.04724491e+00 1.16739487e+02
      1.13465927e+02 3.09859657e+01 7.25838423e-01 1.28686020e+02
      1.18369743e+02 4.33860931e+01 6.27448142e-01 1.16987282e+02
      1.29572876e+02 4.35162582e+01 1.00241208e+00 1.04375610e+02
      1.36550369e+02 4.49708138e+01 1.32799816e+00 9.33811569e+01
      1.38415390e+02 4.55171585e+01 1.57480776e+00 8.23475723e+01
      1.37737198e+02 4.62201576e+01 1.81591189e+00 7.03880005e+01
      1.31985657e+02 4.54413147e+01 2.10599828e+00 6.42973557e+01
      1.21904144e+02 4.12048874e+01 2.36067080e+00 8.29214249e+01
      1.19921745e+02 2.90432377e+01 1.94596589e+00 9.31203156e+01
      1.21460709e+02 2.85655556e+01 1.58632016e+00 1.04114769e+02
      1.19595695e+02 2.87064323e+01 1.19442391e+00 1.22764915e+02
      1.19308769e+02 3.93726540e+01 7.35252619e-01 1.03267036e+02
      1.19608742e+02 2.84180489e+01 1.22233903e+00 9.31333542e+01
      1.22308441e+02 2.94129963e+01 1.58542943e+00 8.20867310e+01
      1.20782524e+02 3.01535263e+01 1.96126223e+00 9.87572250e+01
      1.00763954e+02 9.53389511e+01 1.36709166e+01 6.27626457e+01
      8.47834301e+00 1.78045197e+01 8.47834289e-01 2.63238544e+01</_>
    <_>
      1.03138344e+02 1.98501984e+02 9.98112946e+01 1.46478820e+00
      1.04861059e+01 2.31593132e+01 1.11932632e+02 -2.39410424e+00
      2.37735004e+01 9.91686058e+00 1.12758835e+02 -2.22709131e+00
      4.29031525e+01 7.46011543e+00 1.04369965e+02 -2.06683254e+00
      6.31263580e+01 1.04561453e+01 9.35515060e+01 -1.89105308e+00
      8.25256500e+01 1.62235031e+01 8.36337280e+01 -1.69127452e+00
      1.04396675e+02 1.36768780e+01 8.63864899e+01 -1.43354654e+00
      1.22462738e+02 6.68114758e+00 9.72744217e+01 -1.25851786e+00
      1.40588715e+02 1.51299524e+00 1.08893570e+02 -1.11419296e+00
      1.58834549e+02 0. 1.19334724e+02 -9.82167065e-01 1.74668564e+02
      8.62856674e+00 1.22275894e+02 -8.34753096e-01 7.59343872e+01
      9.41951904e+01 1.73939304e+01 -2.84667134e+00 9.44198914e+01
      9.99925079e+01 1.98616982e+00 3.82607222e-01 1.15167404e+02
      9.10793228e+01 2.40226440e+01 -3.47092807e-01 3.56977005e+01
      3.87985916e+01 8.30047302e+01 -2.32575393e+00 4.47457123e+01
      3.57576218e+01 7.94938507e+01 -2.21642685e+00 5.74788399e+01
      3.35105972e+01 7.45231781e+01 -2.06119108e+00 6.94180222e+01
      3.49486923e+01 6.83457336e+01 -1.91649628e+00 5.76586037e+01
      3.89933357e+01 6.96441193e+01 -2.09599876e+00 4.67530518e+01
      4.11804352e+01 7.39733353e+01 -2.23886395e+00 1.20530296e+02
      3.14433384e+01 7.33433456e+01 -1.17978382e+00 1.31435852e+02
      2.92562351e+01 8.00577927e+01 -1.06399775e+00 1.43345062e+02
      2.97805405e+01 8.60436325e+01 -9.39708829e-01 1.54400421e+02
      3.21623840e+01 9.12303391e+01 -8.26221466e-01 1.43494873e+02
      3.43494873e+01 8.24912186e+01 -9.05556381e-01 1.32529404e+02
      3.47090111e+01 7.59067535e+01 -1.01651680e+00 6.53733826e+01
      1.34791397e+02 4.47568512e+01 2.22410440e+00 7.69230804e+01
      1.24350235e+02 2.95808697e+01 2.12845635e+00 8.77087860e+01
      1.18507980e+02 1.98628864e+01 1.81842721e+00 9.59928131e+01
      1.20065910e+02 2.10932770e+01 1.40815783e+00 1.05040817e+02
      1.17024940e+02 2.17083340e+01 9.59250629e-01 1.17069885e+02
      1.21204407e+02 3.28912926e+01 7.30783939e-01 1.31076324e+02
      1.29892899e+02 4.92046547e+01 6.72244728e-01 1.18463036e+02
      1.35795074e+02 4.47832489e+01 9.54493701e-01 1.06673660e+02
      1.38925919e+02 4.21047096e+01 1.22941172e+00 9.75956879e+01
      1.41053101e+02 4.21022606e+01 1.45131791e+00 8.84577942e+01
      1.41352707e+02 4.23027802e+01 1.66833317e+00 7.74324036e+01
      1.39884659e+02 4.33643112e+01 1.92756557e+00 7.17399445e+01
      1.33667892e+02 4.02333145e+01 2.11520672e+00 8.80083923e+01
      1.27645866e+02 2.87601166e+01 1.73033619e+00 9.62624512e+01
      1.28290009e+02 2.92719135e+01 1.44456875e+00 1.05340424e+02
      1.26162834e+02 2.97849579e+01 1.12795556e+00 1.24679802e+02
      1.30102615e+02 4.45240479e+01 7.65531659e-01 1.05310463e+02
      1.25249046e+02 2.89487705e+01 1.11536419e+00 9.71462784e+01
      1.27346268e+02 2.84643574e+01 1.40958428e+00 8.79484711e+01
      1.25818291e+02 2.69675312e+01 1.74329650e+00 1.00475197e+02
      1.00475197e+02 9.54449005e+01 1.11226997e+01 5.94914780e+01
      4.57140112e+00 1.55427647e+01 1.29298759e+00 3.01850986e+01</_>
    <_>
      1.02559166e+02 1.64998306e+02 8.26843948e+01 1.50384557e+00
      1.17540483e+01 2.10961380e+01 1.05080421e+02 -2.51752234e+00
      2.48782692e+01 7.54161453e+00 1.04039154e+02 -2.33710670e+00
      4.37776031e+01 3.72551250e+00 9.50833282e+01 -2.16522336e+00
      6.34695969e+01 5.51466417e+00 8.39806213e+01 -1.98186719e+00
      8.24934921e+01 9.42135620e+00 7.45090714e+01 -1.76711893e+00
      1.02864906e+02 9.79504013e+00 7.29380722e+01 -1.49067855e+00
      1.23836487e+02 3.83874989e+00 8.31034241e+01 -1.24232376e+00
      1.44139969e+02 0. 9.50036469e+01 -1.05192375e+00 1.65258743e+02
      3.17064881e+00 1.04635139e+02 -8.60462129e-01 1.82300980e+02
      1.48341074e+01 1.08858269e+02 -6.70768857e-01 7.32080154e+01
      8.68191605e+01 2.42080784e+01 2.96217847e+00 9.43041534e+01
      8.85856628e+01 6.66800880e+00 1.99152088e+00 1.16057068e+02
      8.75325546e+01 1.96839809e+01 2.58582801e-01 3.08572083e+01
      2.99173374e+01 8.45183792e+01 -2.47012639e+00 4.33699455e+01
      2.19907150e+01 8.08727722e+01 -2.29625845e+00 5.88042107e+01
      2.10395203e+01 7.23761520e+01 -2.12718153e+00 7.09432678e+01
      3.34843178e+01 5.55233459e+01 -2.05984783e+00 5.83286133e+01
      3.50922890e+01 6.11965332e+01 -2.25540614e+00 4.28943481e+01
      3.60434837e+01 7.13339233e+01 -2.43237233e+00 1.22183220e+02
      3.19556103e+01 5.64575844e+01 -1.10898757e+00 1.34616684e+02
      1.91144829e+01 7.36923447e+01 -1.03551567e+00 1.50073608e+02
      1.95674324e+01 8.23060684e+01 -8.70429873e-01 1.64239609e+02
      2.70637531e+01 8.71237564e+01 -6.89670980e-01 1.52394974e+02
      3.28728333e+01 7.43527145e+01 -7.30771780e-01 1.36247314e+02
      3.31332817e+01 6.30490379e+01 -8.99435341e-01 5.75472755e+01
      1.17268715e+02 5.26080971e+01 2.41955328e+00 7.14415131e+01
      1.07915298e+02 3.60641670e+01 2.35952497e+00 8.46789703e+01
      1.01381500e+02 2.25616837e+01 2.14995956e+00 9.38512039e+01
      1.04042580e+02 2.17763214e+01 1.71717930e+00 1.03646248e+02
      1.01777824e+02 2.03832035e+01 1.24008608e+00 1.19918472e+02
      1.09240173e+02 3.52005424e+01 8.62815559e-01 1.36235992e+02
      1.19510811e+02 5.39181557e+01 7.56584287e-01 1.20201561e+02
      1.26791985e+02 4.99889107e+01 1.08876085e+00 1.05480690e+02
      1.28433929e+02 4.67061005e+01 1.38880682e+00 9.49496078e+01
      1.28603775e+02 4.61514320e+01 1.61583519e+00 8.50979538e+01
      1.27358170e+02 4.64181671e+01 1.83071518e+00 7.24040298e+01
      1.24051636e+02 4.83003616e+01 2.10574770e+00 6.38546028e+01
      1.16464729e+02 4.74773903e+01 2.34438872e+00 8.48714752e+01
      1.13316727e+02 3.31284218e+01 1.94651043e+00 9.40097351e+01
      1.13871590e+02 3.15172462e+01 1.66669333e+00 1.04540825e+02
      1.13701729e+02 3.20944061e+01 1.33450341e+00 1.29192612e+02
      1.18219910e+02 4.80683479e+01 8.37727308e-01 1.03827423e+02
      1.13010986e+02 3.12603703e+01 1.35151839e+00 9.39984131e+01
      1.13169518e+02 3.08195839e+01 1.66924024e+00 8.41580811e+01
      1.12625977e+02 3.27604637e+01 1.97450805e+00 9.65953522e+01
      9.13379593e+01 8.25363312e+01 1.35610304e+01 7.16516571e+01
      1.35063858e+01 1.61650200e+01 7.02163577e-01 2.20483837e+01</_>
    <_>
      1.01045555e+02 1.83513809e+02 9.17572784e+01 1.56794763e+00
      2.16579533e+01 1.88200150e+01 1.07613884e+02 -2.39687443e+00
      3.45220299e+01 6.44137430e+00 1.08025047e+02 -2.23114967e+00
      5.30993271e+01 0. 1.03407806e+02 -2.05006886e+00 7.34690094e+01
      1.36295748e+00 9.44308472e+01 -1.86425102e+00 9.27557907e+01
      8.53248692e+00 8.36107635e+01 -1.66696537e+00 1.10231514e+02
      8.86855888e+00 8.34250031e+01 -1.45730925e+00 1.29761017e+02
      3.41672897e+00 9.29712067e+01 -1.25384045e+00 1.49215836e+02
      1.84839427e+00 1.02123291e+02 -1.07668781e+00 1.68521286e+02
      8.04705048e+00 1.07683136e+02 -8.90477240e-01 1.79910385e+02
      2.18633308e+01 1.05574951e+02 -7.23521471e-01 8.15907364e+01
      8.40739365e+01 2.06740360e+01 -2.76083469e+00 1.00877518e+02
      9.12434616e+01 5.21860540e-01 -1.39094281e+00 1.20407021e+02
      8.57916336e+01 2.05095310e+01 -2.95118988e-01 4.47908897e+01
      2.80059738e+01 8.48494492e+01 -2.29149961e+00 5.45929794e+01
      2.33383121e+01 8.25513763e+01 -2.16463280e+00 6.72330093e+01
      2.26101570e+01 7.68567047e+01 -2.02254748e+00 7.78005981e+01
      2.86407776e+01 6.71706085e+01 -1.92001855e+00 6.71023178e+01
      2.94062729e+01 7.08665543e+01 -2.06608486e+00 5.54331589e+01
      3.01530991e+01 7.64966888e+01 -2.20538878e+00 1.25373413e+02
      2.95556393e+01 6.68851929e+01 -1.19433320e+00 1.37135925e+02
      2.39544430e+01 7.69325943e+01 -1.07865477e+00 1.48767731e+02
      2.51493645e+01 8.20913391e+01 -9.46514845e-01 1.59316650e+02
      3.21508598e+01 8.35400085e+01 -7.94485211e-01 1.48618378e+02
      3.29163551e+01 7.58308792e+01 -8.88211071e-01 1.36986557e+02
      3.17214336e+01 7.01061401e+01 -1.02816164e+00 6.25466766e+01
      1.14787155e+02 4.46374054e+01 2.59948730e+00 7.72404785e+01
      1.08271095e+02 2.87580204e+01 2.52990937e+00 9.18969345e+01
      1.03696785e+02 1.48843403e+01 2.21065974e+00 1.01587006e+02
      1.04854370e+02 1.31220436e+01 1.50957572e+00 1.11333084e+02
      1.03099327e+02 1.54896784e+01 8.21629643e-01 1.26792381e+02
      1.07281555e+02 3.02893028e+01 5.38146675e-01 1.39264374e+02
      1.15291260e+02 4.51064568e+01 5.48902571e-01 1.27389847e+02
      1.26717697e+02 4.39331207e+01 9.20283020e-01 1.11743835e+02
      1.32244217e+02 4.19444427e+01 1.30643773e+00 1.02016434e+02
      1.33028381e+02 4.12898636e+01 1.54094768e+00 9.13368149e+01
      1.32822998e+02 4.21387749e+01 1.79691434e+00 7.59148636e+01
      1.26699028e+02 4.28886261e+01 2.18935061e+00 6.83719177e+01
      1.14899178e+02 3.98261032e+01 2.52153397e+00 9.17102280e+01
      1.13405525e+02 2.34733677e+01 1.96769834e+00 1.01418968e+02
      1.13592232e+02 2.18445511e+01 1.54173231e+00 1.11146378e+02
      1.12808067e+02 2.34633045e+01 1.11337638e+00 1.34410004e+02
      1.15197906e+02 4.09899712e+01 6.08785570e-01 1.10997009e+02
      1.20575058e+02 3.05743008e+01 1.23021650e+00 1.01250931e+02
      1.22330093e+02 3.05767517e+01 1.55553031e+00 9.15795364e+01
      1.20201645e+02 2.98969593e+01 1.88375866e+00 8.55243835e+01
      8.85790100e+01 8.49324722e+01 1.86533241e+01 7.18645020e+01
      7.76842642e+00 1.84755497e+01 8.73948002e+00 2.24185066e+01</_>
    <_>
      1.05210274e+02 2.05034180e+02 1.02584511e+02 1.53453863e+00
      1.52061319e+01 2.52952137e+01 1.15794655e+02 -2.41157007e+00
      2.69421997e+01 8.91858292e+00 1.19659081e+02 -2.24338770e+00
      4.58773575e+01 3.00393629e+00 1.13999184e+02 -2.08041883e+00
      6.63559113e+01 6.22539902e+00 1.02501740e+02 -1.92067242e+00
      8.68655472e+01 1.15599747e+01 9.21255569e+01 -1.73023319e+00
      1.12233269e+02 1.18914442e+01 9.12600174e+01 -1.45281887e+00
      1.32556458e+02 4.54733801e+00 1.02776932e+02 -1.26373887e+00
      1.54329819e+02 0. 1.15332687e+02 -1.09489787e+00 1.75533463e+02
      4.61984682e+00 1.22743904e+02 -9.23261344e-01 1.87777084e+02
      2.27574062e+01 1.17502304e+02 -7.46117055e-01 7.53262863e+01
      8.92272644e+01 2.93469505e+01 -2.67163110e+00 1.02175262e+02
      9.44686127e+01 8.07746029e+00 -1.48605764e+00 1.28868866e+02
      8.91443939e+01 3.04687214e+01 -4.54373121e-01 3.36855202e+01
      3.62958374e+01 9.47782745e+01 -2.36801863e+00 4.55562477e+01
      2.90760307e+01 9.23165970e+01 -2.22170305e+00 5.89289398e+01
      2.81748505e+01 8.56641693e+01 -2.09076738e+00 7.17422867e+01
      3.71452255e+01 7.18227234e+01 -1.99786544e+00 5.90843163e+01
      3.87404175e+01 7.65887909e+01 -2.15759850e+00 4.49968910e+01
      3.89475861e+01 8.50454865e+01 -2.29733753e+00 1.30899109e+02
      3.55707474e+01 7.31205444e+01 -1.15690148e+00 1.42749115e+02
      2.69421997e+01 8.61031113e+01 -1.07109439e+00 1.57540909e+02
      2.67246742e+01 9.42656631e+01 -9.34042215e-01 1.70333542e+02
      3.42863045e+01 9.69260101e+01 -7.80939639e-01 1.58390305e+02
      3.65755119e+01 8.70962296e+01 -8.58880579e-01 1.44313232e+02
      3.74870529e+01 7.78626862e+01 -9.88475919e-01 5.47959404e+01
      1.30391541e+02 5.43826332e+01 2.60342717e+00 6.79407501e+01
      1.13994202e+02 3.54596138e+01 2.81199002e+00 8.61508179e+01
      1.06681168e+02 1.58958931e+01 2.87654090e+00 1.00994408e+02
      1.09985497e+02 7.48493910e+00 1.63727248e+00 1.15050758e+02
      1.07665215e+02 1.45035734e+01 3.62866610e-01 1.33488708e+02
      1.15848351e+02 3.46631927e+01 3.94768119e-01 1.49937851e+02
      1.32515015e+02 5.69816971e+01 5.54417908e-01 1.33871964e+02
      1.41910095e+02 5.09930992e+01 8.82794321e-01 1.16314484e+02
